O=C1NC(=O)C(c2ccccc2)=C1Nc1ccccc1,0.36100066,0.1526782,-0.22620057,0.37338075,-0.50637054,-0.12797494,0.11062021,0.25229654,-0.12682,-0.15274371,0.32797682,0.24080984,0.48045352,-0.0012500536,-0.5242976,0.39344093,0.22818637,0.22920662,-0.16173233,-0.29895186,0.46511334,0.13653891,-0.10987008,0.28057152,-0.42130166,0.004635279,0.39291313,-0.065167606,-0.20395468,0.2481939,-0.3129331,0.2137288,0.16137892,0.16492201,0.2921192,-0.3300789,0.10038774,0.1624189,0.0956115,-0.030277967,-0.056869697,0.24721164,0.122372895,-0.34274954,0.2740303,-0.01497262,0.20472443,0.04194982,0.014785593,0.19505557,-0.10556943,0.24501702,0.09931949,-0.05220125,0.15611912,-0.09849368,-0.1623545,-0.45907918,0.089133605,0.054011602,0.25032172,-0.15927532,0.31013587,-0.38343257,-0.380521,0.44637725,-0.10728955,-0.1769029,0.475362,-0.38966623,0.05810941,0.071899846,0.29358453,0.25139448,0.3568337,1.5365613,-0.12858847,0.2631249,0.21155407,-0.20798035,0.12781192,-0.1667076,-0.32443118,-0.16555816,-0.07175004,-0.048787113,-0.054635108,-0.19661722,0.009075759,-0.15196745,-0.11971732,0.32755685,-0.07199669,-0.77074105,-0.18708998,-0.43245798,0.23789014,0.01771437,0.21602389,0.32838583,0.15900469,-0.27316096,0.07839061,-0.0014757683,-0.07664816,-0.1336517,-0.025883077,-0.039199013,-0.034589484,0.26501247,-0.06390373,-0.41649973,0.12253359,-0.0012224403,-0.014051318,0.12141371,-0.24149986,-0.046213463,0.55949914,0.22666255,-0.3599134,-0.3196787,-0.41387385,0.30741084,-0.022789845,-0.3206902,-0.2775163,-0.12122121,-0.023280576,-0.1640777,0.300935,0.05410585,-0.013353008,-0.10874643,0.24182163,0.009357945,0.04655789,0.07855937,0.43851113,0.14119327,0.118120976,-0.3015982,-0.12065104,0.10063003,0.17580676,0.21839088,-0.036283914,-0.038783822,-0.1345187,-0.28667408,-0.0013205188,0.2587699,0.060129642,0.027374944,0.111739,0.56105846,-0.1403824,-0.097816,0.34329787,0.26764762,0.32571626,-0.30668706,-0.2799695,0.34424335,0.34519285,-0.16641894,0.11047364,-0.3138894,0.47574303,0.3110543,-0.07629732,0.21454121,0.06724983,-0.14589323,-0.044879906,-0.26354834,0.07342015,-0.30631554,-0.011956371,-0.016003748,0.1303573,0.010965575,-0.2978043,0.039926805,0.25841922,-0.3570614,-0.42449144,0.39366323,-0.076378405,0.1373263,0.03152113,-0.38530892,-0.32905632,-0.35376307,0.103278406,0.1793668,-0.21886258,0.029133694,0.17328118,0.25901493,0.052682444,-0.048216037,0.57654494,-0.308379,0.11754059,0.1490636,0.031079758,-0.09714329,0.025332881,-0.44903442,-0.14903371,-0.5550774,-0.29094714,0.22076462,-0.03811576,0.26029405,-0.28139704,0.093894154,0.13514331,0.102307394,0.19196491,0.33378068,0.23550804,-0.15569197,-0.39629695,0.30986828,0.28867054,-0.4781478,0.31202647,0.2793736,-0.13138582,-0.014280925,0.14421389,0.48574317,0.058782596,0.058709998,-0.1632602,0.3160478,-0.12812461,0.20039201,-0.14996131,0.3844985,-0.03072134,-0.4500102,-0.021222584,-0.070581,0.14179128,0.2716047,0.39146787,0.13950382,-0.46819738,0.14265369,-0.09921993,-0.0052473107,-0.035129424,0.54205734,0.07471398,-0.1758306,0.29230687,0.22480477,-0.054771297,0.37955344,-0.16960976,-0.47694665,-0.2288517,0.44563186,-0.35406,0.041390542,0.6328859,-0.09551836,-0.41438636,-1.205119,0.2232923,-0.10345326,-0.22515431,-0.009910308,-0.1436585,0.039881445,0.15555224,-0.18494283,-0.20994969,0.08802101,0.44441628,-0.14346384,0.040606506,0.16458978,0.03374916,-0.15907322,-0.38179228,-0.32693446,0.04500413,0.053159244,0.20198718,0.10662695,-0.0037006768,-0.1113628,-0.24997891,-0.043402866,-0.056657553,0.06348575,0.46954152,-0.5811877,0.03321855,0.13171764,-0.38702512,0.063295655,-0.08811757,0.242125,-0.2297097,-0.16040961,-0.11079129,0.3171116,0.009219811,0.19536218,0.11349696,-0.3401638,-0.643794,-0.23137698,0.13556242,-0.22938089,0.025172904,0.1590142,0.04284839,0.13006839,0.65327305,0.2056737,-0.0020353908,-0.0049298354,-0.04944265,0.33497787,-0.264065,0.21760842,0.09176615,0.29511142,-0.28928387,0.065371975,-0.17249712,-0.21354729,-0.11574963,-0.3701694,0.34494928,0.034689806,0.48914915,0.5645161,-0.15024497,0.43468374,0.52338386,0.06370197,-0.35921,0.7864803,-0.6380517,-0.075914316,-0.18064637,-0.047258075,0.08116309,-0.1276341,-0.028824765,-0.28302705,-0.21420102,0.2766068,0.34933898,0.064429775,-0.14012353,-0.30409616,-0.053377077,-0.0010286844,-0.12085863,-0.05380389,-0.25634292,0.5701213,0.32160783,0.39907354,-0.31245548,-0.13809495,-0.06595919,0.029907234,-0.1620684,-0.26798418,0.2901993,-0.64840937,0.18871118,0.43232757,-0.2657461,-0.10141051
NS(=O)(=O)c1ccc(Nc2cc(-c3ccc(O)c(F)c3)n[nH]2)cc1,0.26821345,-0.10843729,0.6596647,-0.33993888,0.13211128,0.027765678,-0.16616625,0.23188776,0.5770647,0.48991406,0.097935736,0.24739958,0.24880967,-0.2548359,-0.20317338,-0.14762944,0.017070737,-0.06869083,0.047758885,0.008243815,0.0994028,0.23676074,-0.15764181,-0.17758496,0.47175124,-0.036400646,0.2654665,-0.11694831,-0.27451435,0.1262002,-0.014230014,0.24070044,-0.032633953,0.041038323,-0.12081662,-0.26306975,0.27693185,-0.11304445,0.072755136,0.3749439,0.13066146,0.024866305,0.3775503,-0.17863297,-0.26873863,0.2965957,0.29945758,0.24755928,-0.26452354,-0.36344272,-0.2084177,0.034703325,0.10692284,-0.4376113,-0.0040659662,0.4679521,0.051748298,-0.26995853,-0.081886254,-0.11474657,-0.087113835,0.12638968,-0.110572845,-0.042470966,0.18682855,0.3431798,-0.533838,-0.44290483,0.30104896,-0.2614671,0.18482304,0.30955404,0.008052873,0.21663207,-0.053039256,0.9426242,0.2234069,0.033042498,-0.13816942,0.18522395,-0.2251356,0.19864136,-0.4254641,0.04760159,-0.12564592,0.18213913,-0.21058719,-0.557321,0.35688365,0.11013687,0.65317094,0.22339253,0.16126163,0.43258953,-0.3879065,-0.079834595,0.10299788,0.376619,0.17969207,-0.39327428,-0.3172281,-0.12752186,0.46489683,-0.060838725,0.2765929,-0.08776074,0.055882398,-0.29798278,0.12907244,-0.21108523,-0.12496172,0.18652646,0.24380043,0.23289387,0.3919892,-0.21552661,0.16982156,0.26164714,-0.100666516,0.24077564,-0.09168876,-0.2869913,-0.13767022,0.093147345,-0.42689246,-0.07371992,0.14773132,-0.27463195,-0.26159304,0.22348833,0.6284478,-0.50180554,0.03161044,-0.25793576,0.3107926,-0.06010472,0.14755775,0.24535137,0.50093883,-0.20702817,-0.66531914,-0.20732133,-0.32485482,0.020883983,-0.3998003,-0.36360097,-0.35115674,0.5891916,-0.31522936,0.51924044,0.13472371,-0.058659095,-0.013672166,0.012503873,-0.23309389,-0.19384544,-0.59632915,-0.23700073,0.1575667,0.043856062,-0.0015137913,0.09905663,-0.2899719,0.080714144,0.3623091,-0.2758992,-0.23145998,-0.32225293,-0.1879065,0.2742873,-0.06910235,0.34517118,-0.09280814,-0.264909,0.15048787,-0.059025995,-0.08321111,-0.003927901,-0.2890811,-0.120973945,-0.27058542,0.25970334,0.07713429,0.4138842,-0.10214702,0.49463198,-0.029562147,0.012516931,0.25696412,0.042232152,-0.11694951,0.14510824,0.39389512,0.4199812,-0.39231667,0.19159742,0.034996245,-0.09327294,-0.17157704,0.15171576,0.3011284,0.31405926,0.1261885,-0.017324014,0.43008247,-0.24575989,-0.59807956,0.2510264,-0.43112835,0.23759344,-0.58455426,-0.097164,0.1624736,-0.2632612,-0.29231182,0.31746674,0.056017257,-0.351876,-0.3339776,0.4766023,0.061234377,0.11049748,0.44404325,-0.0067898817,-0.30246887,-0.06401499,0.0047812327,0.19584079,-0.21316981,0.05530805,0.09470381,0.09056381,0.15789956,-0.14543797,-0.17987268,-0.3320043,0.09530803,-0.19514365,0.20802166,-0.15307868,-0.006771297,-0.27806887,0.09762197,0.052312464,-0.2543426,-0.3116652,-0.088170916,0.28847566,-0.25736895,-0.2741241,-0.44709846,-0.38263333,0.25588363,0.1623725,-0.47692662,0.24572209,0.061506532,0.47002378,-0.2498346,-0.23936945,0.5161099,0.06918085,0.120204695,0.18471088,0.3040673,-0.063552625,0.4282425,0.11224284,0.09798459,0.044524923,0.37953508,-0.89277154,-0.16785528,-0.3069512,-0.059539206,-0.3852894,-0.15191096,0.059420254,0.070516914,-0.18758841,-0.08678119,0.46278608,-0.0003872271,-0.055380672,0.27357763,-0.17814705,-0.547283,-0.033291563,0.15286149,0.21317643,0.16882382,0.54257494,0.020597206,-0.21417788,0.5441221,0.15230109,-0.32212391,0.30840632,-0.024078008,-0.21240805,-0.64377904,-0.114310555,0.17431875,0.13800377,-0.0698468,0.08765183,0.25371838,0.08627943,-0.08109818,-0.15077212,0.018256638,-0.20293483,-0.07408734,-0.028339349,0.055256378,0.024752509,0.42861456,0.2920855,-0.0561753,0.11094638,0.1302403,0.19500637,-0.27573964,-0.11065121,0.32000053,-0.2802376,-0.4368678,-0.5679302,0.21294104,0.116835855,0.2352341,-0.0992196,0.55725974,0.26851583,-0.0049568494,0.03656501,0.3604724,0.011814265,0.0945988,0.047319975,0.15241517,0.09311345,-0.24145727,0.4250425,0.022928745,0.21361698,0.6676712,0.28709528,0.25297773,-0.43352267,-0.011335929,-0.57627463,-0.17707181,0.36170742,-0.14543647,-0.29734886,-0.3818413,-0.21844222,0.044908382,-0.03262088,-0.1067626,-0.15648367,0.098082155,-0.1352222,-0.21277551,0.44392583,-0.11385236,-0.083767384,-0.2820545,0.08140844,0.30133855,0.1463164,0.27211615,-0.2594463,-0.2428198,0.16955498,0.16145465,-0.38856167,-0.034202512,0.19548385,0.46947336,-0.049123805,0.40944433,7.9235055e-05
CC1(C)CC(n2cnc(-c3ccc(F)cc3)c2-c2ccnc(N)n2)CC(C)(C)N1,-0.003413851,-0.18051161,0.4467064,0.64263695,0.08690619,0.31229344,0.23205303,-0.031903945,-0.1255591,0.13978857,0.4662384,0.24372752,-0.06609933,-0.12397856,-0.16956523,-0.18338026,0.17038104,-0.11016353,-0.39430994,-0.034660824,0.04260965,-0.089050844,-0.19916153,-0.09386433,-0.09841638,-0.17567563,-0.22315693,-0.121165715,-0.06707812,0.2271225,0.16273506,0.21633235,0.12346687,0.25924543,-0.08222183,0.18496138,0.13219532,-0.083924696,0.2111631,0.11224148,-0.12456847,-0.28178057,-0.61236024,-0.14513074,0.07760558,0.13529521,0.21926971,0.31676576,0.25122643,-0.24021049,0.28537118,0.23849608,0.037313636,-0.23019108,-0.13531992,0.05969477,0.20684962,-0.52473104,0.31304204,-0.38489264,0.011697908,-0.12819216,0.33056727,0.17332834,-0.072422884,0.6877535,-0.13542719,-0.3385716,0.15052912,-0.26457223,-0.36266735,0.44414154,0.4526864,0.23085657,0.32840806,1.8846711,-0.1082661,0.1865863,-0.29334903,-0.39487088,-0.29740116,-0.33676296,0.43310052,0.08031902,0.17429478,-0.07628645,0.03196737,-0.44238636,0.2432525,0.4623935,0.43525633,0.228499,0.061874747,0.75222635,-0.084884785,-0.3428992,0.047407,-0.21537516,-0.09305191,-0.47576693,0.28188416,0.13059819,0.33112943,-0.19436543,0.16853972,-0.10622356,0.02906036,0.08071254,0.31859398,-0.014454516,-0.010980515,0.28205612,-0.02469322,-0.26320678,-0.29446018,-0.035395455,-0.29008672,-0.15371957,0.19280878,0.17300825,0.0412361,-0.036317986,0.016638478,-0.3618159,-0.36959872,0.30398706,0.2192928,0.12390114,0.16834971,-0.022665298,-0.19685,-0.0475626,-0.5914233,0.30040407,0.09926569,-0.017000375,0.7275665,-0.2754356,-0.37013498,0.04845796,-0.23226121,0.05522328,-0.052590802,0.6580257,-0.04716558,0.9999792,0.028659942,-0.1811435,-0.0432861,0.28601566,-0.12379174,0.018973423,0.11281051,0.5667187,-0.03373868,-0.17656806,0.008875404,-0.0852567,-0.15675756,0.092602186,-0.28217238,-0.0901259,0.2290941,-0.20971842,-0.15596148,0.3603018,0.27087054,0.1271026,-0.1750171,-0.025195876,-0.1977905,0.2983353,-0.5152417,-0.014024826,-0.20972882,0.08335559,0.35748902,-0.25966284,0.03136464,0.037104473,0.06343011,0.41488305,0.06494861,-0.15423533,0.013279139,-0.15834555,0.19760191,0.020077888,0.16723965,0.093954474,-0.39452508,-0.27636766,-0.4287204,0.33339694,0.47318745,-0.058184125,4.4729306e-05,0.11367875,-0.09266617,-0.28580123,0.19944483,0.032432675,0.497593,0.045280926,0.14532004,-0.04475144,-0.73181766,-0.64536256,-0.040816247,-0.3000603,-0.101077914,0.17739524,0.14164425,0.063160785,-0.13341379,0.19534914,-0.022932734,0.23957323,-0.33531,-0.06316051,-0.34769452,0.14584969,0.2652143,0.12326411,0.13015248,0.045211952,-0.17276193,0.09029418,0.018128822,-0.14143828,0.41176507,0.11928567,0.080300614,0.042888634,-0.1506598,-0.18583158,0.14421976,-0.1157217,0.6649108,-0.18646063,0.5872451,0.03897252,-0.16766667,-0.07029531,-0.004200864,-0.1426221,-0.061192002,0.093997985,0.0070747826,0.047399662,-0.15618888,-0.39042813,0.12876868,-0.034628168,-0.11988438,0.006373862,-0.040610112,0.18939649,0.31568816,-0.12529545,-0.21354009,0.1691421,0.47187147,0.32899314,-0.27253708,0.07890216,0.16227593,-0.033375103,0.30794066,-0.24281494,-0.006345712,-1.2448137,0.10457809,-0.043126587,0.14185749,-0.05842193,-0.24735625,0.25077984,0.09936724,-0.17162347,0.7043298,0.35407516,-0.17031293,-0.05021689,0.19761872,0.20879832,-0.7085673,0.18311283,0.21839938,-0.011230238,0.12458846,-0.12701128,0.3956433,-0.56834006,-0.10116651,0.38364422,-0.19896229,-0.019965153,0.12147223,0.22742079,-0.95453537,-0.14627174,0.14048032,-0.13316129,-0.082833014,-0.057789825,-0.24508183,-0.11249588,-0.13399534,-0.35655972,-0.20845833,-0.3617223,0.35627195,0.1962459,-0.16777153,-0.06780993,0.11908787,-0.03690424,0.008807522,-0.08652219,0.11272715,-0.04411309,-0.38546723,0.14585446,-0.36265478,0.07475454,-0.1660171,-0.4820856,-0.10358791,0.2027683,-0.1137742,0.05538223,0.39405838,0.807028,0.08579584,-0.37002203,-0.12404468,-0.018445635,0.24069431,-0.17636628,0.31283167,-0.081577055,-0.041599445,-0.25192454,0.27011257,-0.2859005,-0.0015801925,-0.38148436,-0.18039101,0.11811274,-0.042963512,0.102914646,0.05592572,-0.019456828,-0.1281555,0.2584035,0.225421,-0.18710102,0.1635995,0.2798775,0.32172486,0.2694904,0.29942325,-0.02242767,-0.021334214,-0.29988244,-0.060320895,0.17479625,0.02114934,0.012653959,0.11909393,-0.51939076,0.27014095,0.009559956,-0.2826842,0.5602227,0.15401042,-0.13000272,0.0029525678,0.46973944,-0.14898889,0.13520847,-0.4167083,-0.43479082
Nc1nccc(C#Cc2cncnc2Nc2ccc(OCc3cccc(F)c3)c(Cl)c2)n1,-0.3486241,-0.01470203,0.1927685,0.16307512,-0.075708434,0.0014880456,0.45684367,0.21720453,0.25749546,0.26744416,0.4153042,0.11681291,-0.16367087,-0.50188255,-0.10158028,-0.24558608,0.16292146,0.18731181,-0.25003493,0.038592275,0.28125915,-0.202813,-0.12104019,-0.36560002,0.44195426,-0.0013768239,-0.005910722,-0.1168601,-0.1408682,-0.060456857,0.35015592,-0.18723983,-0.56451225,0.6063813,0.0049386118,-0.13045439,-0.28199524,0.01719003,-0.5679871,-0.22578357,-0.17433856,0.18115689,-0.21091232,-0.12386283,-0.068433836,0.42531797,-0.15129843,0.025536409,0.014465863,-0.3131238,0.2364481,0.057431046,0.17988823,-0.053388353,0.26982617,0.09620777,0.020811725,-0.2593186,0.43075225,-0.64436007,-0.050840676,0.20190944,-0.053059947,-0.015344034,-0.32691628,-0.06567503,-0.4234228,0.049943373,-0.0055218716,0.1246114,-0.116251804,0.40517193,0.40726927,-0.078412704,0.041031413,1.6694897,-0.0029078107,0.1074391,-0.33072236,-0.039931294,0.108218364,0.020920567,0.37773204,0.1703648,-0.12103494,-0.17956023,0.24139155,-0.32896683,0.35771838,-0.01991052,0.065293185,0.25423053,0.119609475,0.54825413,0.2530185,-0.13101079,-0.14543715,-0.017227901,0.22747402,-0.19425781,0.009423416,-0.13888767,0.56278455,0.12970378,0.14607982,-0.58737487,0.13193873,-0.7733312,0.41505867,0.10719525,-0.3920279,0.31599987,0.33383206,-0.30535194,-0.4061379,-0.09645702,-0.1951569,-0.02295941,-0.13239087,0.12609468,-0.3176955,-0.04004394,-0.06605017,-0.37325162,-0.4288323,-0.1478683,0.12324007,-0.0486968,0.31507394,-0.114763506,0.022712315,-0.4116033,-0.41474384,-0.051469047,-0.16908583,0.028341707,0.59837025,-0.114279896,-0.16963229,0.23785348,-0.13786478,-0.08859375,-0.4946116,1.1047312,0.16010407,0.22599663,-0.119170636,-0.38308066,0.1082079,0.049862094,0.10788435,0.035784863,-0.09933619,0.3850302,0.16306818,0.15071915,-0.15015797,0.590621,0.37513784,0.23845972,0.016007729,-0.067275785,-0.14059849,-0.5399424,0.30034417,0.021023357,-0.008264715,0.14917532,-0.054720994,0.5233297,-0.37717438,0.21953227,0.0635057,-0.10462145,-0.4864381,-0.24336262,-0.33023652,-0.15991274,0.18191366,-0.028677022,0.30599403,0.41624987,0.10367073,-0.064390555,0.14824134,0.4084888,0.0986154,0.05410312,0.0036265396,0.28110796,-0.055226434,-0.22171286,-0.11671514,0.61589545,0.07180887,0.27507392,0.4507391,-0.04537188,0.005764584,-0.14318392,-0.027009482,0.05389803,0.41342887,0.21830392,-0.065517664,-0.3322356,-0.9968547,-0.3653125,0.08634259,-0.0014163072,-0.5086771,0.39819884,-0.27786335,-0.12332763,0.21478274,0.18263796,-0.19967005,0.21325275,0.16008121,0.38491607,-0.084467106,0.19377261,0.19094607,-0.0031874934,0.002395631,0.43737018,-0.13910419,-0.029639164,-0.17041689,0.17385943,-0.13522476,-0.013823955,0.25703374,0.080156885,-0.3648776,-0.23631899,-0.04465249,-0.025859019,0.16590683,-0.39842016,0.32232442,-0.10075106,-0.2116635,0.28718626,-0.08413919,-0.07921899,-0.3256569,-0.36820042,-0.08084753,-0.08660879,-0.17601082,0.21981812,-0.057882722,-0.010121722,-0.14550135,0.11835506,-0.082303144,0.15102814,-0.0663476,0.22469956,0.41756827,0.40324453,-0.18627137,-0.009289007,0.07021413,0.07406326,-0.17974956,-0.4156277,0.55709493,0.18251282,-0.13066454,-1.1686065,0.11359716,0.2332881,0.16759571,-0.099183105,0.22362891,-0.08597665,-0.17541362,-0.041268356,0.05550774,0.5554686,0.07374096,0.027225142,0.19398835,-0.016504,-0.46877912,-0.14703757,0.10395836,-0.18105876,0.2641772,0.06332411,0.025700405,0.11468608,0.089642584,0.21993148,-0.3107195,0.093116656,0.18272464,-0.1461599,-0.9944863,0.07828605,0.29954708,-0.22479478,0.35493296,0.24172065,0.027694123,-0.0064968984,-0.26433244,-0.35389647,-0.008176959,-0.35116833,0.26123983,0.2506548,-0.12757953,-0.18895483,-0.4090383,0.14768808,0.06300726,0.07427931,-0.23654443,-0.31081027,-0.1688757,0.2429131,0.22791971,-0.26395196,0.12961693,-0.42335096,0.713729,0.15052871,-0.33943805,0.38851964,-0.10577328,-0.25616333,-0.011419144,-0.3982598,0.20031086,0.09614594,0.0034163678,-0.07683918,0.3183877,-0.13758974,0.09599196,-0.038872626,0.60025465,0.12416881,0.16417994,0.07837579,0.09198378,-0.1523238,0.010908011,-0.2537964,0.1323819,-0.21152736,0.21973217,-0.1471205,0.19252475,0.21940526,0.05932531,0.44555444,0.17650346,0.19734752,0.14121361,0.1243806,-0.4940301,-0.1743914,0.0160362,0.024615232,0.14464371,-0.0783346,0.38260674,0.13094413,0.14197983,0.21506797,-0.2284437,0.15926757,0.49210718,-0.10095776,-0.17292036,0.56289095,-0.29930505,0.10639968,-0.5950379,0.026860377
COc1ccc(Nc2ncc(-c3ccccc3)o2)cc1OC,-0.54972523,0.051368076,-0.020259673,0.2241168,0.096080706,-0.17250462,-0.4182223,0.11057943,-0.20295782,0.3919244,0.61987954,0.42229784,-0.19927314,0.29169127,0.1432045,0.08324138,-0.024459774,0.2559915,-0.19552597,0.5175011,-0.07884473,-0.010330303,-0.2683167,-0.39677513,0.518157,0.3802622,-0.171654,0.19155915,0.078085594,-0.057554614,0.07177088,0.23706144,-0.16855179,0.14903006,0.051677767,-0.21976025,-0.016792517,0.07019306,-0.45000124,-0.016195616,-0.30344853,-0.12212084,0.17353179,-0.070050016,0.0021771032,0.23300909,0.19281594,-0.13429685,0.1414468,-0.15675482,0.18966235,0.06616114,-0.059120424,0.29458755,-0.026345856,0.092585966,-0.23476025,-0.41327292,0.01257648,-0.25219718,-0.18681806,-0.23352188,-0.13914089,-0.23859741,0.04592378,0.31449416,-0.24938329,-0.16013274,-0.058725707,0.35998428,-0.3415696,0.27531052,0.090936795,0.06100335,0.27494183,1.5960238,-0.14894554,0.36272842,0.26977968,0.104446374,-0.15112208,-0.32586402,-0.11833492,-0.22736958,-0.11450777,-0.020940557,0.13056864,-0.02626382,0.28980833,-0.1003943,-0.032555632,-0.50483805,-0.26570174,-0.15283515,0.023082219,0.20851068,0.117417626,0.27077398,0.19487278,-0.19380593,-0.010651304,-0.49400112,0.840891,0.14955612,0.21761857,-0.037584744,0.20986588,-0.26925048,-0.07368191,-0.25688797,0.115944855,-0.28505313,0.43330798,0.43053287,-0.15978086,-0.34683913,0.1758635,0.30500656,0.45707157,-0.12237109,0.33990002,0.36255962,-0.20066342,0.30738893,0.3868532,-0.13190386,-0.18170537,0.113118425,-0.18728316,0.4611556,0.25388703,-0.029899353,-0.2736191,-0.09736861,0.1280662,-0.2353426,0.3585057,0.1824424,0.050830655,0.17611079,-0.589872,0.47296274,-0.38481534,0.17057376,0.37560713,-0.0995689,-0.09745132,-0.20308214,-0.18592115,-0.061169695,0.12284176,0.27910733,0.2814214,-0.15735321,-0.14558633,0.33641347,-0.25660458,0.30620268,-0.19916381,-0.02191407,0.09809102,0.27036113,0.05796586,0.15807337,0.15771869,-0.019251492,-0.00835636,0.17711177,0.48204577,0.13784288,0.051841114,-0.020952554,-0.17481901,-0.20305897,-0.36765757,0.47930387,0.3988361,0.14406332,0.19268101,0.04609737,0.2504424,-0.18879753,-0.049170434,0.15561289,0.03818257,0.24994262,0.104343794,0.009911384,0.48825145,0.13337019,-0.25250152,0.22879797,0.0665313,0.060330123,0.10459412,-0.10127035,-0.13753802,-0.158941,-0.1273046,-0.1089377,0.07474339,0.26337263,0.36148077,-0.00042293596,0.22132795,-0.047418192,0.26824787,-0.10933258,-0.02110391,-0.0050270627,0.2762036,0.12310819,0.100693285,0.41584802,-0.055808827,0.1058738,-0.24568218,-0.025476187,0.11468287,-0.12894182,0.2710107,0.34070295,0.1684794,-0.026100505,-0.15211554,0.057866715,-0.21378039,0.35611725,0.3018492,0.42065075,-0.24321271,-0.04906883,-0.044202358,-0.51660573,-0.23589727,0.03912435,-0.0032618588,-0.41223812,0.62364393,0.005495047,-0.23972279,0.12536448,0.13821024,-0.20029579,-0.3163803,0.25518376,-0.33278507,0.25637478,0.1786994,-0.104135364,-0.1779638,-0.30580473,-0.069942676,-0.22266285,-0.062026557,0.3389968,-0.1485989,0.05965447,-0.015246229,-0.012134716,0.30080262,-0.31577557,0.0074978154,-0.2845979,-0.14514223,-0.20364785,-0.046364717,0.30832455,0.41406396,0.014160407,-0.3503353,-1.2567068,0.04103511,-0.20028874,0.1678695,-0.24311224,0.41535294,-0.13847028,-0.20457222,-0.10012347,-0.03328863,-0.11187211,-0.1219056,-0.51974636,0.0642427,0.10898615,-0.37826452,0.104091756,-0.20560826,0.31682947,0.12911044,0.68656784,-0.05145934,-0.03352102,-0.13118748,0.14287148,-0.4214178,0.3571909,-0.2985985,0.14914374,-0.18737881,0.042045906,0.17233048,-0.23457208,0.08693434,-0.019161185,0.3551037,-0.18744804,0.4441116,-0.77084,0.48936638,-0.1566044,0.108734824,-0.12827104,-0.17393045,0.083606675,0.24252346,-0.04337936,-0.5528437,-0.058092885,-0.23281594,-0.50361025,-0.4153966,0.11833875,0.51466435,0.08104433,-0.39642236,-0.102421835,0.034097057,0.23770577,-0.14077288,-0.22348301,-0.03394741,0.22239101,-0.07187926,-0.19424956,0.18734914,-0.09234884,-0.14756764,-0.14887536,0.06623983,0.015038686,0.032494213,0.024261879,0.0827101,-0.3055901,-0.2448021,0.032114465,0.10813562,0.03870683,0.41321152,-0.33865705,-0.49445352,0.17148986,0.1117758,0.14941375,0.38219804,-0.21021195,0.35100493,0.11955909,-0.40033227,0.36577332,0.5130929,-0.10533605,-0.120480925,0.26867118,-0.31872752,-0.1878768,0.37084332,0.28760368,-0.24257435,-0.11810984,0.25476497,-0.21383324,-0.115763,0.07505914,-0.04320763,-0.08271339,0.21225949,-0.69168425,0.225207,-0.17987989,0.30419216,-0.16288637
Nc1nc(-c2ccccn2)c(-c2ccc3ncccc3n2)s1,0.06462009,0.16745836,0.109033145,0.039605007,0.1745101,-0.19144817,0.43325016,0.14014001,0.27541912,0.12496034,0.33183748,0.06310551,-0.22539522,-0.54153025,-0.12952152,-0.0040277853,0.37556288,0.27699152,-0.29994202,-0.27344584,0.3813471,-0.11246893,-0.012025912,-0.190764,0.17830023,-0.15892565,-0.17271785,-0.033147525,-0.107440144,0.06986867,0.44503826,-0.08924011,-0.47833386,0.40697163,0.059437186,-0.03070256,-0.069875084,0.08793844,-0.3065808,-0.37059495,-0.026776781,0.20631497,-0.26251945,-0.023446217,0.029470606,0.41652146,-0.23907642,-0.4060789,0.13412373,-0.1459838,0.32751003,0.14562508,0.59416705,0.08106178,0.077883534,0.5240295,0.22931297,-0.3799197,0.008649107,-0.07410733,0.19407329,0.023575706,0.18506713,0.20756017,-0.2879758,-0.05333794,-0.23900644,-0.022699103,-0.065383434,0.07109285,-0.16092166,0.32900825,0.4812454,-0.032621358,0.002678498,1.7385631,0.31630138,-0.043696757,-0.28226244,-0.15521058,-0.30290154,-0.088173755,0.16257493,0.11613525,-0.43544304,-0.40338078,0.55040663,-0.48189375,0.41112706,-0.09291716,0.1607212,0.36816126,0.28364247,0.54356813,-0.0724215,-0.25072703,0.1291472,0.0027106188,0.28224093,0.014356629,-0.0769488,-0.32452416,0.47170138,0.33644113,0.23972906,-0.5651866,0.060736183,-0.5691613,0.54264987,0.4401785,-0.2354061,0.2955602,0.023957713,-0.00320986,-0.3885189,-0.08347769,-0.25611028,-0.19700351,-0.34943956,0.22288008,-0.013915575,-0.19065802,-0.09109208,-0.36538756,-0.13667785,-0.11675759,0.21290264,-0.09834684,0.03842925,-0.16920562,0.07886203,-0.2697264,-0.21515226,0.0639961,0.051086113,0.052680057,0.5925895,-0.41704115,-0.31396493,-0.017433384,-0.26241946,-0.31858638,-0.21490282,1.1966861,0.07158703,0.17586072,0.04703808,0.21034758,-0.10343721,-0.030723501,-0.1258304,0.11534304,0.22840674,0.25486463,-0.27260658,0.06343728,-0.07822809,0.45773396,0.44511634,-0.00928743,-0.116082825,0.12215992,0.13172892,-0.2095176,-0.02761431,-0.1728377,0.09707187,0.016435374,-0.019183546,0.16916777,-0.46948805,0.05550336,-0.106212005,0.048424523,-0.31456256,-0.22114798,-0.15395123,0.09006812,-0.03334514,0.2598358,-0.039745804,0.059038337,0.10265077,-0.159631,-0.19534595,-0.019138293,0.35246482,0.07537242,0.26988837,0.7147323,0.053187378,-0.5387882,-0.048962094,0.31717092,-0.21923113,-0.066559896,-0.037242725,-0.20543197,0.1022893,-0.021104181,-0.024637766,-0.15423976,0.57483745,0.113220945,0.070831075,-0.5038747,-0.9593498,-0.36649343,-0.0528468,0.117424905,-0.061850745,0.16778578,0.053221006,0.09388533,0.114130266,0.48621142,-0.4824807,0.11679066,-0.12843072,0.7345984,-0.21349366,0.43502,0.23810212,0.13809147,0.07730745,0.16666524,-0.20027226,0.08941519,-0.071642786,0.13654156,-0.029717986,-0.09417402,0.1316125,-0.123825535,-0.39016753,-0.106023416,0.08853974,-0.24212445,0.03974427,-0.32044238,0.2809874,-0.15996233,-0.24775466,0.036366124,-0.13866454,0.089164004,-0.050078273,-0.121581964,-0.27926922,-0.06377074,-0.23118624,0.21474044,0.026560947,0.05081164,-0.08299827,-0.03501799,0.056957714,0.031407252,-0.09892657,0.21521026,0.38434404,0.15598871,0.03125603,-0.012446089,0.29553512,0.13513592,-0.28146482,-0.39622343,0.34383237,-0.045387354,-0.28691566,-1.3988616,-0.14501226,0.33410075,0.23383495,-0.06762753,0.27250627,0.47321492,0.14150625,-0.019964239,0.33243605,0.5617666,-0.0109163085,0.13459267,-0.017783107,-0.13676304,-0.55003124,-0.34932166,0.2291761,-0.2623914,0.14241906,0.3823418,0.2584629,0.12105938,-0.19544944,0.65292585,-0.28557247,-0.057790652,0.30499044,0.21960343,-0.91988987,-0.16809732,0.33218953,-0.19542451,0.2727585,0.21550632,0.15218435,0.025741909,-0.40470266,-0.6475234,-0.05584061,-0.1597839,0.30030274,0.20954289,-0.1126291,0.34974742,-0.25776875,-0.05099768,-0.19017729,-0.013364816,-0.05974395,0.02806897,-0.20979889,0.13253555,-0.27910534,-0.2705156,-0.01890238,-0.41766268,0.588622,-0.060178503,-0.1228456,0.08187413,0.03276122,-0.069686994,-0.2683369,-0.2643581,0.08808248,0.014388554,0.2528887,-0.06714086,0.41689196,-0.18077506,0.15595374,-0.03514269,0.30310467,-0.0059234696,0.21371484,0.05939275,0.08681847,-0.25087905,0.17526315,-0.4547643,0.077302374,0.02204559,0.28534788,-0.113230884,0.029679865,0.16146268,-0.16180973,0.4253518,0.20544983,0.19550951,0.21676357,0.07621015,-0.38206238,-0.1812248,-0.08940631,-0.1049062,-0.37575766,-0.055288754,0.20109381,-0.07282364,0.24937378,0.16387655,-0.06878352,0.12990151,0.30622774,-0.18936568,0.06700141,0.7149695,-0.34196708,-0.033899985,-0.2543336,-0.3526646
Cc1nnc(-c2ccc(C)c(-c3ccc(C(=O)Nc4cccc(C#N)c4)cc3)c2)o1,-0.08289723,0.13803011,0.2715151,0.28385803,-0.24714383,-0.039595496,0.2375237,0.20480517,0.11170652,0.28720054,0.46634105,0.12965728,-0.073389955,-0.12666416,-0.1478619,-0.052092146,0.1144026,0.13406754,-0.09594156,-0.16718653,0.34576765,-0.15437394,-0.30277002,-0.3350086,0.436882,-0.10985808,0.13645342,-0.049450733,-0.26306778,0.011313896,0.4140552,0.15137394,-0.3617863,0.65041804,-0.057656348,0.4518424,-0.22229974,-0.10204528,-0.17865442,-0.27924153,-0.49054447,0.04852676,-0.37825105,-0.3128845,-0.23736489,0.31404072,-0.25759208,-0.37510014,0.16880302,-0.26078558,0.4581263,0.21730538,0.091095276,0.06300227,-0.19015002,0.13359527,0.1957501,-0.37524247,-0.05203454,-0.28311965,-0.014468551,0.13190106,0.07569144,-0.06269923,0.0626184,0.26442966,-0.11232945,-0.09261899,-0.08403914,0.5634951,0.05679856,0.24731472,0.57550186,0.02058025,0.21767607,1.7447906,0.113707215,0.035763603,-0.11908229,-0.19635823,-0.085833125,-0.24273355,0.53532755,0.11991488,-0.27165073,-0.3945604,0.13313009,-0.33537686,0.11156915,-0.26051328,0.12882166,0.1679963,0.10864787,0.62467414,0.3657323,-0.09233759,-0.1399176,0.051923353,0.147611,-0.2226369,-0.0100379465,-0.16581665,0.32249123,-0.2959008,0.13577197,-0.39966363,0.19439903,-0.7511315,0.6519921,-0.053466685,-0.19508861,0.16997358,0.44660234,-0.033481736,-0.52819395,-0.12684622,-0.25204334,-0.0196052,0.1242989,0.41447124,-0.00084791717,-0.29512504,-0.33347437,-0.45545602,0.04415567,-0.3312344,-0.121572465,-0.13199152,0.19794583,-0.13866891,0.012248276,-0.21168369,-0.14406551,0.27303213,-0.3444744,-0.1262049,0.6311219,-0.3607741,0.07408399,0.25874034,-0.10945196,0.15279296,-0.04755085,0.7716717,-0.1839176,0.46277925,0.12967944,-0.3853798,-0.058856916,-0.006617225,0.13844465,0.090013795,-0.029246572,0.37881866,-0.09282588,-0.22547138,-0.07605312,0.48709068,0.15628196,0.33565828,-0.105402194,0.008926291,0.3863278,-0.42660278,0.5160693,0.07376144,0.33901992,0.074466094,0.12832725,0.24094842,-0.4048721,0.2075532,-0.34120592,0.023171607,-0.35383922,-0.7211583,-0.3976834,-0.13711378,-0.25104228,-0.07147253,0.13333625,0.083665706,0.13773952,-0.12567458,-0.13012512,0.37871674,0.26995566,0.22161742,0.24100237,0.10172578,-0.018444085,-0.23552237,0.21779287,0.77657306,0.047934093,0.14638884,0.3538862,-0.058462787,-0.016784444,-0.3644965,0.020001356,-0.07725045,0.18080343,0.005827418,0.35129786,-0.5399843,-0.9847018,-0.2732062,-0.104571074,-0.11334118,-0.24819276,-0.0007229093,0.3169009,-0.15667138,0.20928231,0.015561299,-0.021073213,0.2730061,0.33838826,0.35112128,-0.3150326,0.30959582,0.19842495,0.017939862,-0.23966953,0.34150234,0.1520947,-0.32105204,-0.25893393,0.22087343,0.5341302,-0.21783589,0.34802362,0.0031136412,-0.4482729,-0.08006611,0.08155725,-0.2602854,0.3563779,-0.48832822,0.15027043,0.2122309,-0.027809463,0.1263665,-0.069238715,-0.39488867,-0.47709033,-0.07935642,0.043302663,-0.050298017,-0.25528458,0.1096376,0.140203,-0.029507738,-0.15436552,0.39462706,0.1522283,0.070050456,0.28032395,0.17413999,0.13439667,0.3278473,-0.0049302564,0.059555642,0.0485153,0.011055893,-0.29762572,-0.20232882,0.8664486,-0.016586764,-0.10080938,-1.1561333,0.15685026,-0.0052378387,0.022755247,-0.11835314,0.081796736,0.119350374,0.07363304,-0.12218891,0.0077051073,0.35159907,-0.14121974,-0.24882866,0.14019668,0.010054985,-0.3214493,-0.16407666,-0.005740393,0.116152525,0.29439363,-0.22472504,0.09141879,-0.06423962,-0.032805964,0.22071968,0.1256438,-0.17475584,0.03222523,0.050000418,-0.88200325,-0.17470853,0.112440914,-0.16817829,0.39461344,-0.13696195,0.030488016,0.091448225,-0.26217762,-0.080110386,-0.19993252,-0.27150002,0.25732657,0.3109503,-0.27909955,-0.13981478,-0.42315775,0.17961673,0.104483165,0.063153535,-0.19387285,-0.18964705,-0.39544022,0.11805118,-0.017645903,0.042667285,0.33162788,-0.5147272,0.37988812,-0.18341461,0.03598575,-0.18243398,0.15875141,0.20815426,-0.042247675,-0.1806708,0.048601028,0.06330912,-0.03076956,0.13002934,0.44623944,-0.20070556,-0.002384151,-0.16140416,0.1978609,-0.1686147,0.11629995,-0.0010863289,0.29875144,0.14527987,0.14218737,0.061177075,0.2500052,0.121338174,0.12812957,-0.12902968,0.36437964,-0.046554733,0.22223505,0.05146883,0.14637765,0.15429203,0.36363852,0.102026574,-0.1648504,-0.24553296,-0.06539178,-0.055731032,0.094029106,0.112980105,0.18126762,0.1090185,0.0026283255,0.17155159,-0.54308283,-0.044309285,0.26647738,-0.011810153,-0.01766766,0.42681283,-0.34160495,0.1404669,-0.50096554,-0.18341695
COc1ccc(-c2coc3ncnc(N)c23)cc1,-0.3748504,-0.17475788,-0.0009281076,0.09872122,0.21951018,-0.09748991,-0.37464577,0.11937581,-0.13175009,0.31975442,0.408082,0.3915522,-0.22857372,-0.021095436,-0.058609437,-0.14514132,-0.030305544,0.13523674,-0.23125285,0.61092836,0.11183668,-0.07669921,-0.22691223,-0.20397672,0.35678685,0.16737328,-0.26007524,0.20127967,0.09777683,-0.0019352799,0.109669104,0.44279775,-0.017106175,0.05646129,-0.01774588,-0.324771,-0.013524003,-0.04659448,-0.3765214,0.34899303,-0.17063318,0.2491911,0.2958598,-0.12436527,-0.10161351,0.37334067,0.5645315,-0.4333073,0.33239734,-0.12975545,0.36132696,0.120194286,-0.10880002,0.33984464,-0.07408756,0.012278855,-0.2861844,-0.40167964,-0.041992757,-0.4180619,-0.25965008,-0.21606393,-0.001452986,-0.13862848,0.073248565,0.16508354,-0.34245,-0.046248734,0.037648313,0.1662025,-0.23226725,0.15828256,0.14901416,-0.0023961219,0.33441004,1.7871517,-0.060628504,0.31943455,0.1917019,-0.10748966,-0.2623456,-0.53185695,-0.08796621,-0.05054065,-0.066868335,0.0414603,0.23144451,-0.008323925,0.38215858,-0.19057122,0.235975,-0.29468107,-0.20475315,-0.072532155,0.132033,0.14996682,0.1265514,0.47863775,-0.007797355,-0.2846703,-0.17925358,-0.6321985,0.6673538,-0.0315603,0.14987108,-0.08008307,0.0830779,-0.44312927,0.17224939,-0.44106495,0.09442667,-0.24525969,0.14730018,0.11329488,-0.18662526,-0.16334309,0.12961495,0.18010521,0.16577087,-0.027128031,0.46878758,0.32421726,-0.16485943,0.31079042,0.25231844,-0.23342443,-0.3583942,0.26341814,-0.19011,0.6642719,0.16155198,-0.0097115785,0.005629589,-0.03714796,-0.11000813,-0.17648144,0.40595716,0.14244255,-0.052160643,0.13131148,-0.5235847,0.6556643,-0.13107757,0.10451149,0.39765322,0.015164909,-0.30866718,0.087343015,-0.16869271,0.12524165,0.2902225,0.2611412,0.22576565,-0.20324059,-0.21397337,0.24502762,-0.20605543,0.29320967,-0.16078477,0.068909645,0.070261076,0.20247102,0.025732532,0.086768605,0.13553685,-0.08547201,0.28660285,0.16000764,0.45761526,0.16069701,-0.032298543,-0.09492175,-0.41365305,0.09663656,-0.18275522,0.5534004,0.4390523,0.07280848,0.12976685,0.29636005,0.3720891,0.20998566,0.3655191,0.25903392,0.16819772,0.328025,0.3244159,0.14886953,0.3820013,0.19238594,-0.253194,-0.06484737,-0.04156346,0.07883775,0.17972976,-0.31789365,0.018601349,-0.077117085,-0.33917958,-0.012445448,-0.15464489,-0.012422448,0.42121407,-0.10244985,0.22592787,-0.08244135,0.28552642,-0.044819478,-0.31433138,0.14085133,0.26795018,0.17774245,0.096611045,0.24024783,-0.4261335,-0.17161891,-0.15541932,0.112877175,-0.054756623,-0.058770012,0.26809815,0.3378493,0.26623207,0.06735702,-0.27000552,0.11454026,-0.19021305,0.23358777,0.21638021,0.3810803,-0.06586562,0.10790379,-0.18374385,-0.5940393,-0.038711082,0.25650802,-0.19939043,-0.46925637,0.663807,-0.11115271,-0.25409037,-0.0012242097,-0.25017095,-0.06497302,-0.13586648,0.09819509,-0.32741383,0.1919089,0.25088072,-0.09673386,-0.23305781,-0.32049784,-0.19465484,-0.23055954,-0.08989991,0.048284695,0.09590783,-0.00018783376,-0.11155405,0.101550885,0.24065287,-0.27542487,-0.113670155,-0.24438414,0.04451326,-0.080812395,-0.18435784,0.30255994,0.43732467,0.13128152,-0.050646506,-1.290662,-0.045508936,-0.1520943,0.10619041,-0.21808445,0.36515555,-0.3375373,-0.4402608,-0.19221728,0.08439879,0.086288475,-0.06950276,-0.25889787,0.07116283,0.20475362,-0.39231646,0.12462947,-0.15839386,0.3959287,0.29223514,0.48106557,-0.06199691,-0.1321175,-0.00571354,0.031377856,-0.55193293,0.36333665,-0.26628408,0.12979004,-0.23763007,-0.1210807,0.13222979,-0.10787889,0.13034071,0.052984115,0.2978615,-0.26506448,0.2846589,-0.71090734,0.47167307,-0.19363208,-0.066272795,0.03829859,-0.3159947,0.027387323,0.19823234,0.2998245,-0.48362896,0.060298473,-0.21415997,-0.35168275,-0.3974555,-0.02585436,0.70741385,-0.0049007093,-0.2145135,-0.16256338,-0.02033205,0.07869122,-0.1323501,0.20417161,-0.013666519,0.35696694,-0.049425974,-0.16064648,0.1864482,-0.10765448,-0.42256367,-0.27796912,-0.25617787,-0.061776996,0.07263485,-0.09828069,0.14032915,-0.27478355,-0.37630847,-0.02010221,0.108020395,0.40857625,0.42093468,-0.3047075,-0.4230074,-0.2264903,-0.30780298,0.30981508,0.3950285,0.08796881,0.22634971,0.110530965,-0.16535233,0.19465086,0.32651564,0.062189564,-0.17529291,0.56845385,-0.2974349,-0.24854837,0.5126016,0.090975426,-0.00705555,-0.10976331,0.12548737,-0.088241905,-0.1462178,0.1817,-0.11896066,-0.035898402,-0.031030161,-0.4984145,0.11958679,-0.18869634,0.32552367,0.03236694
NS(=O)(=O)c1cccc(Nc2cc(-c3ccc(F)cc3)n[nH]2)c1,0.2589152,-0.11485064,0.6209019,-0.30869386,0.10475592,0.0586164,-0.13009384,0.2805071,0.5173998,0.48943692,0.12737682,0.19373043,0.26463792,-0.28828114,-0.22426634,-0.16134416,0.028971408,0.010222472,-0.042495906,0.048467353,0.082877554,0.22795518,-0.18048546,-0.18984495,0.47620004,-0.07403137,0.2872232,-0.11636949,-0.27448365,0.16230737,-0.007255145,0.18991981,0.015147691,0.106360115,-0.15849611,-0.22842087,0.23805892,-0.11434826,0.099770315,0.3322203,0.15250038,0.04764126,0.4141416,-0.16078311,-0.27111802,0.30696553,0.27084932,0.27835783,-0.18874377,-0.37200323,-0.20239095,-0.013542848,0.15125759,-0.3977628,0.01825753,0.4565344,0.0660513,-0.16410558,-0.058174144,-0.12306656,-0.086525865,0.0949604,-0.12652165,-0.07572934,0.21475315,0.34765512,-0.5147977,-0.42690355,0.22608425,-0.29397058,0.18024918,0.27398145,0.044254377,0.25033873,-0.06982542,0.95967686,0.20702897,0.098137826,-0.18120827,0.22836827,-0.2175564,0.2600263,-0.41398758,0.047340266,-0.10755638,0.19460109,-0.24844028,-0.5415402,0.36275738,0.12038256,0.6823428,0.14533974,0.122922376,0.43178046,-0.39594263,-0.09882647,0.09549902,0.4048047,0.18944213,-0.4415577,-0.29032335,-0.08920772,0.42585197,-0.037704304,0.23166743,-0.080221005,0.05471279,-0.2902562,0.14326578,-0.19867025,-0.18144758,0.23836747,0.2389908,0.26112774,0.37453613,-0.1942984,0.12871929,0.3311868,-0.102063514,0.2600949,-0.15782045,-0.31483555,-0.19835377,0.055665307,-0.34612727,-0.0808033,0.051585175,-0.35214975,-0.27419165,0.18663974,0.62196016,-0.50314975,-0.029645344,-0.19978827,0.35232082,-0.069610015,0.17736414,0.1980441,0.4884032,-0.21702936,-0.6722858,-0.17626676,-0.3002578,-0.0041891825,-0.34109622,-0.4305229,-0.38283494,0.5387587,-0.2774085,0.4775706,0.20077331,-0.13366717,-0.04556421,-0.030406795,-0.21541034,-0.18460351,-0.5811205,-0.30474895,0.14195941,0.038962387,-0.0063096914,0.10578852,-0.2523244,0.118717834,0.36235067,-0.28404126,-0.16557948,-0.3398926,-0.18932335,0.2572734,-0.0553154,0.3648026,-0.1277699,-0.28827524,0.19734076,-0.080972336,-0.08158735,0.03898812,-0.29573885,-0.11556238,-0.29576543,0.33484808,0.12027215,0.406826,-0.055275343,0.5112641,-0.062422786,0.037482914,0.2326154,0.11077584,-0.057942346,0.15297844,0.4027567,0.46460164,-0.4072301,0.22905278,0.07374364,-0.06866416,-0.1095939,0.14251691,0.30062556,0.32227767,0.05835157,-0.07615805,0.36304578,-0.28194273,-0.65127605,0.2676019,-0.43206844,0.23077342,-0.59433275,-0.12685008,0.1357236,-0.22808467,-0.33180746,0.3066716,0.04268415,-0.40981,-0.24553913,0.51560545,-0.003418078,0.1126527,0.4592938,0.09130827,-0.30009982,0.011161826,-0.020602075,0.24036546,-0.20504569,0.08496344,0.10999288,0.14047508,0.22301076,-0.15918812,-0.18742372,-0.32596594,0.080796786,-0.16756043,0.2515014,-0.1416681,0.009483727,-0.27074906,0.13780992,0.07379795,-0.25892305,-0.33633456,-0.062211465,0.3071309,-0.27529585,-0.21596862,-0.4429024,-0.33677366,0.24235831,0.1589125,-0.4787805,0.23154062,0.0660157,0.4858749,-0.24585865,-0.2541476,0.5046897,0.050941017,0.09993876,0.13553873,0.3011237,-0.0924521,0.34860742,0.07612461,0.1477965,0.020879582,0.36921412,-0.9068973,-0.15061416,-0.30325857,-0.04128836,-0.42678338,-0.16066861,0.017851565,-0.0048804013,-0.23307921,-0.026197864,0.44584274,-0.0067965607,-0.06532335,0.23750676,-0.16432434,-0.5420955,-0.007905418,0.14527701,0.1743894,0.16546538,0.5002446,0.024329215,-0.1930045,0.5540624,0.14279835,-0.39330307,0.3194475,-0.04291679,-0.24677391,-0.6503049,-0.0790831,0.20860375,0.09530865,-0.06161277,0.0966664,0.16386971,-0.000121152225,-0.11311834,-0.12372874,0.029939577,-0.22151756,-0.044598415,-0.012039203,0.087536514,0.052285355,0.48218936,0.26596704,-0.07727056,0.113901064,0.18231082,0.17743903,-0.24151249,-0.15016066,0.39086914,-0.3016995,-0.5070645,-0.50935364,0.19616404,0.12970662,0.1685377,0.011250059,0.53399825,0.28765476,-0.01047093,-0.00668058,0.3386919,-0.0015643503,0.1010582,0.053056147,0.16298227,0.044834875,-0.24642718,0.48534033,0.07284308,0.24120766,0.66269195,0.2537434,0.25860503,-0.45872647,-0.019452617,-0.5705537,-0.14866577,0.35692176,-0.14430505,-0.27858898,-0.3225713,-0.16780767,0.051604632,-0.013716493,-0.02233381,-0.18176165,0.08153015,-0.1790965,-0.27020884,0.48571575,-0.12546617,-0.13326451,-0.27806252,0.11197942,0.38759282,0.14237347,0.22689766,-0.32488716,-0.265377,0.19471432,0.11399126,-0.39379486,-0.09210556,0.17986286,0.45764798,-0.09886358,0.4202398,0.0053268843
Fc1ccc(-c2ncn(CCCN3CCOCC3)c2-c2ccncc2)cc1,0.060004413,-0.2548515,0.12293907,0.28531864,-0.033065487,0.38974854,-0.021197213,0.36582494,0.06808488,0.38846844,0.37133765,0.23495533,0.0006154942,-0.50797737,-0.092159495,-0.15265957,0.51345277,0.13439687,-0.34761277,-0.19760406,0.43620092,-0.25528008,-0.06870984,-0.080361284,-0.17100362,-0.030734353,-0.18146868,-0.12844448,-0.14559041,-0.15561411,0.3572495,-0.05090471,-0.46754512,-0.39886343,-0.0056324885,-0.42172804,-0.14842698,0.031961232,-0.15056929,-0.09374823,-0.41244265,0.05796234,-0.10062523,-0.022527894,0.14642186,0.5400974,0.009139091,0.17887333,0.03708652,0.01772055,0.61992204,0.25591993,0.17823024,-0.50287664,0.13872688,0.05505537,0.25479394,-0.07401612,-0.17683001,-0.27666163,0.21942337,0.08588966,0.0722602,0.09291958,-0.16216739,0.19531624,-0.37153924,-0.5114699,-0.3348777,0.17401423,-0.16865265,0.229635,-0.09829463,0.11951014,0.5066377,1.6634692,0.109274045,0.030634336,-0.23241471,-0.25088388,0.05093573,-0.19681051,0.07402006,0.38768834,-0.47814035,-0.111382514,0.21636839,-0.032223683,0.05435859,0.0758919,0.06874928,0.16805238,0.04648538,0.5785647,0.053263996,0.26341125,-0.5026657,0.047309306,-0.38251826,-0.35702372,-0.048831854,-0.116845846,0.4496968,-0.15005678,0.18960142,-0.35471976,0.12517314,-0.24159227,0.49691504,-0.12745887,-0.34160656,0.20614043,-0.023492418,-0.26802674,-0.18086974,-0.28328893,0.053543616,-0.049747895,-0.21192037,0.0064925784,0.12925808,-0.091487266,0.16703664,0.025542391,0.050850403,-0.3219521,0.11928722,0.2972191,0.39752078,0.2378129,0.25553814,-0.26602563,-0.22395623,-0.19028619,-0.217344,-0.19809805,0.7558077,0.04524157,-0.58286154,-0.0366782,0.007196495,0.26916867,-0.30265692,0.99462163,-0.062782474,0.8269556,-0.70828307,-0.44898173,0.24662846,-0.04070761,-0.12006983,-0.007710933,0.06970071,-0.010410724,0.38562477,0.12429691,-0.07790018,0.5819852,0.03218841,-0.16319405,-0.1793173,0.31061482,0.3881928,0.31769475,0.06696475,0.44768044,-0.16119435,0.018654164,0.2882239,0.3997251,-0.18380694,0.09452962,-0.10551158,-0.15701908,-0.454726,-0.23612078,-0.23038115,-0.45316797,0.1032477,0.09267834,0.3314327,0.060264878,0.20229252,-0.14120434,-0.058596358,0.10637082,0.25513428,-0.058467813,0.06098377,0.5780282,0.06309662,-0.00045448606,-0.03127855,0.2776384,0.24980636,0.11671239,0.2960039,0.22765991,0.17800048,0.13593073,-0.12801802,-0.06859317,0.19056717,-0.038796775,0.034387868,-0.33003017,-0.6148669,-0.05639608,0.18158722,0.10615907,0.04760908,0.5588506,0.04180041,0.24803162,-0.05023557,-0.16840456,-0.3107826,0.23853895,-0.02832641,0.45624804,0.06095936,0.027649427,0.008390908,0.1614014,-0.015985478,0.33399802,0.08437256,0.08410928,-0.31268537,-0.23165324,0.1841152,-0.010474806,0.071340844,-0.3381857,-0.20377322,0.08032679,0.19312388,-0.31760868,0.05070666,-0.48225966,0.23753774,0.10065314,-0.3382039,0.4296139,-0.0065109585,0.073723845,-0.18442465,-0.36459234,0.33751464,0.097853646,-0.262019,0.24378933,-0.010369956,-0.31096363,-0.17184997,-0.10965403,0.04356363,0.07061965,0.07270191,0.26391032,0.5915433,0.24916272,-0.095699936,0.4191007,0.10013264,0.075014286,-0.0876864,-0.39250985,0.19324675,-0.027419247,-0.3035363,-1.3125004,0.1265737,0.3256806,0.025775703,0.011985226,0.43268475,-0.2988909,-0.6249001,0.17598815,0.092677884,0.3398027,-0.22390868,0.22929686,-0.16518684,0.36450848,-0.7213229,0.05838431,0.17024243,-0.2476588,0.16507721,0.36561552,-0.10895911,-0.17216288,0.01092378,0.32989585,-0.022889651,-0.10574842,0.25890908,-0.014966223,-0.7098907,-0.019899413,0.11398832,-0.28934193,0.619797,0.101579756,-0.009093286,-0.15489422,-0.2678345,-0.44321775,-0.13104309,-0.41740575,0.26698685,0.10893212,-0.2067272,0.15234421,-0.28329277,0.1685563,0.06310844,0.03135149,-0.27603036,-0.33460298,0.08091775,-0.01349245,0.0066715954,-0.35605565,0.094923966,-0.5059429,0.5027856,0.06323918,0.25502086,0.17774425,-0.1674876,0.43992463,-0.322599,-0.43596667,0.09089253,-0.21684903,-0.17829344,0.048991766,0.14715704,-0.2474852,0.09157387,-0.24493852,0.35551405,-0.3303221,-0.0032476552,0.2175152,0.12139249,0.36635995,0.27651003,-0.38617954,-0.018616678,-0.3690373,0.033147592,0.0900413,0.3616648,0.48760605,-0.00038347326,0.041765086,0.30453366,0.279883,0.3350639,0.11556667,0.12783904,-0.15228158,-0.28723106,-0.0032650705,0.1388138,-0.29085952,0.27100927,0.0009837864,-0.15663373,0.34644875,-0.10817573,0.25341472,0.17617075,-0.020885045,-0.12049169,0.5091056,-0.35433093,-0.13950078,-0.26044655,-0.119743094
N#Cc1c(NC(=O)c2ccccc2F)sc2c1CCCC2,0.19979659,-0.12966014,-0.0589794,0.063061416,-0.05001057,-0.2262232,0.24817765,0.6431266,0.22140053,-0.24137096,0.16523713,0.030053446,0.0018201533,-0.33206084,-0.08850075,0.3850912,0.4525827,0.07271394,-0.33725074,0.18012515,-0.16134723,-0.20251329,0.11353264,0.015959023,0.41155204,0.15076064,-0.19905007,-0.02540491,0.35720748,-0.038265366,0.5542826,-0.29214108,-0.02353085,0.17618538,0.49470484,-0.2829632,0.14556049,0.089936994,-0.3100106,-0.247509,-0.17952375,0.4142396,-0.2873797,0.042493906,0.49323294,0.30737364,0.13630298,-0.53649557,-0.024097448,0.22848529,-0.07530845,0.40702432,0.76561403,-0.085124396,0.17980048,0.01160242,-0.3708547,-0.19488303,0.28476548,-0.27499598,0.15963326,0.08828942,-0.024558796,0.10429547,0.17607671,-0.16253336,0.040956836,0.30162835,0.26353276,-0.23478986,0.007937148,0.16560602,0.39487267,-0.3121689,-0.5019971,1.4937062,-0.07727418,0.13309656,0.32396388,0.4308383,-0.045126844,0.029798472,-0.21326971,-0.053177506,-0.187455,0.1628191,0.024074864,0.042563673,0.233763,0.007990252,-0.06002287,0.071034946,-0.29446512,0.11181702,0.2354718,-0.3900781,0.24912943,-0.044472866,0.055091675,0.5199578,0.26902702,0.48345447,-0.4931333,-0.06936198,0.035063654,-0.0048645935,-0.11181416,0.036521066,0.2299814,0.21507041,0.13298133,-0.34197384,0.39366686,-0.21506086,0.21907496,0.06963135,0.23077509,0.07380969,0.14681377,0.041532107,0.09110995,0.568698,-0.09938382,-0.5307042,-0.24888586,-0.13144422,0.14040896,0.017646737,-0.18613055,0.08551079,0.16235273,-0.15613374,-0.021980956,-0.28405908,0.3678239,-0.31567582,-0.5003948,-0.41486287,0.15215051,0.07593464,-0.13648112,-0.032860152,-0.3869371,-0.44766453,0.1255588,-0.35627386,0.40206623,-0.10177419,0.06303517,-0.025694646,0.087293595,-0.06317731,0.093194425,0.029783297,-0.10976271,0.21337861,0.035520416,-0.28769645,0.064004876,-0.0737311,0.46160948,0.16754965,-0.4233499,0.26391232,0.23101725,-0.37119332,0.26649415,-0.14009617,-0.11535959,0.10905601,-0.07441915,-0.106021516,0.06997769,-0.015957592,-0.33805388,-0.532366,-0.20894626,-0.23655052,0.07987557,0.14273797,-0.06668344,-0.550731,-0.22719042,0.19145125,-0.38240603,-0.3119595,-0.08952727,0.23775218,0.21847917,0.028131599,-0.09260359,-0.085052945,0.3334117,-0.09846969,0.22543286,0.062358387,-0.07176189,0.11301422,-0.4496609,0.21858253,0.24983908,-0.29358912,0.33471498,-0.037981983,0.27326247,-0.22999813,0.24413452,0.21529612,0.09930427,-0.101235546,-0.18355355,-0.07146861,0.28137454,-0.06303052,-0.12795493,0.18609989,-0.0051858695,0.028782371,0.2711476,0.30320668,-0.09201737,-0.0019318538,0.19417505,-0.3944239,-0.06859254,0.1598385,0.29768467,-0.39965096,0.41910926,-0.08539473,-0.2018921,-0.001668883,0.008542682,-0.31361553,0.25279945,0.020322194,0.0064518293,-0.24173488,0.07378818,0.14829946,0.12641282,0.2941006,-0.09188138,-0.18526773,-0.88405615,0.4634925,-0.2649141,0.22384587,0.6796925,0.16084693,-0.19417112,0.24127567,-0.04816778,0.13110982,-0.13603188,-0.0063850195,0.002024695,0.2816817,0.22293103,-0.09187013,0.1472639,-0.1888894,0.18289451,-0.27289212,-0.16310662,-0.04303633,0.08746554,-0.096451305,0.14949097,0.24017046,-0.20723148,-1.194043,0.76871204,0.078857034,-0.42768118,-0.1254672,0.3196141,-0.010537573,0.20531723,-0.029828425,-0.08415022,0.34242404,0.29015893,0.3388838,-0.12929177,-0.11461338,-0.089122064,-0.27812675,0.17483474,-0.23809047,0.25211775,0.04920262,0.108683035,0.35917783,0.009794898,0.056891475,-0.5790767,0.08347876,0.37298918,-0.13332355,0.16471697,0.073693134,0.46209192,0.17384855,-0.294139,0.036079455,0.22103024,0.3551348,-0.4499017,-0.4708631,0.017165324,0.15322416,-0.23537356,0.2899384,-0.2138395,-0.2920864,-0.81499034,-0.10741403,0.2975933,0.21102205,-0.33787468,0.36748144,0.4113216,-0.22469531,0.6608397,0.18711583,-0.22220568,-0.22214559,0.14167094,0.3324243,0.041820776,0.0918229,0.03972749,0.15865529,-0.3181102,0.09159899,0.107317775,-0.40503648,-0.21898617,-0.19266926,-0.25165895,0.02428953,-0.048614785,0.19326548,0.14944822,0.08218033,-0.06527011,-0.15469459,-0.21046188,0.3301386,-0.08628313,-0.0015605309,-0.61918044,-0.020490214,-0.14833318,0.07699534,0.17122875,-0.2888764,0.0015307119,-0.30954388,0.02394351,0.07745891,0.28227517,-0.00685813,-0.18419881,0.090458386,-0.13613334,-0.5572584,0.06825407,0.50511396,0.07796536,0.17126271,0.12135274,-0.05692187,-0.6108817,-0.20932133,0.378984,0.017069817,-0.29878473,-0.25858343,-0.2675662,-0.12731445,-0.22548898,0.4965576
CN1CCC(n2cnc(-c3ccc(F)cc3)c2-c2ccnc(NCCO)n2)CC1,0.17825386,0.108400196,0.38714832,0.45930254,-0.1279478,0.1192987,0.09102834,-0.12311919,-0.16729629,0.26485154,0.12262574,-0.14630687,-0.1260766,-0.18132058,-0.35322994,-0.34640568,0.17797418,-0.004194791,-0.4484505,0.11311125,0.2076484,-0.26188278,-0.095625564,-0.24421696,-0.21349545,-0.060098067,-0.24986058,-0.26749825,-0.5545768,-0.25101534,0.18913868,-0.24583071,-0.27795437,-0.3908017,0.10063075,-0.008727,-0.18900199,0.1466545,-0.16749139,-0.16569504,-0.13331126,-0.17131259,-0.11683706,0.47056642,0.28721783,-0.029056452,-0.16547811,0.045763824,0.15845507,-0.45517325,0.65168905,0.2914019,0.030895555,-0.19740014,-0.06625327,0.16992398,-0.041662265,-0.48044842,-0.03589949,-0.29101416,0.2946939,0.0004307167,0.111837104,0.49492222,-0.29996386,0.3387205,-0.3084335,-0.15821093,-0.05330878,-0.4007409,0.31083456,0.1992332,0.3900349,0.3163388,0.26284155,1.590253,0.0012031376,-0.3686534,-0.38498917,-0.0627256,-0.32433662,-0.3163486,-0.38028497,0.39231876,-0.26804668,-0.10734822,0.2997652,0.04682169,0.12470107,0.5348639,0.41188455,0.11227315,0.24553825,0.19152856,-0.00027427464,0.50026554,-0.2405333,-0.2629881,-0.28980175,-0.46356195,-0.0614222,-0.18671703,0.6421709,-0.28687263,0.42089587,-0.3975852,-0.16949615,0.37376308,0.24719064,0.1909022,-0.1293858,0.39051712,0.13990444,0.00066628034,0.14169265,-0.39807037,0.12821501,-0.15656486,0.37808037,0.4017107,0.18478048,-0.1309031,-0.30053368,0.2735361,-0.0444888,-0.06197291,0.2138123,0.20955296,0.368892,0.13994364,0.121194765,-0.11715,-0.49229103,0.24053387,-0.4250442,0.049976844,0.7556927,0.04993245,-0.4152966,0.11133093,-0.1656456,0.41896468,0.0321976,0.17006156,-0.23231405,0.89209265,-0.28715515,-0.16317916,-0.21333113,-0.24439074,0.1125249,-0.012135768,0.32215413,0.13518342,0.42036504,0.39379492,-0.33716124,0.46906972,0.19060187,0.1279358,-0.30864897,0.101384886,0.13546208,0.11315536,0.019632915,0.22182894,-0.17719635,0.19067402,0.59902143,-0.19499005,0.13732392,0.14383934,0.04531812,-0.10346357,-0.42203826,0.087070085,0.11849768,-0.13990179,-0.00471601,-0.032998543,0.22906508,0.38331282,0.48193392,-0.18295401,0.007854331,0.1434469,0.22349161,-0.11052846,-0.014246832,0.3476684,-0.63296753,-0.0820383,-0.2238677,0.2921867,0.099770784,0.06771148,0.08312723,-0.057573453,-0.028039115,-0.07491556,-0.12238689,0.24968404,0.21268253,-0.005207983,0.11620262,-0.13659672,-0.7522886,-0.014695524,-0.09991868,0.23523332,0.116817765,0.5641881,-0.31054044,-0.02074729,-0.071825065,-0.0229188,-0.19171032,0.17422599,-0.35691047,0.19500077,-0.39842892,-0.1642539,-0.025536465,0.1521512,0.16195677,0.089348696,0.2236135,0.3920807,-0.25061825,-0.27677795,0.24616241,-0.19855072,-0.119463995,0.2556927,-0.2539985,-0.3329373,0.15691303,0.04904136,0.008281576,-0.1470531,0.29371476,-0.16354589,-0.34368053,-0.114474565,0.2789605,0.16111177,-0.06303782,-0.31158286,0.07522648,-0.37116754,0.11751182,0.07272565,0.3450214,-0.19629811,-0.14188777,-0.14473306,0.24635309,0.038567644,0.26025718,-0.085019395,0.31120244,0.066172265,0.12590463,0.18549004,-0.09403725,0.28945705,0.0110099455,-0.43763262,0.48470032,-0.13411333,-0.1472484,-1.1972897,-0.30570722,0.14592054,0.17911184,0.053857237,-0.28465828,-0.22247519,0.06420369,0.27458972,0.38802767,0.34855744,0.3424881,0.065349475,-0.07670261,0.15388831,-1.0747534,0.11398233,0.43755347,0.0333264,0.1801167,0.72919357,0.41801348,-0.14680776,0.24322513,0.17098036,-0.2796737,-0.0036759784,0.26194978,0.2016948,-1.0132803,-0.2804364,0.2244854,-0.40974027,-0.13061847,-0.034676317,-0.15901531,-0.012934662,-0.19501056,-0.07020169,-0.068687454,-0.14048465,0.2714549,-0.12572242,0.097358786,0.2808495,-0.41136053,0.26251662,-0.028847735,0.1730449,0.01730851,-0.3769058,0.031549238,0.335487,-0.20433888,0.12590727,0.093407236,-0.14680205,-0.244281,0.2701034,-0.07574778,-0.21650246,-0.09713606,0.10565531,-0.42238697,-0.3129607,0.107272394,-0.0077226018,0.18775457,0.20501299,0.060170226,-0.2036218,0.09114165,0.06421235,0.042978484,-0.3213965,0.015366934,-0.07784141,-0.16393937,0.2846442,0.42553332,-0.07758047,-0.18710557,-0.29378986,-0.17888096,-0.12192421,0.32953307,0.15530539,0.0028104263,0.07511926,0.18222126,0.09314149,0.46806398,-0.39410305,0.24133112,-0.03718734,0.12762508,0.28178817,-0.034369055,-0.9199128,0.026451651,-0.20400797,0.35315487,0.13395251,0.20951313,0.18370959,0.12880586,-0.21730715,-0.02160913,0.56841457,-0.22858895,-0.059111096,0.07504539,0.019997476
CCS(=O)(=O)c1ccc(OC)c(Nc2ncc(-c3cccc(C(C)=O)c3)o2)c1,0.16538568,-0.12834187,0.4437157,-0.45468703,-0.040955577,-0.1198403,-0.09086617,0.055150423,0.13454667,-0.06523446,0.3434862,0.5603986,0.111501575,-0.09222004,-0.18018793,0.022341294,0.043057572,0.009531464,0.11396697,0.19482224,0.08873879,0.23874639,0.16624022,0.14997229,-0.12477734,0.3716254,0.34308445,0.019656697,0.22202344,-0.049441032,0.19969189,0.3181289,-0.025623733,-0.108304866,-0.2811031,0.037594497,0.37670633,-0.05385729,-0.19263145,0.4156563,0.30474725,-0.14047392,-0.044847876,-0.23186462,-0.47950682,-0.13087307,0.11078358,0.12652116,-0.1661624,0.11490816,0.12441682,0.14618301,0.15567568,-0.44130722,-0.12242505,-0.24244502,0.035162635,0.13514616,0.07893847,-0.09655712,0.07704692,-0.09448622,0.06285269,-0.25180835,0.045796063,0.31478074,-0.26599556,-0.09988616,0.00045747243,-0.43134364,-0.2457073,0.26663494,-0.056917083,-0.051050976,0.2668808,0.91397643,0.22940665,-0.018896073,-0.15713213,0.08120059,-0.51112616,0.073058784,-0.49278563,-0.18485689,-0.0593383,0.030951703,0.44461426,0.2712545,0.34033912,-0.44871098,0.604855,0.26764363,0.16243342,-0.12146075,0.13295776,-0.50262094,0.217905,0.19432898,-0.03626978,0.27173147,-0.11724968,-0.0040341374,-0.12858367,-0.227856,0.4961053,0.3368448,0.14541933,-0.11037166,0.25081593,0.12449991,-0.34493864,-0.27246734,0.13670975,-0.41622502,0.23984571,0.1370321,0.050938442,-0.18674894,-0.0676016,0.30084017,-0.31935245,-0.68377846,-0.36202118,-0.081063084,-0.005902893,-0.113552906,-0.46011603,0.17057428,-0.07036239,0.25184855,0.5494188,-0.5079701,-0.2061381,-0.30547115,0.24511787,-0.25116318,-0.1274465,0.30557898,0.4204263,-0.2650338,0.195697,-0.1832308,-0.035603542,0.27316526,-0.5958736,-0.28772163,-0.17900391,0.4923016,-0.044075925,0.21699739,0.31480297,0.18296088,0.08623108,0.043865982,-0.16355097,-0.05104804,-0.47284013,-0.069901876,0.16216254,0.29690257,0.28095308,0.19745491,-0.13982332,-0.4210814,-0.084862046,0.29378313,-0.10006232,0.053666826,0.43450844,0.12258394,0.039043806,0.035439003,-0.541766,0.016648924,-0.024624623,0.06479843,-0.35720235,0.080220886,-0.11985753,-0.1269264,-0.0689858,-0.026228938,0.15562658,0.05881709,0.3783117,0.07866132,0.017471932,-0.17284073,0.042107616,0.1677492,-0.38735947,-0.5105327,-0.27294222,0.60489756,-0.045353763,-0.2698866,-0.1260452,-0.17031983,0.0046575796,0.3385177,0.23927116,-0.086797506,0.094072506,0.2401238,0.35357362,-0.199566,-0.405354,0.12052228,-0.17646396,0.028678827,-0.17149699,0.06944616,-0.19530281,-0.32589042,-0.24313974,0.23194173,-0.11624045,-0.2442484,-0.3582463,0.37784255,-0.31218764,0.108623885,-0.10576235,0.31251794,-0.42444342,-0.039910182,0.15766047,0.21815792,0.28054467,-0.016197808,-0.36191913,-0.08572568,0.42830124,0.018187385,0.19849363,-0.16812769,0.45502195,-0.25281888,-0.2295412,0.09870476,0.05325754,-0.27740237,-0.047663506,0.25219822,0.41508177,-0.547445,0.2562285,0.31170648,0.02604876,-0.06399814,-0.11258028,-0.10247331,-0.0066657,0.11945715,-0.52563864,0.44044656,0.42081964,0.2545701,-0.29747102,-0.5941137,0.3628941,-0.191785,0.039244246,-0.1153224,0.22369972,0.19211349,-0.13936433,-0.17291316,0.23341694,-0.13541672,0.8899584,-0.88275063,-0.10940474,-0.48402753,-0.25575304,-0.100240916,-0.070208296,0.17830615,0.41861337,-0.13102236,0.15979168,0.11943969,-0.2826877,-0.16212912,0.135059,-0.5756147,-0.52735674,-0.33146,-0.34171292,0.33312985,0.12284924,0.120220765,0.4664191,-0.528834,0.36020425,0.38034943,-0.21544181,0.14607498,0.13708946,-0.14191844,0.027876873,-0.0896049,-0.01428876,-0.2244859,0.39721653,-0.20121478,0.21072075,0.27426225,0.14370854,0.26482886,-0.01610349,-0.22211373,-0.17580952,-0.2695597,0.13213082,0.101182036,-0.06301513,0.22754033,0.0797917,-0.18837243,0.37652248,-0.32146594,0.058278065,0.09332593,-0.3923757,-0.37708473,-0.18386847,-0.29503763,0.10457588,-0.1607876,0.07303585,0.22402534,-0.27038643,0.8174035,-0.12354117,0.20395255,-0.31516474,-0.08597328,0.19247055,0.058240905,0.45267436,0.10521148,-0.03314724,0.30897987,0.12894,0.27466375,0.2881652,0.5371462,0.19781008,0.720215,0.005622407,-0.38004106,0.43986702,0.27429196,-0.017254496,-0.255255,-0.10521511,-0.13177909,-0.1421181,-0.20052472,0.062243402,0.32468846,-0.012712157,-0.05592105,0.12473529,0.3143783,-0.18172307,0.037082016,-0.3023809,0.097651295,0.37036037,0.17758714,-0.038706712,-0.01960583,-0.20435388,0.07593646,0.1986318,0.15066202,-0.0067262943,0.24756941,0.6517964,-0.26255178,0.5423567,-0.111451864
O=C(O[C@H]1CN[C@H](C#Cc2cc3ncnc(Nc4ccc5c(ccn5Cc5cc(F)ccc5F)c4)c3s2)C1)N1CCOCC1,-0.1460182,0.10636385,0.17391789,0.11010965,0.05744797,-0.17530653,0.3977021,0.7425943,-0.23170374,-0.36071754,0.29996023,-0.08260953,0.29537448,0.203926,-0.17240046,0.42179418,-0.20565152,0.02298995,-0.45182776,0.15018699,0.21365827,-0.035875287,-0.036153782,0.047328886,0.052098207,-0.051923893,-0.16517809,0.13931482,-0.18159059,0.17107117,-0.53076965,0.07524416,0.39415026,-0.010925201,0.020951621,-0.32676807,0.22680786,0.028326737,0.21940391,0.3230239,-0.15348789,0.051709976,0.5034105,-0.07842979,-0.0025691292,-0.3261906,0.1541006,0.26330698,0.08987174,0.10521445,0.20907818,0.3127056,0.02900421,0.08980653,0.14168653,0.11842884,-0.4049993,-0.06828114,-0.049356792,0.006960807,0.11235419,-0.31663525,0.49214816,-0.117575705,-0.2904995,-0.011644614,0.31755534,-0.13193169,0.4608933,0.039498262,-0.052212786,0.15766425,0.14125235,-0.40165177,0.19802085,1.6322476,-0.022067541,0.56854296,0.1605167,-0.27613488,0.3897492,-0.13828947,-0.16092727,0.21340883,-0.16668685,0.22360484,0.062583804,-0.16541445,0.14920521,0.059340384,-0.19960222,0.0049359268,-0.48538268,-0.24614507,0.040938184,-0.3411833,0.34945804,0.19444552,0.16091546,0.33092585,0.28986725,0.10777725,0.09538667,0.15677777,-0.023286179,-0.13592441,0.011279255,-0.13902333,0.2120039,0.12696448,-0.019685969,-0.36521232,0.34427592,0.014154915,0.13977817,0.025073811,-0.014669984,0.046684116,0.44133857,0.018890077,-0.3399533,-0.03435207,-0.4034063,0.31086043,-0.058382068,-0.1827497,-0.4978319,-0.07488935,-0.12981291,-0.08937255,0.13972679,-0.053128887,-0.09106394,0.09512036,0.25255486,0.10949244,-0.1857597,0.2264315,0.65902233,0.0053499397,0.05497651,-0.074691825,-0.16468239,0.40716752,0.05210412,-0.087511346,-0.13986522,0.0043635336,-0.020894393,-0.14071648,-0.18856747,0.08295038,-0.25941783,0.13389501,-0.051062986,0.6207842,-0.28156948,0.30157423,0.54922384,0.004895407,0.3251278,-0.08094356,-0.3416225,-0.06587505,-0.047202874,0.38311723,0.024959583,-0.41930348,0.29287964,-0.17399135,-0.42017418,0.216869,-0.19223045,-0.08558285,-0.12754834,-0.28524503,0.42659014,0.14741498,-0.18175569,-0.11718669,0.0022849403,0.36244163,-0.23430668,-0.09272311,0.3274585,-0.18558955,-0.08046227,0.085258715,0.44149098,0.4557432,0.012802288,-0.28013515,-0.27147892,-0.2217369,0.2256196,0.04741962,-0.24815573,-0.10462324,0.011663327,0.013261431,0.2130595,-0.15108903,0.04594846,-0.23673624,0.11485487,0.004523779,-0.19451852,0.11926747,-0.33648938,-0.08910301,0.10901381,-0.14768697,-0.18705252,-0.16058029,-0.06754555,0.036796834,-0.27805573,0.08472155,0.4307497,-0.22104986,0.14362916,0.15115635,0.30381396,-0.0003394563,-0.5410379,0.14503767,0.03769886,-0.55817986,0.481485,0.07471977,-0.13603528,0.22129951,0.011846435,0.19710524,0.22315282,0.08125461,-0.26839998,0.3274968,-0.39183643,0.32891732,0.025468737,-0.023327047,-0.09721606,-0.39339942,0.013672558,-0.5576629,-0.18244933,0.22890119,0.77942777,-0.1120589,-0.29736012,0.115888916,-0.24735375,-0.12556148,0.011525625,0.19549131,0.32595643,0.01344541,-0.055592384,-0.35077086,0.013161093,0.22515482,-0.01905778,-0.53517723,0.11335604,0.34344277,-0.11980925,-0.11107739,0.13967955,0.039289225,-0.4923829,-1.0074596,0.56832004,-0.3113687,-0.054667912,-0.18728842,-0.17932506,-0.09482942,0.19886932,-0.258361,-0.09770408,0.016273485,0.20293452,-0.082874574,0.07484048,-0.35258564,-0.2953341,-0.11906015,-0.61472285,-0.40489098,-0.23723742,0.18585438,0.31640562,0.13707408,-0.087094,-0.28260067,-0.11716357,0.13525036,-0.18796979,-0.02634369,0.68844646,-0.39112905,0.29850572,0.121903494,-0.35526612,0.16165213,0.15573408,-0.17018375,0.01701084,0.03520928,-0.09789427,0.4184368,-0.022103276,0.37362343,-0.1962087,-0.22406764,-0.09594631,-0.14600278,0.13435964,-0.24612801,0.19165641,-0.02585344,-0.07210999,0.16435422,0.5170913,0.20884499,0.027857568,-0.19164523,-0.4177792,0.23228732,0.07706767,0.46309403,0.17982402,0.2990811,0.24722235,-0.20109928,-0.6399241,0.09005421,-0.04773152,-0.3402162,0.48948136,0.12800439,0.05511142,0.21178094,0.25556934,0.23921679,0.44577068,0.3072621,-0.24356036,0.30322495,-0.26221427,-0.08447379,-0.028211325,0.26447394,-0.22652134,-0.089733295,0.1889835,0.13982068,-0.017873874,0.54103017,0.08715187,-0.0064247455,0.36544657,-0.36401403,0.03412658,0.13874386,-0.3417159,-0.031013355,-0.35662398,0.36776543,0.34218067,0.07274973,0.03496486,-0.063249774,-0.45684722,-0.06163363,-0.039475456,0.03928528,-0.23371956,-0.91783404,0.5242785,0.59061867,-0.27479163,-0.10720118
O=C1NC(=O)C(c2cccc([N+](=O)[O-])c2)=C1Nc1cc(Cl)c(O)c(Cl)c1,0.25491652,0.18189576,-0.08864866,0.47768995,-0.51996654,-0.077345945,0.14997262,0.25025025,-0.26117444,-0.09013806,0.33696407,0.20060721,0.51872736,0.12063533,-0.59501797,0.26943988,0.10669024,0.2546251,-0.31369692,-0.13948415,0.5514637,0.09599308,-0.09510474,0.31102517,-0.2260003,0.03660501,0.5141302,-0.12435748,-0.06942404,0.22260389,-0.22612254,0.106142566,0.26871392,0.35960722,0.2244922,-0.30667165,0.13750702,0.20542212,0.14870447,-0.20964783,-0.14527223,0.20038316,0.104127415,-0.13479316,0.25035286,0.029699864,0.25977942,0.047798235,-0.14110452,0.1423405,-0.0459212,0.28658617,0.07424192,0.0059673586,0.047527306,-0.070056766,-0.20433427,-0.37145624,0.09941587,-0.054356996,0.18860163,-0.23886992,0.35457444,-0.32927978,-0.2517887,0.4089154,-0.13448992,-0.18830924,0.45491996,-0.38694093,0.014779768,-0.00669436,0.36052245,0.31132588,0.38629287,1.3808259,-0.19615212,0.38074455,0.25793645,-0.17839503,0.14192292,-0.22325797,-0.28724235,-0.067343526,-0.037021425,0.06930366,-0.07492306,-0.19302075,0.020615103,-0.20002824,-0.07050685,0.28484276,-0.14153062,-0.72711766,-0.033103015,-0.41767806,0.19220868,0.06535,0.20838876,0.17189649,0.1732639,-0.15916258,0.053571872,-0.21540181,-0.02906805,-0.10455689,-0.13441432,-0.106988564,0.0077693416,0.2206888,-0.13016628,-0.29191887,0.24206105,0.024195693,-0.07553551,0.1479825,-0.20363492,-0.0025634072,0.6671033,0.28674114,-0.41787776,-0.34098697,-0.34545696,0.22599141,-0.12308037,-0.36299706,-0.2082725,-0.18383992,0.043818954,-0.061460868,0.24985415,-0.049652096,-0.033413794,-0.078882225,0.25195947,-0.11614548,-0.0016460374,-0.040829826,0.3273761,0.13714434,0.12826459,-0.28862655,-0.23235896,0.084906824,0.20240332,0.19969213,0.013609904,0.075713925,-0.12133187,-0.2089788,-0.17378435,0.24786577,0.07709078,-0.016656898,0.14121161,0.6647435,-0.11324989,-0.093909055,0.39609116,0.23124723,0.33501047,-0.26630393,-0.39649552,0.19900241,0.22627509,-0.29735914,0.15876089,-0.29486978,0.59906137,0.24633197,-0.031669404,0.29937696,-0.0005598754,-0.18857525,-0.0020230352,-0.345358,0.05611664,-0.32573137,0.013686422,-0.08678711,0.14438966,-0.020668533,-0.20267743,0.03338158,0.12118202,-0.38824928,-0.3194419,0.355295,-0.09032288,0.09541136,0.031925492,-0.35418248,-0.21739945,-0.2646596,0.191661,0.2599978,-0.1874876,0.06055641,0.11826622,0.36055353,0.005184814,-0.025448816,0.6278249,-0.25682208,0.14197253,0.22950374,0.035222467,-0.070657276,-0.026575007,-0.44640157,-0.19663624,-0.44748357,-0.25464064,-0.018466238,0.0071559176,0.25210172,-0.32106745,0.09800292,0.2445751,0.047728606,0.095728576,0.40969732,0.28926322,-0.22175753,-0.33763444,0.2982385,0.36104894,-0.5018079,0.37928778,0.23102237,-0.11471076,-0.12510507,0.09706479,0.26522994,0.0647422,0.048237674,-0.08697695,0.26375672,-0.21754237,0.2697382,-0.13566336,0.503756,0.025306411,-0.53010666,-0.16218448,-0.046053506,-0.08354953,0.16192424,0.37514037,0.13902444,-0.5480365,0.16907704,-0.039602663,-0.1754281,0.0015677919,0.48982725,0.14154282,-0.30517057,0.37902218,0.1626691,-0.12770313,0.3508254,-0.19915058,-0.49048817,-0.18184304,0.3211333,-0.35013834,0.17321001,0.6549476,-0.087351315,-0.48905796,-1.018096,0.29435828,-0.13044354,-0.24876215,0.096736826,-0.16416971,-0.05139918,0.25142112,-0.0877321,-0.3363383,0.18636143,0.4198273,-0.0023071116,0.023667041,0.15139793,0.06078711,-0.041878518,-0.3133824,-0.42280135,0.03709769,0.0061169965,0.026239015,0.07307108,0.030944433,-0.22796956,-0.36052105,-0.011925086,-0.14892237,0.07665133,0.50376475,-0.6418634,0.21327487,0.13069412,-0.30746144,-0.039716277,-0.11599799,0.24570978,-0.31221274,-0.16425815,-0.14444466,0.22885244,-0.006217858,0.16085723,-0.025048522,-0.37867525,-0.51243573,-0.16156927,0.13842557,-0.21826851,0.047205497,0.15951611,-0.05008642,0.18357064,0.7387555,0.1573526,-0.13591917,0.04326651,-0.06786466,0.33757904,-0.16771004,0.11083702,0.16660596,0.32128596,-0.17159793,0.081729464,-0.19600049,-0.1661143,-0.20409274,-0.32234263,0.47596878,-0.12017359,0.5240831,0.5417942,-0.05390321,0.50535524,0.509774,-0.045445174,-0.1710378,0.70962286,-0.7083517,0.04351529,-0.22920446,0.0024759201,0.08627697,-0.11264114,0.06568681,-0.27997923,-0.1905325,0.2847172,0.26347908,0.11471902,-0.25203836,-0.3453668,0.008148093,0.032993834,-0.066157475,0.006478646,-0.2496617,0.48077992,0.20608947,0.31824255,-0.23340699,-0.15609224,-0.17001192,0.051305536,-0.047616433,-0.23179707,0.24189082,-0.632212,0.20689173,0.4189228,-0.28927332,-0.1523109
Nc1ncnc2occ(-c3ccc(NC(=O)Nc4cccc(C(F)(F)F)c4)cc3)c12,0.10663206,-0.12717412,-0.10868805,-0.023326322,-0.06671274,0.0420391,0.47768608,0.39332104,0.3489298,0.29562712,0.6039856,0.16377874,-0.34166157,-0.5751133,-0.3838606,-0.0016132445,0.43731844,0.16072291,-0.3950274,0.12040298,0.24199156,-0.16359729,-0.10496147,-0.3678634,0.25291872,-0.18770258,0.020573726,-0.24348731,-0.08097273,-0.1254619,0.32983983,-0.08062694,-0.28430453,0.082692884,-0.030319784,-0.2333588,-0.28219917,0.037161272,-0.32618186,-0.446341,-0.1865871,-0.038736172,-0.2828555,-0.29937202,-0.013065064,0.35762593,0.02344538,-0.38005096,0.1972692,-0.33731326,0.11447033,0.18759246,0.25803828,0.050433673,0.10606768,0.3157864,0.21044788,-0.31913057,0.30855432,-0.5657036,0.25485623,0.09166742,-0.42183673,0.22795507,-0.14891239,0.03748404,-0.28776532,0.05027779,-0.06242023,0.16183464,-0.13100712,0.29897574,0.36170253,-0.00962694,0.1770941,1.5819557,0.24477065,-0.12593937,-0.23601598,-0.24144906,0.1643769,-0.18266271,0.27474624,-0.08306144,-0.25511202,0.035845824,0.5111746,-0.6467326,0.4195645,-0.016535513,0.071559735,0.38082862,0.24538746,0.50920284,0.0033296435,0.041173853,0.11387023,0.19044325,0.26240185,-0.030234806,0.036968775,-0.01028079,0.5749565,-0.029813565,0.077550314,-0.43584514,0.10438788,-0.35100597,0.3090267,0.44116023,-0.41400373,0.36768177,-0.0376568,-0.12300065,-0.46643206,-0.10879463,0.026995277,-0.13858372,-0.027756415,0.06641623,-0.20990917,-0.23246852,-0.21324477,-0.2848941,-0.41432354,-0.29657036,0.008685452,-0.0938366,0.13152948,-0.26490563,-0.017729152,-0.26877263,-0.35319895,-0.03847944,-0.021257259,-0.05716226,0.4281706,-0.022741627,0.010469052,-0.04662229,-0.036714047,0.16353942,-0.31939134,1.0681114,0.057414405,0.40086558,-0.18672973,-0.27271363,0.051711977,0.16849001,-0.21876812,0.2235769,0.16346125,0.33492196,-0.1931824,-0.018199602,-0.17328107,0.6488057,0.23032999,0.06007484,-0.21041544,0.11310235,-0.08745783,-0.52365535,0.28153592,0.016540645,0.013910395,0.32295027,0.18998235,0.21565151,-0.30943024,0.09639723,0.13036725,-0.23841752,-0.64475095,-0.034989055,-0.18937097,0.050386276,0.015326357,0.16859432,0.4025559,0.13348374,0.18814915,-0.15422563,-0.30259788,0.13086267,0.23469187,0.10775876,0.22570656,0.21884316,0.04768709,-0.14751692,0.072020374,0.5278679,-0.0029888975,0.28872734,0.120882325,-0.066061966,-0.050284855,-0.12113479,-0.23029512,0.2658035,0.8221079,0.11430656,-0.031307142,-0.49463758,-0.96600467,-0.24074803,0.134508,0.12910639,-0.37335414,0.2871945,-0.25642723,-0.12766673,0.16404667,0.1219744,-0.41892675,0.36195368,0.01766057,0.22758101,-0.24651301,0.16249557,0.3813902,0.11902372,-0.09486095,0.40365162,-0.005628032,0.02492874,-0.14283447,-0.23121673,-0.17944463,-0.1043243,0.0036963853,-0.17332499,-0.60483015,-0.18128179,0.12963444,-0.18596682,0.11367945,-0.30607894,0.037928134,0.10237826,-0.13057451,0.26365927,-0.22543718,0.0009154484,-0.08362361,-0.58444077,-0.23457658,-0.042836573,0.0715063,0.35269997,0.07865027,-0.08679806,-0.21159671,0.07629844,0.1717007,0.12713322,0.10578556,0.380111,0.76191765,0.41962555,-0.071551554,0.08350164,0.028082449,0.1605692,-0.3163908,-0.19421262,0.45004466,0.046709936,-0.32472736,-1.2066267,0.03362073,0.6010345,0.0033926994,-0.06499025,0.26508772,0.05396345,-0.12414222,0.18371499,0.22620812,0.49532068,0.041699227,0.20667553,0.0866226,0.0042319125,-0.41788086,-0.14603609,0.28354496,0.25294936,-0.04564009,0.31107262,0.29006127,0.00049963186,0.11553586,0.26675668,-0.2415918,0.033741005,0.3385948,-0.037502225,-0.59474504,0.0005433562,0.1583076,-0.16966088,0.28342903,0.12230328,-0.1271754,0.21409284,-0.48199394,-0.37801543,-0.13695897,-0.45556882,0.1830175,0.3676585,-0.12204753,0.26233986,-0.50392157,0.19452037,0.03359438,0.067010805,-0.25233808,-0.094738156,-0.05242321,0.044319358,-0.12002052,-0.1936564,0.21424861,-0.36768684,0.731579,-0.11285906,-0.063870504,0.11988818,-0.096814126,-0.33786836,-0.29619583,-0.26642808,-0.1419518,0.08723648,0.23231785,-0.017257009,0.30088428,-0.25812313,0.281105,0.046335425,0.1734718,-0.085076034,-0.042155292,-0.006653831,0.2483637,0.26821715,0.16296954,-0.26170513,-0.013693208,0.022214228,0.26441604,-0.26305985,0.20537035,0.23048235,-0.35456344,0.017342526,-0.00442446,0.30284023,0.46978226,0.09518375,-0.28163254,-0.2620079,-0.3255839,0.3194912,-0.3843314,-0.17811082,0.24579662,0.25065875,0.20842241,0.20560284,-0.19724767,0.11656502,0.39721224,0.013045558,0.10685634,0.6626311,-0.24429119,-0.093568414,-0.44300574,-0.1258882
NS(=O)(=O)c1ccc(Nc2cc(-c3cccc(O)c3)n[nH]2)cc1,0.2733695,-0.12218283,0.6266145,-0.33471513,0.12466909,0.08740194,-0.18670799,0.20645745,0.5524023,0.52579844,0.111880645,0.2517871,0.23402125,-0.2874901,-0.17007922,-0.14395788,-0.004115904,-0.03763183,0.02057934,0.027584858,0.08407422,0.23917434,-0.17972285,-0.20077951,0.47607812,-0.015182043,0.3092822,-0.107291766,-0.28235123,0.13543913,-0.002285374,0.21510553,-0.02166114,0.060525756,-0.0961342,-0.2667535,0.26711026,-0.10118945,0.037712272,0.32864097,0.14227857,0.062395725,0.40819356,-0.19125848,-0.25488862,0.30769685,0.29244325,0.26616523,-0.22023149,-0.34807086,-0.20611063,0.0016792795,0.09294598,-0.42230088,-0.014798132,0.4774111,0.051068693,-0.28488535,-0.065379076,-0.11813008,-0.08894101,0.1199492,-0.12150638,-0.08424453,0.20057316,0.33677053,-0.5247627,-0.42486554,0.27710262,-0.27157038,0.17909564,0.31230414,0.019794121,0.22456488,-0.046023432,0.9705699,0.22053435,0.05173599,-0.15488246,0.192258,-0.18766141,0.22031325,-0.44968688,0.052304726,-0.11251263,0.16708612,-0.21856785,-0.552814,0.35340685,0.092571944,0.653628,0.17734481,0.1407828,0.40377158,-0.3583335,-0.08318729,0.096665636,0.42027342,0.20354313,-0.39917785,-0.33873612,-0.110075615,0.48273736,-0.044981953,0.25389746,-0.084658526,0.034974415,-0.31108734,0.13655393,-0.20946667,-0.14054985,0.2082452,0.22930817,0.25598663,0.3793948,-0.2349127,0.17261587,0.31057867,-0.07727597,0.22284734,-0.08862031,-0.27130234,-0.17510189,0.09381903,-0.41493705,-0.069545224,0.10078183,-0.27120253,-0.2531359,0.20126162,0.6343422,-0.5201575,-0.0030943563,-0.22920026,0.33297274,-0.076530956,0.14548157,0.24376719,0.48744237,-0.1988613,-0.64445066,-0.19673456,-0.32301313,0.0036741646,-0.3269616,-0.35964534,-0.37909168,0.62564903,-0.31164667,0.4803564,0.17350943,-0.07109518,-0.038939916,-0.018584657,-0.22096929,-0.20752138,-0.61257935,-0.28474253,0.12241017,0.030158749,-0.009602335,0.09121615,-0.30109006,0.07505932,0.36623827,-0.26644185,-0.20477106,-0.2918386,-0.16243337,0.29660642,-0.038998637,0.35888898,-0.09079817,-0.26429677,0.1438494,-0.07580845,-0.08126188,-0.03757057,-0.28683916,-0.105347574,-0.2815811,0.2790933,0.10235441,0.42134193,-0.08111144,0.4663849,-0.014371633,0.024530895,0.25165674,0.068986006,-0.09255182,0.12838894,0.37818146,0.44963548,-0.42028943,0.18602207,0.03213944,-0.12186283,-0.13954352,0.1532829,0.3076579,0.30203277,0.102190234,-0.04249189,0.40555367,-0.22060515,-0.6154826,0.2556312,-0.4237473,0.24397981,-0.5664843,-0.08732697,0.13940826,-0.26668265,-0.29225,0.32919928,0.049392045,-0.3707657,-0.30621138,0.51088285,0.05812844,0.11502777,0.49447173,0.018510982,-0.31623977,-0.042990353,-0.022752006,0.21063246,-0.23964441,0.07286477,0.08017316,0.0740042,0.18670914,-0.14219703,-0.19817552,-0.33181885,0.09763411,-0.17714767,0.1710593,-0.15731405,-0.014630963,-0.28779545,0.09130446,0.045514133,-0.26597476,-0.3234497,-0.03772456,0.30781853,-0.3205162,-0.2692671,-0.44103885,-0.40349975,0.26196,0.13914524,-0.47803918,0.26383504,0.10257062,0.4668015,-0.23054227,-0.23601727,0.50832015,0.08777159,0.10709455,0.19076937,0.30114153,-0.08770541,0.4133309,0.12692243,0.16071622,0.031352274,0.35465303,-0.90385854,-0.17077778,-0.30620167,-0.06970593,-0.37076998,-0.1566602,0.05739648,0.067908585,-0.17338051,-0.0680315,0.46511537,-0.020297721,-0.028065626,0.3068638,-0.1773263,-0.5311914,-0.02134781,0.11821724,0.19143285,0.19287662,0.51239336,0.047338333,-0.19618246,0.5637871,0.13142803,-0.32638505,0.33002833,-0.041765667,-0.23757768,-0.6419305,-0.13624224,0.19583665,0.11790348,-0.0727441,0.11340452,0.21810508,0.070908576,-0.083268136,-0.14075917,0.021115521,-0.20472501,-0.068553604,-0.044042595,0.09245357,0.031295132,0.42485613,0.2887366,-0.0591899,0.07439489,0.15288582,0.21517994,-0.27729917,-0.12267305,0.36303878,-0.27502567,-0.45560476,-0.54836607,0.23520423,0.15125261,0.23051725,-0.07703962,0.5376689,0.25881097,-0.004485416,0.06018804,0.37540868,-0.020471536,0.112060204,0.06845034,0.12091298,0.08219977,-0.26118577,0.4162351,0.028709719,0.24891806,0.6553344,0.2973381,0.22994156,-0.40960228,0.0024755455,-0.5559924,-0.16487788,0.31138882,-0.12968461,-0.3200214,-0.380399,-0.23720308,0.05361599,-0.024809765,-0.09602092,-0.15232998,0.11466837,-0.14637974,-0.24145783,0.46033219,-0.10138603,-0.14288858,-0.33545065,0.0653255,0.3082469,0.14924291,0.23857158,-0.29614264,-0.2618779,0.17649256,0.13675888,-0.40002078,-0.06324936,0.1848517,0.45658624,-0.034333065,0.41002336,0.00948384
COc1cc2ncnc(Nc3ccc(C)c(O)c3)c2cc1OC,-0.40718502,0.324911,0.08576047,0.03699573,0.025254937,0.027951188,-0.30631343,0.18912221,-0.1072179,0.2965355,0.43815938,0.41473916,-0.4218054,0.044565786,-0.14243877,0.0001853482,-0.09185941,0.18955779,-0.2457947,0.33920464,-0.0145934755,-0.041494884,-0.35589495,-0.26709154,0.53287554,0.45346934,-0.053345013,-0.048400585,0.22590135,0.19921967,-0.15983407,0.31085634,-0.12599549,0.3306446,-0.28976476,-0.1551366,-0.20933604,-0.07627319,-0.48416844,0.08929609,-0.3978147,-0.2189767,0.29345146,0.1455606,-0.01462629,0.412483,0.097800694,-0.046185076,0.19421662,-0.008507142,0.34275937,0.025994474,0.050819065,0.20303103,-0.0009921881,-0.24440596,-0.17594114,-0.3452941,-0.08355098,-0.4738172,-0.097482845,-0.08542742,-0.21799088,-0.2510787,0.20582774,0.22537488,-0.11185042,-0.15447633,-0.12673709,0.6735405,-0.3117389,-0.031868614,0.033059794,-0.1481493,0.4337818,1.6287327,0.0043052277,0.5189883,-0.10785902,0.10509196,-0.08541414,-0.4086152,0.28055605,-0.116625264,-0.031036727,-0.06689782,0.026246801,-0.034136306,0.54211986,0.047481608,-0.0031823579,-0.39287186,-0.14677437,-0.12984042,0.10569685,0.036332987,-0.0349329,0.29180261,0.10579674,-0.24845497,-0.052807953,-0.46578145,0.7666585,0.30816963,0.15544434,-0.13577203,0.0633041,-0.3252201,0.0659662,-0.25876698,0.13535044,-0.39723125,0.24361995,0.40113088,-0.17347515,-0.32444364,0.22290218,0.11775106,0.43569526,-0.13494375,0.3070289,0.42756394,-0.18818693,0.17624432,0.68254894,-0.23908012,-0.39963582,0.26886526,-0.020545425,0.34238747,0.25797892,-0.006860156,-0.334465,0.028688105,0.3450833,-0.34936503,0.2379924,0.27549362,-0.20310971,0.09552142,-0.44178626,0.4525848,-0.12044168,0.1886656,0.3160796,0.0593994,-0.07086088,-0.33209038,-0.11461726,0.15279047,0.04366135,0.3757917,0.22454382,-0.13406077,-0.20874166,0.22454582,-0.068721056,0.51840025,-0.014276978,-0.026545135,-0.07804095,-0.0104917325,-0.05752302,-0.0805742,-0.009266007,0.13458714,0.0251,0.3144076,0.7325817,0.080387704,-0.013394171,0.1071092,-0.33812708,-0.20658614,-0.13275896,0.5481193,0.15308768,-0.038816057,0.28855252,0.07217588,0.38610533,-0.25099,-0.20586719,0.33062547,0.018876655,0.1339308,0.32268947,0.096037254,0.47597796,-0.10159813,-0.18773331,0.076605484,-0.043052398,0.041130256,0.1832536,-0.046831988,0.06063439,0.034693383,-0.08678324,-0.051516507,-0.119058736,0.16447468,0.1676138,0.068399005,-0.015821807,0.25098583,0.2605932,-0.22185513,0.13391751,-0.11732638,-0.017192526,0.16405842,0.045240145,0.0641361,-0.060542814,0.29055533,-0.25453323,0.09001453,0.06869929,-0.1750508,0.08612009,0.18288511,0.09298448,-0.15969823,-0.032062817,0.22811313,-0.06736347,-0.008322967,0.18509774,0.39841893,-0.030290931,0.021239117,-0.03986043,-0.33457887,-0.28598124,0.013758358,-0.102033146,-0.34234512,0.4173395,0.071835294,-0.17613597,0.098864265,0.11223244,-0.1738377,-0.3638838,0.26152712,-0.31181186,0.18789306,0.35704082,0.14133526,-0.029530352,-0.22661978,-0.13174294,-0.33026755,-0.09303811,0.52209663,0.012598832,-0.12435257,-0.08107605,0.049783815,0.2736337,-0.31890246,0.1714289,-0.17201236,-0.41440353,-0.21511553,-0.13521293,0.248947,0.11790153,-0.010146151,-0.37130213,-1.3483156,0.021512873,-0.26014942,0.107168175,-0.38896215,0.6428862,-0.09751794,-0.27097034,-0.33731353,0.007568846,-0.061861742,-0.07505765,-0.41283584,0.21150205,0.112187296,-0.3056105,-0.013264455,-0.12845296,0.15722941,0.16045022,0.4859428,0.05922996,0.15943554,-0.036963668,0.20608336,-0.38811043,0.42933863,-0.2766554,0.018201683,-0.029840518,0.06688484,0.17051652,-0.23278879,0.041336756,0.05745075,0.34831235,-0.28656134,0.23108779,-0.69219047,0.4469051,-0.031377506,0.01128122,0.11376729,-0.06344671,-0.036164228,-0.14088961,-0.06513418,-0.06919613,0.115266,-0.25684124,-0.45968872,-0.32190132,0.49487662,0.773669,-0.18292771,-0.3205614,-0.19773749,0.28532553,0.0696794,0.075017706,-0.011945397,-0.24434459,0.354147,-0.04693278,-0.30324757,0.3316905,0.05133108,-0.16779003,-0.0042648246,0.10318504,-0.011991745,0.022187293,0.08689275,0.22276233,-0.3884121,-0.41042274,-0.091564074,0.073767096,0.0172526,0.05235208,-0.47058788,-0.2461419,0.22150335,0.17635123,0.022146504,0.5293107,-0.06822758,0.35461897,0.0063133435,-0.25779295,0.23680408,0.27218607,0.14383441,-0.266814,0.19345687,-0.3986768,-0.11394037,0.4208283,0.26830843,-0.0576487,-0.36086595,-0.064978585,-0.2347481,-0.022942426,0.47394273,0.10263855,0.12403191,0.17541279,-0.44723356,0.25702298,-0.32718524,0.22981444,-0.24519716
O=C(Nc1n[nH]c2nc(-c3ccco3)ccc12)C1CC1,0.17547855,0.1696265,0.09237268,0.05730313,0.17011958,-0.026925668,0.5660628,0.7170967,-0.05195052,-0.5538064,0.34209466,-0.12796898,0.15653221,0.16709341,-0.07406842,0.41637442,-0.32774666,-0.11279426,-0.4533745,0.1947781,0.076539114,-0.0031574154,-0.003504046,0.018319488,-0.106862955,0.048757933,-0.22860108,0.19472265,-0.11320994,0.29101455,-0.3992482,0.16131292,0.09630684,-0.30021507,-0.033334974,-0.30086362,0.06606417,-0.069221385,0.099697374,0.2773893,-0.16684619,0.097243555,0.36766848,-0.08164395,0.3875708,-0.3037912,-0.06966293,0.026658177,0.17795236,0.09419113,0.15618524,0.35583213,0.09595721,0.26018625,0.2839739,-0.0026822323,-0.45912474,-0.18916996,0.110888414,0.029744772,0.25411534,-0.27848014,0.50522035,-0.15554772,-0.28350648,0.20198432,0.030660365,0.023050321,0.34720892,-0.031421576,-0.015304637,0.12692745,-0.007042199,-0.20950499,0.065710455,1.6978203,-0.24826565,0.6464372,0.24914563,-0.5015758,0.23028238,-0.11864449,-0.13056867,0.11794349,-0.1946641,0.09383733,0.014589626,-0.3414417,0.32766998,0.17785983,-0.23635615,0.09957923,-0.4307619,-0.319417,0.009111181,-0.36977234,0.35348535,0.23062113,0.22019276,0.5189504,0.17218482,0.070532076,0.14617224,-0.095909014,0.02552607,-0.067548536,0.05038698,0.17426856,-0.09822176,0.1689908,-0.107723996,-0.36427405,0.2088184,-0.10648587,0.09705005,-0.008583666,-0.14981769,-0.031270273,0.16534512,0.037484184,-0.26529258,-0.020517183,-0.54545355,0.2096698,-0.1245362,-0.23531502,-0.42259654,-0.047620416,-0.14319147,-0.30071408,0.23610759,-0.04103311,-0.014080832,0.104741625,0.19758625,-0.16359258,0.11167739,0.1550717,0.74905396,0.055320323,0.014573169,-0.112170205,-0.3133652,0.50649285,0.07865721,0.12507008,-0.09294858,0.10745472,-0.009703881,-0.20932384,-0.2790897,0.05801731,-0.34219366,0.033940826,-0.08370771,0.5337389,0.015614692,0.1403699,0.4937179,0.19579686,0.39817291,-0.086550675,-0.11469848,-0.015862629,0.14249617,0.46433112,0.0052679675,-0.53461725,0.3994111,-0.07894653,-0.3126155,0.037365504,-0.20788573,-0.073882535,-0.081966266,0.022025125,0.093725346,-0.08834169,-0.18993516,0.15489374,-0.057824988,0.13180195,-0.20074123,0.10088322,0.21242474,-0.5983943,-0.08657221,-0.0077731055,0.40285414,0.44155955,-0.0075349594,-0.19056508,-0.37852722,-0.05861946,0.4571848,-0.076511145,-0.35951492,0.12351231,-0.04362871,0.011657677,0.062211785,-0.18494901,0.28705934,-0.20697062,0.121693455,-0.016378183,-0.13218033,-0.041443773,0.0778808,-0.040551197,-0.06540172,-0.14664309,-0.1703503,0.20626597,0.11755855,-0.098790556,-0.1376041,0.104890466,0.31108975,-0.089950435,0.14040749,0.005064559,0.25332466,0.033176415,-0.59066534,0.032787286,0.19188406,-0.47163078,0.3647017,-0.030916248,-0.36108765,-0.0012181948,0.008419905,0.14845175,0.10555977,-0.05774309,-0.3998967,0.31235334,-0.32082078,0.33294633,-0.06431977,-0.3018764,-0.014268339,-0.100107335,-0.029755017,-0.37715483,-0.22383593,0.005906737,0.68089116,0.028529404,-0.31625932,0.27605373,-0.16737524,-0.34670132,0.23469381,0.37434986,0.35346156,0.15263492,-0.077644706,-0.20430082,-0.019443758,0.14133453,-0.12501012,-0.57316154,0.059135932,0.35404897,-0.04125671,-0.13509487,0.30060866,-0.0049994355,-0.5689856,-0.98149735,0.65692824,-0.2057558,-0.034875624,0.10103754,-0.09228968,0.0629229,0.2623056,-0.17662175,-0.18870433,0.048543286,0.26309144,-0.041228853,0.08232661,-0.040608443,-0.12982094,-0.2109481,-0.4458445,-0.30132225,-0.17728809,0.035022903,0.20153622,0.070001304,-0.10521981,-0.37997812,-0.19646205,0.23525178,-0.085573435,-0.006074388,0.7406319,-0.4608746,0.46876845,0.23583196,-0.31385183,0.30853948,-0.039757613,-0.21458003,-0.0693637,-0.08988519,0.06098215,0.1862568,0.19028799,0.468577,0.07843877,-0.32694823,-0.5636507,-0.25222385,0.09516778,-0.29337847,0.11322258,0.22339143,-0.035520773,0.14765388,0.7300772,0.16780141,0.0013879129,0.2981724,-0.2869044,0.27051133,-0.16496827,0.20655504,0.12776272,0.16601855,-0.16586016,-0.22349748,-0.42282945,-0.01667695,0.13028437,-0.25097254,0.42491335,0.38044173,0.08513568,0.186093,0.12519343,0.35797483,0.2522928,0.24030471,-0.09585823,0.48203313,-0.53199774,0.1396709,-0.072306484,0.0056982622,-0.37708133,-0.19215618,0.12100495,0.19772719,0.05231442,0.35924742,-0.05849244,0.28051695,0.38273644,-0.30955148,-0.15539639,0.0042411583,-0.22243743,0.002113142,-0.31676823,0.49963468,0.39042494,0.15729523,0.1258427,-0.18125622,-0.32550755,0.2052667,-0.06241568,0.16104303,-0.21285553,-1.0266758,0.3140858,0.5921729,-0.026707686,0.0396565
Nc1nonc1-c1nc2cnccc2n1C1CC1,0.014300965,0.44933432,0.14232995,-0.014842696,-0.055948563,0.049599376,0.15447173,0.3940216,0.24577934,0.36057666,0.17202184,0.034568038,-0.0064957277,-0.43327722,-0.14223965,0.04556157,0.42324376,0.33758792,-0.24137127,0.06268956,0.2396947,-0.37523764,-0.3063327,-0.3723536,0.16455975,0.009926148,0.35506606,-0.19194429,-0.1996968,0.011767265,0.2892121,-0.14869218,-0.45038578,0.30005375,0.10473203,-0.17990087,-0.27529427,-0.011133858,-0.38032538,0.02834379,-0.35123977,-0.1413887,-0.19474015,-0.019918872,-0.17928216,0.36879876,0.15477318,-0.27233317,0.13197681,-0.12120717,0.46206507,-0.05088824,0.022946607,-0.121512815,-0.10114524,0.14637715,0.13672596,-0.65558505,0.42684045,-0.4020061,-0.0077858833,0.13241479,-0.104431316,-0.3160945,0.11174191,-0.22765638,-0.16974,-0.00017990514,0.21675174,0.2522838,-0.16515206,0.26732016,0.18888082,-0.1338235,0.16973928,1.8284557,0.20304666,-0.08117758,-0.5800179,-0.08488253,0.16805351,-0.028561477,0.39089337,0.42791274,-0.11921131,0.028811883,0.093387835,-0.48888195,0.16071405,-0.20282581,0.060376827,0.23434553,0.03137928,0.507159,0.062398557,-0.030706322,-0.18871886,0.21321079,0.05350482,-0.31105462,0.19866455,-0.1957335,0.45944563,0.09010437,0.1119324,-0.24285026,0.33533356,-0.45415914,0.556342,0.055770442,-0.1981405,0.40419084,-0.022520429,0.2544962,-0.2610891,-0.013913783,0.018928297,-0.08437992,0.075799376,0.2776001,-0.12467242,0.025762876,-0.3002418,-0.6895268,-0.07151365,-0.10176422,-0.22995701,-0.057675343,0.29428825,-0.11633328,0.14514282,-0.28482637,-0.029630754,-0.012012598,-0.1922029,-0.026731042,0.36084223,0.0051279045,-0.19678688,0.25102445,-0.17376989,-0.59788257,-0.4024204,0.6766671,0.25275546,-0.015216889,0.11619113,-0.14360079,0.06422443,-0.05227069,0.30910733,0.026711114,0.074481145,0.38188493,-0.2872531,-0.3065519,-0.083301164,0.35516515,0.14462806,-0.016278097,-0.030412743,0.0009200344,0.12953117,-0.34656504,0.2846503,0.12440699,0.08219264,0.3296653,0.28327137,-0.025788847,-0.43700933,0.07058771,-0.01815158,-0.24167025,-0.363409,-0.3989477,-0.13447466,-0.20399494,-0.21326056,0.2659217,0.3029343,0.2149588,0.17859957,-0.27640688,-0.15462115,0.34635553,0.2759484,-0.007021057,0.2178459,0.3145428,0.2227096,-0.3369974,-0.0015428832,0.59644735,-0.1460268,-0.08247609,0.5302031,-0.1179161,-0.14077745,-0.20901114,-0.057278134,-0.28544098,0.2464719,0.019900626,0.39174578,-0.5044396,-0.9270526,-0.6369598,0.03978323,-0.14637113,-0.54313743,0.15447378,-0.187765,-0.20229462,0.07920535,-0.024811136,-0.071015075,0.45591643,0.25763512,0.30118597,-0.14082588,0.3148757,0.5123623,0.014082372,-0.01958833,0.4588318,-0.1592485,-0.27795097,-0.3699243,0.35146958,0.082017,0.017694985,0.28453454,0.2293997,-0.42831174,-0.17418568,0.08413377,-0.015834805,0.25728324,-0.44733268,0.0914661,0.20005214,-0.15857661,0.027200194,-0.22131963,-0.009605684,-0.1254294,-0.13647343,0.035399962,-0.19770372,-0.10654277,0.2854433,-0.159389,0.01979616,-0.15433122,0.25124782,-0.3631158,-0.22034416,-0.18270147,0.43836713,0.28931072,0.39868706,-0.06174358,0.083572544,-0.17432104,0.13999128,-0.34103835,-0.21789946,0.67583084,0.053632606,-0.08884226,-1.2602938,-0.09879232,0.15165599,0.15053423,-0.016568655,0.20191796,0.08240347,-0.15513663,-0.017343223,0.20111449,0.3917388,0.051154368,0.28744975,0.104042895,-0.023433361,-0.3327388,-0.17401591,0.14399666,-0.09104339,0.15988992,0.24426736,0.31997913,-0.027338604,0.32865754,0.7269964,-0.18424106,-0.23056991,0.3673321,-0.06625124,-0.25622278,-0.054926332,0.25915742,-0.18599026,0.1265108,0.10967066,-0.078617305,0.2089242,-0.2795334,-0.36383796,0.45980078,-0.18388878,0.26786327,0.17106678,-0.09079274,0.25491408,-0.46360153,0.10616221,0.33468726,-0.26631847,-0.15695854,0.03924508,-0.26513994,-0.01465186,0.28617167,-0.08396957,0.22741354,-0.32298824,0.65133774,-0.085469134,-0.18412247,0.08278151,0.072377816,0.07806938,-0.2827514,-0.20835774,0.20182069,-0.06592711,-0.044117484,0.0020860692,0.70652056,0.0922649,0.09121305,0.022427404,0.31873453,-0.09402808,-0.058158074,0.025231237,0.20963055,0.2886419,-0.01957416,-0.07084707,-0.018860128,-0.0065709096,0.5420439,-0.02833267,0.25907218,0.11810166,-0.0117709935,0.16979863,-0.031851556,0.10773843,0.2852731,-0.15991764,-0.3386344,-0.108362615,-0.3111207,-0.16280271,-0.35345256,0.2096136,-0.04120914,0.024591355,0.05087698,0.12177748,-0.6031227,0.15686566,0.16365318,0.21682644,-0.033196665,0.5703303,-0.42728308,-0.02133435,-0.50323606,0.13781117
Fc1ccc(-c2cc(-c3c[nH]nc3-c3ccccn3)ccn2)cc1,0.044944484,-0.37695327,0.13362683,0.29781187,0.11926678,0.4087459,0.03514575,0.38834834,0.07436783,0.4242789,0.32023343,0.2009322,-0.04164121,-0.5724246,-0.07405693,-0.19077994,0.42295092,0.0033836267,-0.42670307,-0.21035141,0.48416755,-0.19593117,-0.008947864,-0.14254966,-0.19794004,0.04038255,-0.24971141,0.0012705749,-0.0719428,-0.2769203,0.3132662,0.055107296,-0.37475058,-0.58494717,0.1380725,-0.41690555,-0.16468982,0.05921699,-0.39050987,-0.0973415,-0.30828473,0.034238387,0.016782433,0.048486043,0.10162779,0.44122842,-0.020893203,0.3165184,0.03857013,0.020510796,0.4655817,0.34563282,-0.047032565,-0.5010707,0.109980136,0.12851146,0.20758253,-0.055396188,-0.24995816,-0.29611444,0.14937606,0.029282147,0.07544567,0.12550476,-0.021853335,0.18876448,-0.4322809,-0.412934,-0.22521646,0.19842377,-0.072475575,0.2980096,-0.062012278,0.062859006,0.47605923,1.6726333,0.097589165,0.083353505,-0.15225501,-0.38181177,0.17094205,-0.36740285,-0.08995605,0.30933937,-0.6484011,-0.0651927,0.29331174,-0.08119126,0.033759054,0.08470861,0.068392344,0.1252944,-0.02520235,0.5597941,0.041488443,0.13971967,-0.4958793,-0.031215781,-0.29113054,-0.35968417,-0.09632334,-0.2210441,0.430641,-0.101458445,0.048095457,-0.38092324,0.2692962,-0.16683093,0.5141887,-0.21637528,-0.24232276,0.06685072,-0.019761804,-0.04904747,-0.15012912,-0.28785282,0.06816781,-0.045449506,-0.29085183,-0.003244148,0.09249604,-0.06094849,0.108532436,0.04138477,0.14196691,-0.3143588,0.070356354,0.30255973,0.5956172,0.36120865,0.32441702,-0.16097,-0.14502962,-0.1252081,-0.3224195,-0.16797604,0.77861834,0.012681307,-0.3826441,-0.04825177,0.07190416,0.37806,-0.21555774,1.1017035,0.016703622,0.8934375,-0.6542909,-0.43456692,0.3396266,-0.10109821,-0.032131705,0.13485004,0.07005177,0.033227168,0.4662014,-0.11511402,-0.081280045,0.4846564,-0.00058068085,-0.19004522,-0.19005075,0.2332981,0.30387273,0.2899411,0.16578874,0.35095796,-0.28046438,0.056894504,0.3123929,0.4520423,-0.23711777,0.037664697,-0.132564,-0.18996322,-0.4207479,-0.2505378,-0.0886413,-0.5476554,0.13044147,0.03884065,0.24040854,0.17586815,0.1777853,-0.06276358,-0.051283307,0.072437584,0.22239648,0.030046904,0.06387837,0.6349145,0.062106855,0.15961893,0.16458783,0.24851336,0.15761267,0.102328815,0.22654748,0.26163405,0.13555774,0.19617149,-0.10147353,-0.074079074,0.20236334,0.037497185,0.06936877,-0.22906196,-0.50490373,-0.047694404,0.18493943,0.1998712,0.11738044,0.53002334,0.06180987,0.21549961,-0.11845901,-0.24713859,-0.3697685,0.27247933,-0.01730394,0.4180636,0.032506518,-0.07582659,0.08415507,0.15757826,-0.09851105,0.23628369,0.0385488,0.09042629,-0.46005824,-0.12211361,0.29807997,0.023530893,-0.049473867,-0.3734603,-0.22369426,0.128864,0.07467962,-0.4056341,0.041479666,-0.36198917,0.1374472,0.06486307,-0.370825,0.32745525,-0.09895673,0.017801069,-0.27483934,-0.43875027,0.24214192,0.025961578,-0.22763409,0.11407337,-0.046142124,-0.5149881,-0.16318013,-0.1072523,0.14433695,0.06525377,0.23914467,0.14084564,0.16234411,0.3036887,-0.06484455,0.3810549,0.20072313,0.075401016,-0.040413085,-0.35859877,0.27024475,0.033917114,-0.4505925,-1.167882,0.18009561,0.38419092,0.032392684,-0.065762505,0.3229502,-0.27109814,-0.58152425,0.25063342,0.17681758,0.30593365,-0.27826512,0.28734088,-0.16025954,0.4733036,-0.71527475,0.12650013,0.00020134336,-0.2647235,0.31782055,0.32096413,-0.0765967,-0.13789828,0.011433891,0.28020832,0.015341647,0.030565701,0.33769202,0.030828476,-0.567597,-0.058424313,0.00073471235,-0.27018723,0.6104798,0.08999798,-0.12418875,-0.2239793,-0.06425627,-0.38932827,-0.067396455,-0.18892954,0.2337692,0.10716314,-0.21287361,0.084997766,-0.18977612,0.17040055,0.10237314,-0.1281232,-0.14022696,-0.39216155,0.0074583315,-0.057770576,0.01240664,-0.24632037,-0.01222459,-0.40736914,0.42258808,0.096346594,0.4121325,0.07802045,-0.1024061,0.48019284,-0.39920735,-0.28666025,0.12025615,-0.30414498,-0.10984163,0.006107951,0.025311839,-0.16843238,0.19433424,-0.3659737,0.41935796,-0.22699624,0.036095753,0.15032011,0.104572535,0.3943256,0.14894514,-0.25847095,-0.04717731,-0.44053394,0.0023800284,0.0748292,0.27241147,0.5546085,0.059699204,-0.02686479,0.22694716,0.32993704,0.33013812,0.026486682,0.1280192,-0.05779491,-0.13552615,-0.0003799608,-0.009381648,-0.2892236,0.3446854,-0.13386503,-0.0684985,0.12447888,-0.21062379,0.20445758,0.1282526,-0.035837363,-0.031584118,0.4670296,-0.3907374,-0.05406384,-0.21850696,-0.04260857
COc1ccc(-c2nn3ncccc3c2-c2ccnc(Nc3ccc4c(c3)OCCO4)n2)cc1,-0.37534177,-0.14369662,0.00013965626,0.13563111,0.21708469,-0.13140252,-0.3515434,0.07212792,-0.12824456,0.3886148,0.46409672,0.378876,-0.1780917,-0.01279551,-0.10690237,-0.13038658,0.06370193,0.19771731,-0.16907108,0.5640819,0.1293366,0.065721095,-0.14241351,-0.2741399,0.3427058,0.19119154,-0.28099602,0.24435723,0.08466901,-0.029157517,0.02285926,0.46292338,0.019361457,0.061893746,-0.04690574,-0.389247,-0.074159175,-0.07275412,-0.3535651,0.22493373,-0.12989223,0.2803843,0.35596743,-0.06958438,-0.22018754,0.4137574,0.53347224,-0.31917813,0.30141413,-0.20972791,0.38912967,0.08725283,-0.07736504,0.15754901,-0.0635401,-0.15315652,-0.21348633,-0.27508077,-0.034098946,-0.5124376,-0.14416791,-0.11111269,-0.017636895,-0.057875656,-0.023952834,0.116123624,-0.43665916,0.016793996,0.023963435,0.23971227,-0.16595781,0.13410854,0.069154955,0.026784306,0.44179535,1.7912412,-0.1333181,0.29619756,0.23053771,-0.1350979,-0.1782971,-0.583842,-0.041151173,-0.034620464,-0.13084961,0.12991104,0.28787076,-0.0734573,0.32705677,-0.17105442,0.17955132,-0.2212186,-0.104142845,-0.10713345,0.22446781,0.22911566,0.020578424,0.43702695,-0.0892856,-0.18313807,-0.36076477,-0.6124568,0.63157064,0.023830056,0.117715694,-0.11898377,0.05140477,-0.39825442,0.30927092,-0.4963807,0.05133868,-0.3308471,0.2546318,0.15539706,-0.2482709,-0.23664533,0.059519462,0.09286901,0.2537722,-0.049326148,0.4060491,0.18145363,-0.10329356,0.3300777,0.33201915,-0.29005817,-0.20485677,0.3912906,-0.034239158,0.5970533,0.14546846,0.028853409,-0.030477662,-0.055196878,-0.086678684,-0.23350208,0.38481614,0.15138035,-0.114819445,0.1621246,-0.4648331,0.7302334,-0.12530309,0.075199924,0.28979716,0.27136296,-0.36225036,-0.0065060076,-0.065058604,0.16532555,0.25885555,0.25035134,0.2573292,-0.17104779,-0.14914556,0.16493237,-0.26274133,0.3440308,-0.113769196,0.14765964,-0.009585986,0.15951331,-0.0075396798,-0.06918062,0.062140003,0.0017467935,0.15991315,0.14746429,0.61374474,0.03963484,-0.13283697,-0.15148322,-0.37944642,0.012337272,-0.19443262,0.70541435,0.33146513,0.00035038777,0.18532538,0.35594544,0.32897434,0.3073483,0.30631125,0.37159267,0.12516452,0.30503792,0.24635926,0.06464411,0.5959789,0.15171798,-0.21115768,-0.09711247,-0.10696695,0.025577765,0.19592813,-0.23918344,0.09363454,-0.012937418,-0.3535603,0.08165343,-0.08442758,-0.10373857,0.4413871,-0.04118013,0.19520837,-0.08651219,0.3684782,-0.07380742,-0.2955332,0.16638002,0.33576292,0.20917122,0.14876276,0.2503177,-0.46558043,-0.15450418,-0.11021252,0.034516048,0.04032335,-0.10511655,0.25133806,0.18359561,0.19556478,-0.0014135366,-0.1077899,0.26243672,-0.14445758,0.20708191,0.17007403,0.35223386,-0.031645373,-0.007198124,-0.28167772,-0.54493934,-0.06166954,0.25105402,-0.18671548,-0.4831123,0.6730619,-0.14274244,-0.13261917,-0.0729435,-0.2689995,-0.09199735,-0.17956905,0.17700005,-0.36326802,0.18514927,0.26635322,-0.09485728,-0.25565776,-0.32812214,-0.14455408,-0.45506403,-0.032914996,0.015738133,0.11598409,0.01767738,-0.084360525,0.027579512,0.32299837,-0.35843596,-0.17994916,-0.23327135,0.047067787,0.013878344,-0.19276257,0.2374074,0.23477256,0.20607032,-0.09953777,-1.2358935,-0.029025113,-0.20256473,0.15830326,-0.24267964,0.36802977,-0.38307998,-0.5741326,-0.20906237,0.05220078,0.09900295,-0.0415721,-0.16034898,0.15877312,0.21655619,-0.36123642,0.119058795,-0.14996758,0.35869667,0.2723178,0.3380611,-0.118993625,0.019684443,0.015723683,0.10682489,-0.6356512,0.42583644,-0.27191937,0.18561095,-0.1364808,0.006650242,0.064663686,-0.10326567,0.18932791,0.08505487,0.16831604,-0.2030932,0.21527101,-0.55541474,0.41335687,-0.079581775,-0.012052186,0.052193183,-0.35101318,-0.042501476,0.16116574,0.28386202,-0.41819826,0.012200959,-0.26081565,-0.37045738,-0.40210566,-0.08815551,0.62186,-0.03273187,-0.19800206,-0.18715245,0.05346339,0.050156433,-0.062979385,0.15845194,-0.101468846,0.4424944,-0.03472083,-0.22488181,0.27243727,-0.251861,-0.3916997,-0.18593211,-0.21663338,-0.22010024,-0.062908836,-0.07598543,0.2488241,-0.2027944,-0.34268975,-0.11782579,0.17234327,0.43085063,0.2897414,-0.35555065,-0.42409614,-0.26148972,-0.25358057,0.13145222,0.3416222,0.22366455,0.25186726,0.16624878,-0.18726625,0.36262766,0.40294033,0.12254673,-0.1244845,0.50081545,-0.34795094,-0.26504895,0.46782443,0.059713658,-0.03501691,-0.12770519,0.12283354,-0.062420383,-0.07009538,0.12196416,-0.06858065,0.021044988,0.0042286417,-0.5521499,0.11379679,-0.25378364,0.17995888,0.11364633
