O=C(Nc1n[nH]c2cc(-c3ccc(F)cc3)ccc12)C1CC1,0.17659362,0.18124297,0.13233314,0.024655221,0.16365905,0.06030934,0.67580503,0.7615159,-0.04633179,-0.5880361,0.3295049,-0.12676479,0.122529246,0.1383326,-0.05196034,0.4230975,-0.3570526,-0.033596717,-0.427676,0.22617188,0.0290253,0.004310537,-0.037949875,0.04938381,-0.12151748,-0.055155076,-0.31348452,0.23655735,-0.11740183,0.30038163,-0.32651478,0.11726654,0.10983852,-0.2620214,-0.07604755,-0.29774243,0.0496996,-0.032574978,0.14386354,0.27352682,-0.16418883,0.057619985,0.40583757,-0.067989886,0.42018273,-0.3514953,-0.080872044,-0.018166851,0.21065749,0.053516645,0.10794212,0.39004552,0.1995891,0.18811205,0.23920798,0.06395799,-0.42313197,-0.14622286,0.113054216,0.045110725,0.2365847,-0.27748892,0.48215038,-0.0919291,-0.26338,0.2069437,0.108958915,0.04308578,0.29084635,-0.038080063,-0.04405363,0.1136698,-0.049828447,-0.23622788,0.037517983,1.7663375,-0.16709544,0.6062441,0.22988014,-0.48319238,0.21811296,-0.14287788,-0.115254946,0.031927742,-0.16315378,0.05690718,0.05210334,-0.35071585,0.3146165,0.17408396,-0.21064374,0.0750516,-0.44849434,-0.34405106,-0.026984798,-0.35547498,0.34458315,0.21329992,0.23951413,0.48846763,0.209423,0.13325728,0.15597129,-0.047057692,0.028236073,-0.04208175,0.05335566,0.18458305,-0.078281716,0.09515958,-0.10939205,-0.39394996,0.21959375,-0.1235109,0.08290998,-0.011454708,-0.19737242,-0.019453336,0.19082598,0.06618934,-0.22645172,0.034843195,-0.5233905,0.21220034,-0.16024898,-0.19450434,-0.31943455,-0.030383779,-0.12600975,-0.23455526,0.25693637,-0.0041760593,0.021847572,0.1276359,0.21851638,-0.14959373,0.08582706,0.13367666,0.7313214,0.034188826,0.009140776,-0.21152319,-0.2991039,0.4928925,0.02009262,0.07399545,-0.100178555,0.05087188,-0.00887133,-0.18597859,-0.29067257,0.054406423,-0.3495295,0.072888926,-0.087657616,0.52478456,-0.012822984,0.10988204,0.5232203,0.18362907,0.31442916,-0.08886133,-0.09300065,-0.042205304,0.17411044,0.4971624,0.01016592,-0.5322157,0.3921415,-0.06954374,-0.2134591,-0.0069172853,-0.2997143,0.022838753,-0.05155714,-0.012111854,0.07731885,-0.045957394,-0.18271951,0.135236,-0.032367297,0.13793278,-0.20887117,0.08451189,0.19648522,-0.6134945,-0.03800627,0.03678294,0.38457596,0.4632663,-0.04483655,-0.18478583,-0.3291695,-0.08157283,0.5119142,-0.19278468,-0.3411186,0.12179003,-0.07952609,0.0006338322,0.0337741,-0.21687578,0.24020912,-0.2611249,0.07262147,0.08172946,-0.09835684,0.008979619,0.070973836,0.00914491,-0.008306222,-0.24122678,-0.16530445,0.2019218,0.16472223,-0.11129287,-0.19336078,0.120869055,0.26004627,-0.15755074,0.15160882,-0.011518485,0.26360905,0.04036726,-0.5965425,0.041759804,0.19860248,-0.45184517,0.35258216,-0.12343833,-0.34847423,0.07734058,0.023144463,0.16171576,0.09305195,0.023990072,-0.3738429,0.29545766,-0.3744082,0.31586424,-0.07015437,-0.31807953,0.03191413,-0.095343396,-0.089094795,-0.35169202,-0.18232931,0.003625445,0.66918224,0.0058672586,-0.2434514,0.2776561,-0.19779028,-0.33956382,0.20840439,0.28059644,0.37348276,0.1595799,-0.111876145,-0.23156539,0.02780019,0.09742938,-0.07973962,-0.57293737,0.13110286,0.3396814,-0.10994026,-0.121134244,0.27389067,-0.03171542,-0.5535276,-1.082295,0.7180798,-0.22830898,-0.029094264,0.07526965,-0.10151338,0.07917166,0.27817288,-0.15434746,-0.12246914,0.047300547,0.29438278,-0.028435046,0.0728544,-0.056659356,-0.1046706,-0.21016605,-0.43000123,-0.25740275,-0.23297687,0.09060136,0.21076219,0.027239352,-0.1526497,-0.36711195,-0.123340175,0.199917,-0.141992,-0.0009760863,0.736883,-0.47652686,0.43840393,0.25620756,-0.4060643,0.27097788,-0.03264436,-0.1610089,-0.1158583,-0.19945656,0.076026246,0.13535637,0.16875364,0.4625103,0.07703168,-0.3450576,-0.5337851,-0.27601993,0.0824597,-0.26667517,0.1315078,0.21248324,-0.042233452,0.18432938,0.7528251,0.1496267,-0.06824313,0.3344321,-0.30028263,0.25585377,-0.07790674,0.2048759,0.13816254,0.2768919,-0.08302639,-0.23864292,-0.4372076,0.0041725826,0.06758892,-0.2746923,0.46458122,0.37308183,0.03143562,0.16083321,0.09813693,0.32373258,0.25943768,0.23259859,-0.061062623,0.42057794,-0.550813,0.17345752,-0.11950469,0.087956525,-0.38913012,-0.21316057,0.093714446,0.2057508,0.03890668,0.27828273,-0.057895474,0.25848222,0.45025077,-0.30444178,-0.17408328,0.035527226,-0.22516534,-0.029566664,-0.31306878,0.48364383,0.38106468,0.17899442,0.15823899,-0.17058074,-0.3590211,0.2478023,-0.06309236,0.18482597,-0.21159568,-1.0218517,0.30869007,0.5900505,0.042870335,0.058126245
CCn1c(-c2nonc2N)nc2c(C#CC(C)(C)O)ncc(OC3CCNCC3)c21,0.31062785,0.32813212,-0.04245061,-0.14256138,0.025966913,0.0101850545,0.15710598,-0.1740595,-0.043313477,0.3366587,0.112077355,0.412656,-0.1658128,-0.11027712,0.07837993,-0.0073329816,-0.36483732,0.06717188,-0.3719184,-0.13152087,-0.18158141,0.12702434,-0.5539034,-0.07320813,-0.16508295,0.2535268,-0.4321167,-0.23244129,0.037661232,0.4322507,-0.030180033,0.27725056,0.04692143,-0.03536555,0.039909855,-0.27321017,-0.36541045,-0.056216903,0.26318827,0.096337944,-0.24849223,-0.109082565,-0.06635717,-0.011701107,0.034444503,0.16015951,-0.15154211,-0.33962306,0.30409044,-0.16041353,0.2972923,-0.19774912,0.20674574,0.38343948,0.06165871,-0.14288042,-0.26326036,-0.29843724,-0.037299212,-0.19804229,0.34685498,0.12294684,-0.15972224,-0.18968892,0.00016222909,-0.6225103,-0.16000809,-0.5232205,0.3362668,0.53929496,-0.4546385,-0.33229545,0.042904597,-0.3274474,0.17490205,1.4782379,-0.04179699,-0.15585235,-0.5247426,-0.70654124,0.09482758,-0.24805751,0.6069393,-0.019570693,0.037735317,0.38298684,0.084885426,-0.11314776,0.3386943,0.18463619,-0.46486875,-0.087538026,0.4136594,0.002620305,-0.21809804,-0.5729241,-0.019773463,0.16760953,0.25825915,-0.05914226,-0.21910761,-0.2832833,-0.05795181,-0.119635314,-0.006896824,0.017708603,-0.042081732,-1.22121,0.5828238,-0.12801799,-0.37717387,-0.45535985,0.050867334,0.2569878,-0.14241964,0.036905877,0.021435846,-0.09174707,-0.043228604,0.30806205,0.26035598,0.04031255,0.45149645,-0.008464908,0.21418394,-0.09356729,0.02604217,-0.015710656,-0.1803486,0.14711061,0.03282588,0.01657007,-0.356372,0.09830413,-0.1341566,-0.058301985,-0.12901612,0.48247412,-0.56867373,0.002544836,0.025841448,-0.32312185,0.04868905,-0.043394253,0.18538202,-0.033558447,-0.14745526,-0.1940312,0.10839953,-0.024250027,-0.07809092,0.2194794,0.16891205,-0.111755535,-0.001101826,0.16915451,-0.018191235,0.31752142,0.12789981,0.037572235,0.092895515,0.13030136,0.093555234,-0.030897258,0.02943574,0.02727427,0.25048208,0.27447775,-0.18854433,0.17310627,-0.33701575,0.2232948,-0.3980952,0.26821017,0.06668791,0.347661,-0.47202566,-0.096286066,0.26713,0.06561374,0.40545866,-0.23585355,-0.052746937,0.24256492,-0.028712694,-0.24531572,0.5424896,0.14978954,0.29659715,-0.19822286,-0.12944639,-0.59629107,-0.49783066,0.204586,-0.4331672,-0.30966628,0.24382284,0.32557106,0.41507044,0.39584878,-0.3564974,0.050812084,0.00010097342,0.4405063,0.17535464,0.18925205,0.30104542,0.2661228,-0.073942825,-0.08546437,-0.19992375,-0.14447261,0.10703591,-0.08158578,0.029610422,0.409486,-0.037899278,0.03829622,0.12175288,-0.29034588,-0.32942146,-0.12587073,0.17910963,-0.108429745,0.18828243,0.5995906,-0.06630058,-0.27747366,-0.39726755,-0.022954619,-0.05446028,0.075375296,-0.041374147,-0.14290938,-0.23294778,0.17126295,0.46063232,0.1364607,0.1004217,-0.21658416,-0.24912554,-0.17308813,-0.16704074,0.46531996,0.45144013,-0.20085573,0.18912236,-0.1230239,-0.11187958,0.20069784,0.20416795,0.07163499,-0.33930382,0.08997574,-0.09589637,0.15578653,-0.05028807,-0.032092534,-0.127186,0.2721744,0.2830116,-0.13729696,0.36065608,-0.06714845,-0.1303189,-0.102824956,0.12722445,0.28375348,0.017154569,-0.4414938,0.25555286,-1.0906403,-0.33272618,0.05270707,-0.184899,0.1519187,0.5713676,0.24305354,-0.12964037,-0.0024921165,0.29943693,0.14498705,-0.019743867,0.16460118,0.043561235,0.3573849,-0.20868428,0.31948665,0.16611302,-0.20743535,0.0647842,-0.03749593,0.13114958,0.11619536,0.43385768,-0.11253347,0.091787726,-0.009379002,0.16980313,-0.1371585,-0.33009923,0.06745508,-0.22331311,-0.08732392,0.44931772,-0.0035579286,-0.019925617,0.004401821,-0.09432846,0.17582622,0.044607244,-0.12846777,-0.03867047,0.13300718,0.039229136,0.018375088,0.021714559,0.25103334,0.19246289,0.058763295,-0.43618736,-0.11712331,0.09761199,0.35984668,0.6455474,0.057024527,-0.05340434,-0.5954966,0.6317557,0.144362,0.3750089,0.2766656,-0.19898163,0.79694474,-0.19599572,-0.3980434,0.003796709,0.33847252,0.14306313,0.3020812,0.28364402,-0.050153803,-0.10929131,0.51628333,0.22523376,-0.4876258,-0.41402203,0.068896495,0.034309793,0.8709293,-0.25019854,-0.26781645,-0.30087796,-0.04309199,0.03186156,0.29418826,0.3165839,0.2259648,0.27027604,0.17213303,-0.13294558,0.015384425,0.2040425,0.5790366,-0.22512186,-0.18861432,-0.40463367,-0.05387166,0.23203522,-0.031266026,-0.12425386,-0.53769475,-0.013131558,0.382299,0.2148815,0.2604773,0.10070672,-0.03305862,-0.13816994,0.29986474,0.067760065,-0.24647793,0.11659839,0.12877794
CN(C)c1cc2c(Nc3ccc4c(cnn4Cc4ccccc4)c3)ncnc2cn1,0.15116341,0.124533944,0.32487595,0.03660133,0.46191213,0.013427018,-0.1800191,0.16846456,0.28248775,0.28930762,0.07967944,0.07215626,-0.008081663,-0.009158464,0.30780244,-0.16460618,-0.2533993,0.06421264,0.003417599,0.28544125,0.06474595,0.033510484,-0.08248975,-0.16468109,-0.025987264,0.16539672,-0.048910186,0.038893495,-0.2849413,0.009843565,0.20712991,0.23959866,-0.27178547,-0.022228394,0.15623203,-0.18511412,0.042885147,0.0028468862,-0.22273315,0.24585919,0.088198155,-0.22069012,0.29898834,0.08941759,-0.17038219,-0.26594722,0.22465351,-0.01926338,-0.033756547,-0.727433,0.10927168,0.23819032,-0.20550117,0.083519645,-0.10457032,0.16998453,-0.20225368,-0.04963503,0.085166276,-0.15386589,-0.30445036,-0.26349136,0.012402734,0.41895175,0.07231102,0.29026082,-0.4483972,-0.50687975,0.34139776,-0.041771132,0.025862625,0.004985926,0.19696954,0.40384078,-0.22084941,1.4835178,0.18550578,0.16963632,-0.15203819,0.15737449,-0.44300765,-0.26781276,-0.35524896,-0.003633776,0.037129384,0.34550267,-0.30686766,-0.0043584197,0.030059151,0.36157566,0.43131846,-0.1637394,-0.37492466,-0.18127798,-0.39382148,-0.07441479,-0.14284189,0.33663753,0.0424313,-0.22300507,-0.17470627,0.117018014,0.62430286,-0.06455738,0.21454322,-0.16464338,-0.12071968,0.29382744,0.51041216,-0.38825637,0.08520643,0.2256697,0.47096947,0.5293485,0.18352567,-0.16454633,0.056248087,0.19918688,0.31451973,0.5697464,-0.02857599,-0.2657369,-0.12867369,0.49374938,0.103551,0.008956506,0.30117443,-0.24843487,0.33399716,0.21510406,0.33279756,-0.01940584,-0.22871992,-0.020186577,-0.079169944,0.10889654,0.39421624,0.11532564,0.40052167,-0.032175638,-0.24114151,0.30591387,-0.25930294,0.12574467,0.03963825,-0.8647948,-0.1743637,0.007805939,0.09238996,0.011921935,0.37406358,-0.00079257914,0.15175432,0.0018889952,0.05625516,0.056669425,-0.19800611,0.056317177,-0.07373692,-0.45023918,-0.01942304,0.16468531,-0.21430728,0.31700644,0.14156549,-0.45118797,-0.23416917,-0.2046377,-0.21850003,0.16614065,0.0746795,0.00036257436,0.07945381,-0.15838039,0.1951303,0.59739506,0.35624042,0.37513298,-0.22519536,0.3594127,-0.3355385,0.08570084,0.34851286,0.31838712,0.20503083,0.09424461,-0.03889842,-0.06824317,-0.25209558,-0.10854969,-0.50847757,0.28178832,0.16293211,0.24765971,-0.7192792,-0.11956459,0.18993412,-0.15246822,0.40788764,0.09303608,-0.004102721,0.1992152,-0.29402635,0.09865183,-0.07716451,0.1521952,-0.606253,-0.1485952,-0.51515603,0.3128774,-0.23786345,0.11631381,0.04415296,-0.49927816,-0.2505313,0.20275323,-0.3730431,-0.37885344,-0.24869958,0.32395348,-0.2181634,0.19460085,0.5061632,0.37699538,-0.5368519,-0.17266086,0.06936716,0.17490596,-0.029649973,0.19530803,-0.08153685,-0.1360832,0.31202748,0.13926183,-0.02526572,0.060097065,-0.1225983,0.5329729,0.2515702,0.06163411,0.19410458,-0.17331716,-0.27578315,-0.59175754,0.06768429,-0.3751882,0.097378165,-0.06691861,0.29067907,-0.7221726,0.13568385,-0.43961716,-0.123753,0.41949284,-0.10509585,-0.08179443,0.15713929,0.14470175,-0.014175471,0.0147417085,0.027829362,0.08147567,0.08864329,-0.47602665,0.15581265,-0.17551248,0.27025703,0.23780027,0.5110346,0.30965418,-0.22056516,-1.053826,-0.11066405,-0.19467613,-0.20593037,-0.08050168,-0.041228943,0.14633135,0.00709922,0.07098439,-0.01917877,0.35568073,0.022849739,-0.4059541,0.20957926,0.11452442,-0.7080068,-0.25143975,-0.21284145,0.4342528,0.14406762,0.65676296,0.076731406,0.24218313,0.30770007,-0.04516657,-0.4618714,0.22604889,-0.119581014,-0.18857758,-0.33952382,-0.17502466,-0.0777954,-0.08176214,-0.40054107,0.17631589,-0.23736499,-0.24091627,0.11975849,-0.25757158,0.10377058,-0.10709778,0.022793742,0.29061761,0.14003313,-0.05365488,0.19940144,0.4159795,-0.40751874,-0.38448852,-0.21544102,-0.47670045,-0.21246797,0.30359194,0.7179345,-0.005487978,-0.318349,-0.54468775,0.07248689,0.5235623,0.21716285,-0.09916491,0.20883112,0.1600231,-0.23535833,-0.11236904,0.1680928,-0.07614958,0.02105408,0.2142209,-0.21526082,0.2731964,0.10851485,0.24778606,-0.2000855,0.26305035,0.09389051,0.23545264,0.45319507,-0.38563633,0.5656348,-0.25735775,-0.10434119,-0.2812575,0.059204355,-0.19267583,0.17228657,0.17150632,0.087400034,-0.14356475,0.1952494,0.14492892,0.02265594,-0.3520708,0.0896392,0.3603477,-0.12197115,0.04989832,-0.058012813,-0.0072520333,0.05745266,-0.14706057,0.37034217,0.38715845,-0.4118351,0.09389787,0.21742085,-0.4615455,-0.09937169,0.04942974,0.043118708,-0.22085719,0.37904832,-0.34282276
NS(=O)(=O)c1cccc(-c2ccc3c(NC(=O)C4CC4)n[nH]c3c2)c1,0.2659816,-0.0845821,0.71744615,-0.3046109,0.08256143,-0.025063,-0.18926509,0.248368,0.5279142,0.42311293,0.088620365,0.15342446,0.22448334,-0.30202147,-0.26303017,-0.17913325,0.030442316,0.013414018,0.050061896,0.027366864,0.10857229,0.27395386,-0.16701421,-0.24997284,0.51346636,0.008607031,0.234371,-0.08108311,-0.31425247,0.17820139,-0.019681746,0.24106754,0.0017105739,0.054944254,-0.10578783,-0.26786882,0.23023108,-0.14016478,0.09861912,0.3849265,0.105151206,0.03363672,0.36859125,-0.1705513,-0.3062529,0.25771037,0.21806484,0.30270496,-0.20260914,-0.3841411,-0.21772608,0.041937683,0.16665633,-0.4170109,0.046771664,0.49660408,0.058626585,-0.13665442,-0.08131432,-0.14691976,-0.18196358,0.036884837,-0.11369475,-0.01871109,0.14246957,0.30231148,-0.5503725,-0.48469767,0.24484982,-0.29304147,0.18064333,0.26385975,0.115714185,0.21543005,-0.068743534,0.9826971,0.24008748,0.15970297,-0.17575926,0.18753284,-0.20260608,0.21906129,-0.3861049,0.10011068,-0.12387317,0.19417386,-0.21149868,-0.49881974,0.3795625,0.09695341,0.68963486,0.13481945,0.13087846,0.49606785,-0.43431145,-0.05765845,0.08863378,0.34037387,0.1398305,-0.3856914,-0.3123417,-0.09634181,0.3997233,-0.05541703,0.24783456,-0.11967932,0.036779385,-0.40282255,0.21635883,-0.21204081,-0.22474845,0.19228639,0.28777203,0.34187514,0.40625703,-0.24986424,0.18415867,0.26347068,-0.16996273,0.2939712,-0.1773552,-0.34263778,-0.15680908,0.053042322,-0.3594286,-0.08050514,0.041586008,-0.35919622,-0.2555371,0.15385094,0.49871382,-0.53194296,0.0033871685,-0.2213064,0.37415588,-0.0031087766,0.15342681,0.26096582,0.51236606,-0.2199122,-0.6656947,-0.16489783,-0.30622897,-0.027059391,-0.38179302,-0.48468786,-0.36983645,0.46579242,-0.25921965,0.516382,0.18746306,-0.09025842,-0.07047057,0.059322342,-0.19533148,-0.17358659,-0.6149825,-0.2472396,0.1439562,0.019317452,-0.09173361,0.10906085,-0.29477,0.122393906,0.30705518,-0.33554235,-0.21301992,-0.36551788,-0.24608573,0.17301534,-0.096910186,0.25617462,-0.048464842,-0.30521545,0.14537862,0.003216437,-0.055633035,-0.015733926,-0.2773639,-0.12411521,-0.23493172,0.31456006,0.08113913,0.4049955,0.01390489,0.5842304,-0.06839511,0.0268625,0.1930227,0.06447253,-0.005422387,0.16575114,0.41535443,0.38221565,-0.40840542,0.27530193,0.08658959,-0.10378696,-0.04816663,0.19280568,0.3553977,0.30339307,0.03491323,-0.0571212,0.40389538,-0.28528145,-0.5828352,0.3049527,-0.36827353,0.26765272,-0.5904033,-0.079280086,0.12163407,-0.3276267,-0.34640878,0.2781491,0.03238029,-0.38383105,-0.16849108,0.52575225,-0.042297963,0.15689507,0.43932894,0.08396237,-0.35107982,-0.028754214,0.022148382,0.26548395,-0.12507956,0.1664978,0.13093098,0.14289908,0.21967053,-0.1440464,-0.17226316,-0.2961202,0.033439893,-0.08647319,0.3244771,-0.10570181,0.0024504496,-0.27010965,0.1725342,0.11901482,-0.23811239,-0.37746212,-0.10195553,0.31367886,-0.21217987,-0.24548307,-0.37251216,-0.3303453,0.26788256,0.21162497,-0.4507424,0.24046455,0.09861922,0.44651037,-0.30006745,-0.26296273,0.5049723,0.046294034,0.155394,0.09838231,0.3228998,-0.076046474,0.3806776,0.03556026,0.043371305,0.06829256,0.32532477,-0.92111105,-0.061928976,-0.26882014,0.030956725,-0.4778425,-0.122447595,0.012888837,-0.0016066537,-0.2341714,-0.057461552,0.41246954,0.031410307,-0.060301926,0.23003985,-0.14946826,-0.5412068,-0.10099907,0.08346929,0.28224388,0.109427154,0.47137174,0.021985117,-0.15031846,0.45453703,0.21058847,-0.4699935,0.33678383,-0.025798,-0.25777176,-0.66997963,-0.06996048,0.25077513,0.15812722,-0.008460544,0.073584944,0.18952288,-0.010803343,-0.122613676,-0.1376353,0.06559878,-0.20588593,-0.1047306,0.018487582,0.08889419,0.08340576,0.45023498,0.27659163,-0.10127897,0.13545564,0.15620962,0.17142943,-0.27653906,-0.18660736,0.39454415,-0.32191345,-0.419057,-0.5479629,0.20505193,0.1250386,0.1905543,0.0043741576,0.47911426,0.2800642,0.05606257,0.004846559,0.32847586,0.008702555,-0.017244276,0.008430744,0.19316897,0.08152389,-0.22897021,0.4198098,0.13993946,0.20971411,0.700952,0.25260514,0.16077322,-0.3998106,-0.034122363,-0.5235864,-0.16956438,0.3251212,-0.13685015,-0.24526402,-0.38961002,-0.16390567,0.092696436,-0.039798796,-0.032947037,-0.16064349,0.062397316,-0.11124141,-0.19166252,0.4705305,-0.18178451,-0.12451286,-0.23807575,0.15965176,0.31056926,0.21941352,0.29812026,-0.24335891,-0.3447367,0.2076432,0.09266785,-0.40836757,-0.061003327,0.20078053,0.4495781,-0.11399029,0.41781852,-0.011493376
Cc1nn(C)c2cc(N(C)c3ccnc(Nc4cccc(S(N)(=O)=O)c4)n3)ccc12,-0.037365034,-0.12604113,0.073912986,0.13295536,-0.13766712,0.56758904,0.15378271,0.2711521,0.318395,0.26759624,0.2763838,0.2376986,-0.31838146,-0.38125864,-0.11538727,-0.13832766,0.17196825,0.24746351,-0.20958242,0.010035106,0.28944793,-0.2574056,-0.27546954,-0.23708753,0.3201142,-0.13612191,-0.07587829,-0.4067298,-0.41745675,-0.08595979,0.43369234,0.11629958,-0.26654893,0.21617585,-0.14539263,-0.14759246,-0.25290003,-0.0041098557,0.030672822,-0.30081457,-0.15524583,-0.3032556,-0.33496276,-0.24439035,-0.0040656296,0.027527668,-0.19093753,-0.13590692,0.06629305,-0.14944278,0.3507708,-0.00066055026,0.051511854,-0.057565793,-0.095181204,0.11214396,0.31706288,-0.5755426,0.08378791,0.05199651,0.21536759,0.24190076,-0.22205384,-0.081490695,0.16322838,0.4041708,-0.24339962,-0.07686509,-0.04452644,0.23413101,-0.123893715,0.055957977,0.000945769,0.0660818,0.37527698,1.6388246,0.35635898,-0.2063783,-0.17468795,-0.24349658,-0.17195255,-0.31977397,0.46515006,-0.1670727,-0.48585004,-0.31265056,0.1316942,-0.29854363,0.27517748,-0.08835214,0.17560206,0.17946285,0.23376413,0.25330842,0.15664198,-0.07645383,0.1586312,-0.0093319155,0.16840313,-0.22785807,0.031063145,0.13468029,0.4856675,-0.29291186,0.21048853,-0.027876522,0.12091298,-0.16905767,0.57713974,-0.315394,-0.39622092,0.36407402,0.17285195,-0.22722973,-0.402339,-0.3434567,0.0027048015,-0.14164996,0.07124619,0.3182663,-0.054155555,0.11321363,-0.43877473,-0.261072,-0.26068723,0.059240844,0.31349644,0.1378599,0.41925752,0.2944335,0.08707909,-0.10483866,-0.31577924,-0.15605278,0.05874824,0.05569758,0.75546336,-0.20339608,-0.12019018,-0.11979762,-0.19554353,-0.17238516,-0.45326233,0.83236843,-0.1636446,0.77460396,0.017281715,-0.2788202,0.0036569168,0.12405141,-0.1822651,0.14583471,0.39055437,0.17482182,0.08987449,-0.080035254,-0.14768752,0.46383736,0.13853121,0.14971536,-0.40550822,0.13475895,0.1952215,-0.6274618,0.12626153,0.6123232,0.036397517,0.029384296,0.27603397,-0.0748576,-0.22878154,0.2493853,-0.052447278,0.19158578,-0.37121287,-0.028923267,-0.29803774,0.13046753,0.17075807,0.12113909,0.30174494,0.067047805,-0.05749136,-0.25797796,-0.4873751,0.24711823,0.49241114,0.05372852,0.092585854,0.36921164,-0.095882945,-0.2838444,-0.1083504,0.44227582,-0.21701701,-0.057603758,0.12117956,-0.040526196,0.42378494,0.07043604,-0.34626776,-0.07215342,0.5254455,0.00010929096,0.090178795,-0.5532264,-0.88565606,-0.30390272,-0.089111194,-0.05463575,-0.028295739,-0.15303403,-0.1934934,0.11526788,0.26507834,0.0047320677,-0.23828469,0.34132457,0.25980258,-0.15630883,-0.38157815,-0.0043490855,0.2372647,-0.15138166,-0.17405793,0.35507026,0.32282513,-0.0807362,-0.13288249,-0.11449742,0.44439843,0.040773835,0.16596904,-0.3903575,-0.46258533,0.06782288,-0.0964088,-0.41925243,0.44179702,-0.30016991,-0.0884186,-0.0065115117,0.051341046,0.2829164,-0.20984703,-0.21623509,-0.22250302,-0.20290145,-0.44072384,0.071555056,-0.27483535,-0.058456827,0.18415879,-0.21067198,-0.17526697,0.33127955,0.08289975,0.056312963,0.2763602,0.3907327,0.7214545,0.38528445,-0.0037336305,0.31950584,-0.012375112,-0.26549438,-0.21764894,-0.15906921,0.2838047,0.04868396,-0.13637194,-1.3470281,0.19583191,0.3791786,0.1328458,0.037040606,0.13150252,0.36137873,0.033660512,0.002414289,0.4153563,0.29269186,0.008499454,0.069815196,0.2076569,-0.016836036,-0.16667156,-0.13319544,0.416811,0.040940296,0.2059606,0.35240814,0.41706768,0.039888475,0.24235082,0.42390066,0.10461809,-0.024166033,0.1138457,0.16715628,-0.54216594,0.04096164,0.43347168,-0.015820686,0.24925715,-0.0151414145,-0.012826176,0.12247197,-0.3748167,-0.3317004,0.06514038,-0.1361171,0.2627946,0.14538659,-0.37569168,-0.252983,-0.49911,0.2172242,-0.036418274,0.060512614,-0.20384696,-0.0890308,-0.15066464,-0.06071924,0.014761052,0.10045574,0.045293506,-0.1510463,0.18398225,0.14474095,-0.03753456,-0.35640988,0.06704477,-0.030346975,-0.13855752,-0.28453085,-0.14685367,-0.03905063,0.20322208,0.09632761,0.16168143,-0.21386647,0.06939025,0.13378099,-0.102424845,-0.49839288,-0.007646739,0.085553475,0.13785306,0.5517476,0.28633633,0.09256739,0.021708371,-0.019107224,0.07275884,-0.06274418,0.20265053,0.06127583,-0.28594846,0.33774808,-0.03442421,-0.087226234,0.38000238,0.34439573,-0.36012387,-0.416239,-0.12892056,0.16828546,-0.36415944,-0.39271086,0.28331992,0.27326477,0.04256889,0.089685544,-0.31237328,0.35966006,0.37632447,-0.09636547,0.020712703,0.31703964,-0.04565243,-0.06440411,-0.19661452,-0.4819846
COc1ccc(C2=C(N3CCc4ccccc43)C(=O)NC2=O)cc1,-0.47351798,-0.31914744,-0.13196018,0.30636746,0.16934103,0.05553268,-0.6036283,0.033748765,-0.19438314,0.25409386,0.5457357,0.43829277,-0.08156767,-0.08977018,-0.23274031,-0.068822116,-0.0024993636,0.11886365,-0.45355645,0.5198531,0.21903214,-0.04756387,-0.02356359,-0.2222729,0.3516471,0.01641452,-0.17397188,0.08792422,0.1589783,-0.21511106,0.26549098,0.25384882,-0.015091492,-0.062295936,0.15997598,-0.43309042,0.055541385,-0.06639848,-0.33337656,0.14914122,-0.10752397,0.24239357,0.26512817,-0.21735752,-0.15858398,0.36041722,0.6267047,-0.43688932,0.25703552,-0.19141114,0.39753622,-0.11591928,-0.1774822,0.16670576,-0.01452094,-0.15673688,-0.1895933,-0.39885616,-0.1986558,-0.29738694,-0.20318367,-0.018995503,-0.065795675,-0.16528189,-0.0898926,0.21367508,-0.05372488,0.049222443,-0.024196273,0.26284975,-0.22492751,0.29590282,0.24961732,0.12838006,0.3386905,1.5855283,-0.17789544,0.0651325,0.374461,-0.10339987,-0.48800153,-0.49681428,0.0038865926,-0.21218723,-0.1531017,0.2027445,0.25145245,-0.13921218,0.2105966,-0.27297673,0.08841528,0.003970701,-0.1210296,-0.05675292,0.20172276,0.1817069,0.024792232,0.558263,-0.18528938,-0.25690016,-0.21576847,-0.6051988,0.42689323,-0.15247802,0.04976218,0.014518781,0.005639701,-0.112782694,0.1459665,-0.2971442,-0.047368877,-0.31338543,0.43142676,0.15800592,-0.3352261,-0.2073231,0.1632931,0.29497343,0.026274092,-0.02434308,0.3582047,0.175515,0.016741209,0.2998954,0.4501229,-0.28958258,-0.21360542,0.28507137,-0.017049104,0.5875007,0.09536382,-0.093361355,0.036942933,-0.11339281,0.039165437,-0.23744696,0.2213353,0.10793718,-0.2056032,0.21584442,-0.46482995,0.83519053,-0.15092584,0.2380637,0.37643498,0.4111112,-0.3605292,0.07394322,-0.10570216,0.08159544,0.28648642,0.13015603,0.26540953,-0.2210462,0.03335153,0.38327748,-0.28337204,0.1677872,-0.05962667,0.19327284,0.23209012,0.33415473,0.11562945,0.11082428,0.11834986,-0.19652595,0.19123167,0.01589222,0.57402813,0.25331777,-0.27738538,-0.02414939,-0.29485515,-0.035996452,-0.1761229,0.5537304,0.37401545,-0.05049794,0.1789692,0.34051523,0.43245375,0.0398073,0.38488686,0.24885097,-0.05520209,0.57186973,0.16450214,0.14154804,0.40503734,0.21722472,-0.12761949,-0.019076845,0.00087626465,0.0020070835,0.06975353,0.088239715,-0.036846258,-0.043055467,-0.29772323,0.177683,-0.08331946,0.20102052,0.60730124,-0.10259468,0.19965762,-0.18407102,0.3602138,0.12731658,-0.09893288,0.09557715,0.41899237,0.13127245,0.080711715,0.3516875,-0.40715697,-0.26909867,-0.13971812,-0.003070778,0.03466069,-0.07843461,0.09540038,0.44857457,0.1985892,0.080149926,-0.13528784,0.14257838,-0.08084521,0.21655034,0.12494436,0.339955,-0.05722044,0.027873019,-0.24376197,-0.47513336,-0.06971908,0.2604331,-0.23838758,-0.5064865,0.54321265,-0.10275271,-0.26903597,0.11246976,-0.23743477,0.15140365,-0.24612513,0.060693614,-0.34983438,0.29370588,0.20143159,-0.07600833,-0.35222918,-0.27336535,-0.13581227,-0.2197033,-0.070207834,0.22132446,0.031897042,-0.019325556,0.08344882,0.19237609,0.29598925,-0.35945407,-0.08084505,-0.14532034,0.104926035,-0.10183088,-0.2557924,0.31459814,0.22592424,0.10252773,-0.05531695,-1.1502509,-0.18874973,-0.19347186,0.0147043625,-0.22609209,0.28858578,-0.4694379,-0.4994024,-0.12842856,-0.021715686,-0.02122253,-0.020321133,-0.33217373,-0.035277802,0.2498322,-0.30112523,0.11644149,-0.2029248,0.3034055,0.18629238,0.36405343,-0.28737313,-0.18901615,0.084764175,0.1266088,-0.26062334,0.37258688,-0.27320886,0.16881141,-0.2098226,-0.008685682,0.06513362,-0.07627129,0.2722632,0.13923535,0.24625526,-0.30467704,0.39584294,-0.57599276,0.32184705,-0.3274788,0.039787296,-0.07281646,-0.32514584,0.061211836,0.09622773,0.3653818,-0.3998904,0.22252746,-0.16517742,-0.36014304,-0.483501,-0.00075599767,0.50461906,0.06039794,-0.3499316,-0.18436524,-0.0072613494,0.077284686,-0.14275844,0.061101746,0.055994872,0.43840647,-0.2578538,-0.21518393,0.23715849,-0.24967575,-0.41199625,-0.24814431,-0.19718733,-0.2686588,0.21635269,-0.08968843,0.08680984,-0.21131508,-0.3601946,-0.12536788,0.15175897,0.31038928,0.27331346,-0.3517975,-0.2281101,-0.51182634,-0.15333436,0.1866155,0.29562017,0.13182808,0.18144527,0.4350744,-0.18021329,0.36790818,0.36573777,0.1533931,-0.06738952,0.43641585,-0.34308606,-0.26093975,0.5298905,0.11150318,-0.1137168,0.13039896,-0.17343765,-0.17995818,-0.034196462,-0.11713471,-0.04175743,0.12485064,-0.10095214,-0.5021827,0.017593183,-0.20325917,0.2138852,0.13629629
CN(C)CCCNc1nccc(-c2c(-c3ccc(F)cc3)nn3cc(C(F)(F)F)ccc23)n1,0.12974636,0.13678816,0.18400839,0.13080502,0.5279697,0.08152685,0.03862984,0.37185654,0.3558001,0.4283137,-0.006302598,0.07212114,-0.054593123,-0.14867239,0.18768555,-0.21265933,-0.19869906,-0.08350329,-0.17153066,0.42491868,-0.05230751,0.05647167,-0.013633203,-0.13135336,0.16457446,0.11656077,-0.005700024,0.101939194,-0.12097537,0.031395026,-0.04855092,0.12433705,-0.25850138,0.10727619,0.2075246,-0.15477337,-0.03691906,-0.026426405,-0.39067653,0.15714592,0.08298867,-0.21872437,0.4309173,0.1879532,-0.04609571,-0.15762785,-0.023562528,-0.20140111,-0.028289191,-0.7748839,0.29362002,0.13737907,-0.20418893,0.19335808,-0.036821958,0.35487542,-0.0940401,-0.13804695,0.0910394,-0.16816354,-0.087718986,-0.043881804,0.013983559,0.43235505,-0.03355376,0.18964306,-0.61186934,-0.55999565,0.29297632,-0.19304621,-0.10331683,-0.12834999,0.32423553,0.26425543,-0.0828022,1.546261,-0.0073291985,0.21171804,0.112052575,-0.013441349,-0.15547267,-0.12891006,-0.4312146,-0.047305245,0.08287361,0.42643234,-0.22881742,-0.010786989,0.009870414,0.43412513,0.34021646,-0.12650737,-0.22061285,-0.25950807,-0.41241112,0.024178606,-0.17510463,0.18878011,0.07018615,-0.28828442,-0.19025359,0.20358612,0.5228856,-0.09472882,0.110806294,-0.24564512,-0.11782496,0.058391213,0.32317466,-0.37941375,0.24199998,0.3105407,0.47145274,0.41726202,0.041030537,-0.21992475,0.025480842,0.19923614,0.4141897,0.28410393,-0.012952393,-0.3892962,-0.1093085,0.49423644,0.09298703,0.088824004,0.3334128,-0.19432145,0.32602498,0.3574992,0.19757803,-0.10514887,-0.17644207,0.07389414,-0.12747304,0.10071397,0.35633042,0.18698503,0.29494867,-0.05563442,-0.09696197,0.41129172,-0.322206,0.19755436,-0.044214558,-0.65412325,-0.06709118,-0.08310485,0.074704714,0.07844589,0.34855616,-0.21620102,0.14056382,-0.14927547,0.020578211,0.08520909,-0.2540867,0.083993755,-0.13189967,-0.42277858,-0.059498053,0.10845737,-0.2449797,0.1616763,0.10254331,-0.5796316,-0.24783972,-0.13278884,-0.20557871,0.10644774,0.059121907,0.021873623,-0.012005095,0.00841788,0.2550537,0.42926016,0.35403228,0.33319274,-0.11333716,0.23163062,-0.20414478,0.08130548,0.4684174,0.37448645,0.24955663,0.039671566,-0.031082429,0.046847958,-0.46593234,-0.23182179,-0.44290477,0.2695168,0.0065948577,0.28824246,-0.6345719,-0.024066526,0.13176937,-0.11217379,0.5422378,0.09675287,0.09450187,0.17805038,-0.2600074,0.047918618,-0.08370899,0.12145831,-0.6436928,-0.115282044,-0.52951723,0.2060559,-0.290438,0.23888321,-0.014131783,-0.3593967,-0.13245957,0.20853768,-0.48913503,-0.2528245,-0.3399927,0.21831125,-0.07577868,0.20783134,0.40509868,0.44147557,-0.49963215,-0.09651788,-0.032656696,0.21786618,-0.2282674,0.16251788,-0.025388135,-0.11692903,0.35442662,0.2879165,-0.0175087,0.007149692,-0.29966387,0.45790887,0.2779999,0.12294405,0.12567475,-0.3863856,-0.3342994,-0.63474834,-0.008672419,-0.27124557,0.10969955,-0.34271035,0.20658624,-0.6056148,0.04666522,-0.43762884,-0.051920168,0.17237811,-0.082451396,-0.10035008,0.18939096,0.2037699,0.065280475,-0.18461128,0.19245577,0.17330006,-0.117396355,-0.32371128,0.08956781,-0.11329572,0.099355325,0.16509543,0.51602405,0.298915,-0.067819126,-1.0383737,0.05302997,-0.24256057,0.011775218,-0.24468085,-0.053068843,0.14881423,-0.1571583,0.07830474,-0.18995303,0.21659216,0.12791897,-0.356075,0.12978815,0.12233277,-0.85803926,-0.3936173,-0.119640715,0.4893517,0.20232087,0.50993603,0.43074328,0.26547897,0.3360689,-0.34320283,-0.33849475,0.08048484,-0.027733019,-0.06866922,-0.44491234,-0.055775326,0.113658376,0.029676655,-0.31163558,0.22572026,-0.16495816,-0.18474635,0.02751565,-0.006702574,0.02628243,-0.13208969,0.2211884,0.4164549,0.21012276,0.069625854,0.19773623,0.49329802,-0.36072108,-0.27278554,-0.26573104,-0.37126625,-0.18782343,0.10246103,0.7630371,-0.0053875335,-0.31914246,-0.50112885,-0.081157215,0.5649567,0.20112473,-0.027777178,0.25754908,0.20773321,-0.28617245,-0.20945059,0.14027812,-0.1676235,-0.036901236,0.21715653,-0.23567224,0.3171503,0.10188647,0.044390306,0.010521371,0.24222219,0.13333184,0.17452906,0.48880193,-0.4260891,0.5390065,-0.073235005,-0.041678734,-0.3974789,-0.14703391,-0.16400981,0.27098322,0.32201064,0.1724967,-0.14409907,0.33988053,0.24283615,-0.020794189,-0.3806748,0.036101747,0.27736044,-0.084816165,0.14077824,-0.05177143,0.060059406,0.12039502,-0.05239825,0.44835708,0.4773237,-0.42488715,0.094253235,0.21989201,-0.7216375,-0.26264036,0.003982576,-0.011076377,-0.2506482,0.23849365,-0.2782099
c1ccc(-c2nc3n(c2-c2ccc4c(c2)OCO4)CCC3)nc1,-0.1455739,-0.17721225,-0.17163448,0.17454694,0.5577515,0.2445703,0.15753871,0.39457467,0.080719896,0.22054979,0.32176468,0.055925816,-0.2908418,-0.15343459,0.14867616,-0.28376225,-0.019119946,0.052221138,-0.29367945,0.20670705,0.12582843,0.25296703,0.14797716,0.14257684,0.24423741,-0.052010313,0.19675855,0.35600612,0.3522457,-0.2999114,0.2787749,0.26477745,-0.065268524,-0.34781772,0.13344382,-0.45856044,-0.1407011,-0.07558453,-0.2561906,-0.030126762,-0.33177054,0.5693662,0.53359705,-0.105190575,-0.14718524,0.19045767,0.7022315,-0.2342801,-0.102137335,-0.1995358,0.29662263,0.36411324,-0.107113175,0.036675733,-0.056399267,0.28494287,-0.12411435,-0.151456,-0.3595425,-0.19391644,0.09744774,-0.09096818,0.02529905,0.32907337,0.26399294,-0.3323056,-0.20490189,-0.29839316,-0.12679161,0.31513682,-0.09904164,0.14323294,-0.5525168,-0.09495807,0.30172566,1.4837466,-0.00714126,0.1090685,0.19483411,-0.42112336,0.38168442,-0.031551085,-0.06394892,-0.23588365,0.11081751,0.48141158,0.07987088,0.07659681,-0.022866989,-0.11014507,0.029465435,-0.15096703,-0.16299672,-0.19056101,-0.012132249,-0.11412383,-0.45507762,0.252969,-0.16703726,-0.15056609,-0.18298823,0.0847282,0.28673494,0.19481069,-0.2824899,-0.08451028,0.3417735,-0.0075577176,0.5336923,-0.29143056,0.034773644,-0.6523,0.10126911,-0.16622613,-0.1307788,-0.052641135,0.46019784,0.459563,-0.32286492,-0.19222632,0.08693369,-0.043620832,0.1815961,0.25368398,0.24024925,-0.0767588,-0.13571581,0.21167919,0.19270751,0.22604115,-0.047536213,0.04834998,0.0014114171,-0.21367864,-0.22555478,0.15763138,0.3330011,0.03479041,0.02367954,-0.0716339,0.123316094,0.23652914,-0.21702397,0.44947925,0.33186376,-0.27387604,-0.6073492,-0.1117401,0.10720677,0.26744023,0.035536926,0.09005232,-0.003977603,-0.040040422,0.042943504,0.27507025,-0.31155664,-0.17194378,-0.09162724,0.034491256,-0.10372969,0.27433804,-0.0742807,0.10230946,0.091172494,-0.07766678,-0.091043286,-0.1845855,0.14259456,0.4928356,-0.13187972,-0.14799798,-0.20120792,-0.05675998,-0.13403286,-0.2041442,0.026860606,-0.7194423,0.21195154,0.6191542,0.16642837,0.39132795,0.38181543,0.25639534,0.28717014,-0.05677211,-0.051919933,0.2951715,-0.030055484,0.44687527,0.021398736,0.20893733,0.25549233,0.28677613,-0.14045776,0.09212875,0.1770193,0.041090284,0.19767351,0.30386347,0.2455215,-0.13284712,-0.19519398,0.40608713,0.028308915,-0.043427587,0.5451236,0.27049094,-0.027184552,0.20455009,0.079241276,0.07666475,0.18049733,0.1848929,-0.14734536,-0.16163534,-0.37863442,0.08251034,0.14458427,0.5053549,0.14471173,0.100845344,0.3690138,0.09686268,-0.049804926,-0.04730047,-0.19595955,0.32432523,-0.28635126,0.05376469,0.017735284,0.33953062,-0.0010778088,-0.3607507,-0.044827063,0.3070865,-0.33036825,-0.065251954,-0.3110705,-0.6145324,0.12021176,-0.029282678,-0.40873018,0.06814529,-0.10681242,-0.37616006,-0.38903254,-0.3749692,0.0699671,0.0015894872,0.081074476,-0.38997325,-0.14521384,-0.06250917,-0.1139101,-0.60884154,0.5351202,0.065076634,-0.051234454,-0.07014544,-0.2257309,0.147187,0.13956502,-0.16224569,0.3771727,0.034272976,-0.1881784,0.2543783,0.26290074,0.15029183,-0.39011657,-1.0195271,0.43015918,-0.018563112,-0.14574885,0.11556588,0.22284496,-0.18192363,-0.2279675,-0.14904788,-0.08670714,0.06591743,-0.35229114,0.10760854,0.09237963,0.2523787,-0.24467905,-0.1466991,-0.101521194,0.44786128,0.28618127,0.20440514,-0.2923857,0.058684886,0.028072795,-0.25578988,-0.2279157,-0.20737162,0.13386454,0.002196193,0.119990714,-0.010618406,-0.17126614,0.0825877,0.20027095,0.26994276,-0.41281074,-0.026219938,-0.21189325,-0.2716244,0.13908756,-0.24067207,0.1275555,0.1696058,-0.39477167,0.10079631,0.10308214,0.19751449,0.25088227,-0.416156,0.3228104,-0.29499575,-0.4760941,-0.105907224,0.20825437,0.052836858,0.0813023,-0.46317852,0.24054156,0.04129463,0.043709956,0.51535726,0.24749804,0.9352584,-0.6060641,-0.38160047,-0.19033921,-0.24756035,-0.49684185,-0.27113762,-0.17258419,-0.073058315,0.3183293,-0.4399635,0.14555955,0.27166167,-0.27040896,0.05348295,0.38788047,0.40497568,0.02770593,-0.2176175,0.06622634,-0.69298595,-0.069296345,0.17263721,0.08898103,0.7150516,-0.13863951,0.022478996,0.24073888,0.47006387,0.023067191,0.25842822,-0.1327039,0.35637817,-0.32317892,0.117650054,-0.11235263,-0.0584348,0.2868004,0.059016705,-0.09099551,0.35113397,-0.2659578,0.34618896,-0.3115379,-0.18175791,-0.038617287,-0.66268957,-0.24973167,-0.111885235,-0.19833311,-0.3220531
COc1ccc2ncnc(Nc3ccc(OCc4ccccc4)cc3)c2c1,-0.37535134,-0.05843744,-0.055257067,0.06515561,-0.12822004,-0.0064143813,-0.45146507,0.03622394,-0.15403569,0.3045856,0.21617225,0.34764168,-0.2588639,-0.08370599,-0.38691258,-0.08215427,0.009068219,0.26336986,-0.22893009,0.48447597,0.13814396,0.20296562,-0.18653072,-0.34799233,0.5925717,0.39378408,-0.20961341,0.054099552,0.13237311,0.04739213,0.13548927,0.40629792,-0.040393062,0.081687465,-0.10789655,-0.30511263,-0.2258088,0.09619503,-0.5166595,0.16573486,-0.28804335,0.12536438,0.34114286,0.03673661,-0.09013872,0.6493797,0.52691966,-0.17415398,0.13676527,-0.21755211,0.38398686,0.06537603,-0.026451783,0.23872882,-0.10400376,-0.3017031,-0.22382721,-0.20112336,0.006919276,-0.5149583,0.017523235,-0.07111602,-0.08084525,-0.018481743,-0.03705459,0.019157799,-0.056508332,-0.07964941,-0.38649356,0.2746221,-0.3091634,-0.098619126,0.10570723,0.10418489,0.4519179,1.5732533,-0.119750254,0.2565827,-0.10003521,-0.088457406,-0.2587709,-0.4899923,0.28033185,-0.038189564,-0.041937303,-0.10804202,0.019955445,0.05407126,0.34954655,-0.05971834,0.1177377,-0.13966727,0.026588483,-0.13686998,0.38431886,0.070246525,-0.061802898,0.5725496,-0.10657885,-0.15756032,-0.043273605,-0.5290276,0.5426009,0.2919747,0.36178482,-0.20793873,0.05441599,-0.23397423,0.28199655,-0.39518932,0.030775443,-0.47458205,0.21809031,0.117098786,-0.2469245,-0.2355412,0.20283341,0.11192533,0.33188024,0.005720808,0.35941282,0.055189945,-0.10256507,0.3116784,0.5773933,-0.29698026,-0.35699898,0.26949283,-0.020584824,0.35814014,0.13406993,-0.022197856,-0.09637351,0.024489867,0.12983634,-0.34667456,0.42515105,-0.10170719,-0.28717002,0.20626116,-0.49109012,0.76662755,-0.15079543,0.32771227,0.1713158,0.28011456,-0.13799623,-0.08870732,-0.091540955,0.054252677,0.19929434,0.22106005,0.08999919,-0.15794589,-0.030752527,0.27023736,-0.11195405,0.2867115,-0.08566835,0.08905064,-0.027248466,0.09956803,-0.051136006,-0.0844113,0.042087715,0.30944195,0.17052947,0.21612321,0.7250643,0.16900808,-0.032691035,0.012057488,-0.2200808,0.0070687993,0.16354354,0.6666616,0.18885593,-0.04473746,0.1291944,0.46156853,0.42372277,-0.010147868,0.014811034,0.32236433,0.30324802,0.2165522,0.33201584,0.10562949,0.46741122,-0.121507205,-0.12829371,-0.195034,-0.071421675,-0.029602148,0.20049712,-0.04878736,0.14665483,0.15667868,-0.21857472,-0.08880251,-0.18385729,0.08748526,0.21548119,-0.13288738,0.043944925,0.19193423,0.3412329,-0.19869877,-0.1787646,0.07092802,0.10920253,0.29423803,-0.0068829632,0.21675664,-0.38530082,0.059601862,-0.12857051,-0.06137092,-0.025262969,-0.10148694,0.16934212,0.16520873,-0.0040729153,-0.118503086,-0.038315475,0.3111274,0.009081328,0.122982636,0.18339032,0.44427958,-0.04285571,0.12865077,0.032259397,-0.34766042,-0.032881692,0.13881405,-0.19535626,-0.40142536,0.47258368,-0.21514232,0.08455061,0.0034053726,-0.19326943,-0.033365488,-0.30798674,0.24294968,-0.2137881,0.31360734,0.20122357,-0.13796334,-0.10219003,-0.101896495,0.016246675,-0.4011359,0.0030780223,0.109581366,0.24284297,-0.09471753,0.048061132,0.036189497,0.34693328,-0.3007654,-0.03251345,-0.23794301,-0.05410614,-0.1271287,-0.17149808,0.18056181,0.17898719,0.29633003,-0.22894572,-1.2511173,-0.19242477,-0.042434745,0.07646355,-0.24641952,0.61841714,-0.37198636,-0.38639218,-0.22728826,-0.083018124,0.046970848,-0.0319279,-0.439113,0.22334225,0.21906254,-0.39918467,0.10947145,0.033923443,0.31401756,0.27341995,0.2787523,0.09163081,0.15132475,0.090053625,0.019501744,-0.49638644,0.41938573,-0.2995988,0.09764215,-0.12994666,0.057724044,0.047956206,-0.26054415,0.19427069,0.2839297,0.3354952,-0.38262087,0.33701882,-0.82047606,0.35847077,-0.19695656,0.09955818,0.09860196,-0.13511296,0.064501956,-0.036618598,0.16414572,-0.20941806,0.22161068,-0.4579224,-0.3315659,-0.32737377,0.32665122,0.63768876,-0.18711083,-0.41290402,-0.14718996,0.23820509,-0.06481253,-0.16522147,0.061417967,-0.1417279,0.17125118,0.033002026,-0.22715126,0.27624142,-0.043205574,-0.32092807,-0.07450631,-0.124340445,-0.1937569,-0.13000605,-0.041402027,0.13605072,-0.2581309,-0.51191187,-0.0134177515,0.1865529,0.45128056,0.18642636,-0.51873934,-0.35920525,-0.23954077,-0.100301586,-0.13387206,0.41530278,-0.033792987,0.29929432,0.2284763,-0.3366393,0.32375827,0.36873156,0.30262882,-0.23039138,0.4054841,-0.5873158,-0.14446573,0.42394254,0.14272124,-0.021812484,-0.33406106,-0.026553916,-0.32483634,0.07731183,0.20270711,0.14215727,0.041740105,-0.11820626,-0.5502599,0.019422464,-0.27186063,0.18545794,-0.23380074
CCCN1CCC=C(c2ccc(Nc3nc(Nc4ccccc4C(N)=O)c4cc[nH]c4n3)c(C)c2)C1,-0.1519726,-0.041399505,0.17197162,-0.19694819,0.3892386,0.49812087,0.13901661,0.16499372,-0.24499473,0.08545103,0.15133354,-0.28119627,-0.32672933,0.5578208,0.061753888,0.14890142,-0.0690222,0.2908664,-0.22480178,-0.08349692,0.07059508,-0.50661486,-0.18429337,-0.16660193,-0.12182891,0.32436383,-0.3531571,-0.17072262,-0.056389336,0.058573958,-0.07105273,-0.4063264,0.35880962,-0.23742594,-0.12273483,-0.08537671,0.10259918,-0.06250048,-0.16538192,-0.08991383,0.15061404,-0.005060535,0.18468589,0.09348062,0.44033208,-0.51281035,-0.08875292,-0.09749895,-0.014432229,0.6828599,0.63639796,0.2687686,0.29841974,0.038832232,0.068687186,-0.21333739,0.044459168,0.5362402,0.19368608,-0.32763916,0.038074695,0.11239591,0.310915,-0.03429625,-0.06672197,-0.15793556,0.089666955,0.13569367,0.19749658,0.2870524,-0.20052809,0.2624945,-0.14483286,-0.40654784,0.29594988,1.8697065,0.21126574,-0.06763638,0.13910313,-0.20302154,0.13965729,-0.036082115,-0.2984451,-0.013336583,0.4052668,0.10704133,0.3380291,-0.24699326,0.33118594,-0.029733678,-0.23348004,-0.13075432,-0.053604946,-0.008974365,-0.09638198,-0.073229395,0.22507806,0.015005286,-0.058604963,-0.13521314,-0.17762607,0.49950302,0.058366764,0.062646605,0.031038674,0.043223787,0.19442661,-0.11496168,0.3128629,-0.25118157,-0.16235986,-0.27126202,0.2928824,0.23140854,0.18242037,0.12637463,0.051877838,0.21978895,0.19993265,-0.26735306,-0.55160385,0.25125736,0.13601977,-0.9365563,0.10792751,-0.18028522,-0.08724616,0.10765057,-0.17082117,0.1898983,0.097708285,-0.17182365,0.10103533,0.23144317,-0.12131357,0.2429223,-0.17474088,-0.11829905,-0.16699743,0.19968939,-0.20669188,0.09449301,0.085444696,-0.34836847,0.02087913,-0.54421884,0.15517215,-0.28003088,0.3048978,-0.085965194,-0.035515826,0.14883128,0.02923016,0.18451631,-0.18851583,0.13676284,-0.18769477,-0.016427785,0.1068202,0.1322668,0.16173385,0.32250822,0.01397321,-0.34047458,0.14665668,0.07572543,0.2212035,-0.6446445,-0.09366902,-0.24385244,-0.11377934,-0.012099543,-0.085291356,-0.0039175595,-0.094640434,0.38637948,-0.11046833,-0.17766328,0.024551004,-0.44618127,0.22470054,0.41080323,-0.19704507,-0.2832622,-0.25537848,-0.11354343,0.23302224,-0.34805647,0.36674917,0.0844804,-0.91625947,0.15517607,0.39309138,0.056718137,0.19402146,-0.21723756,-0.0004937987,0.08101744,0.2422514,0.19085571,0.3036995,0.099903576,0.01792337,0.26118731,-0.29629877,-0.053284183,-0.16677658,0.5108728,-0.089606375,0.47980225,-0.36569372,-0.6045379,-0.118286006,-0.047846727,-0.2409139,-0.05639122,-0.19557469,0.19628301,0.2297435,-0.2891143,-0.31792402,-0.21147856,0.5177426,0.43151847,-0.14140964,0.26630503,-0.12854788,-0.20429894,-0.08828137,-0.034549236,0.094474085,-0.223445,0.31166187,0.31258607,-0.096236944,-0.0696843,0.26506883,-0.18879098,-0.17601888,0.24903437,-0.19893833,0.004353014,0.41597652,0.2735552,-0.22894739,-0.05896144,-0.10604679,0.40968847,0.45269948,0.080574974,0.19936076,0.3034844,0.037275113,-0.26238024,-0.023303159,0.14324456,-0.14052764,0.27922174,-0.2493741,-0.30334648,0.02689239,-0.5104831,0.45949504,-0.40236783,0.23869632,-0.10120937,-0.48332813,0.009189758,0.11562002,0.27695125,-0.20003605,-1.1225677,0.8113079,0.25870416,0.06925482,-0.07546823,0.11756236,-0.13553506,0.087722965,0.2784083,0.32710645,-0.3355806,-0.06402179,0.5784216,0.19325948,-0.29256347,-0.34827653,0.04978066,-0.32878774,-0.027174996,-0.40607783,0.060444295,0.1398994,-0.13492909,0.11238105,-0.08860967,0.24103089,0.2703062,-0.014307179,0.19275467,-0.29895386,-0.51651824,0.5884777,0.08032641,-0.15858755,0.06892741,0.012992004,-0.05926877,-0.16056451,0.046391256,-0.14089505,0.09577677,0.34904918,0.37528312,-0.25193354,0.14887312,-0.04540935,-0.24820732,0.033918794,-0.2623553,0.061259378,-0.1958215,-0.28806874,-0.27574658,0.4136159,0.10777278,0.083375275,-0.25185168,-0.32885054,0.17086816,0.3490137,-0.09987512,-0.19288513,-0.2649572,-0.16272701,0.014461662,-0.075907566,-0.17055868,-0.03422793,-0.19423169,0.17840767,-0.10484373,-0.17993239,-0.38288257,0.31052727,0.18748215,0.12695439,0.00023738554,-0.24199267,0.052109018,-0.08471163,0.20437378,-0.37721556,0.4782943,-0.1869053,0.06929891,0.07908616,0.23685445,0.0132740345,0.23616914,0.40745494,0.12903638,0.22878009,-0.07417291,-0.2822667,0.2818732,0.017828006,0.3428058,0.064396456,-0.0971677,-0.016742302,0.3061042,0.1971528,-0.092687935,0.0155211035,-0.17936595,0.06799466,0.41091654,-0.21031933,-0.23765652,-0.07169744,-0.04262837,-0.12533492,0.46670255
COc1ccc(-c2nn3ncccc3c2-c2ccnc(Nc3ccc(F)c(F)c3)n2)cc1,-0.33022887,-0.13691309,-0.05903464,0.17626615,0.21063167,-0.1103655,-0.26238638,0.09491873,-0.1187499,0.38684022,0.44565365,0.3765749,-0.16752462,0.00044975785,-0.044670742,-0.1468753,0.030190848,0.21042775,-0.25290585,0.6041598,0.13581532,0.026179934,-0.14135467,-0.23889206,0.3717798,0.14107761,-0.3256479,0.20725134,0.06838496,0.0047410186,0.028242426,0.44280848,0.0029218793,0.04777656,-0.09008942,-0.40571883,-0.00825512,-0.07933232,-0.369217,0.31927785,-0.16916783,0.24867602,0.3570807,-0.047758557,-0.19311686,0.38672447,0.5524867,-0.30391705,0.29441348,-0.18471919,0.40237087,0.085107855,-0.1416145,0.18354425,-0.15185165,-0.09390126,-0.22458217,-0.36151507,-0.030971618,-0.43717015,-0.13528004,-0.12778173,-0.007733966,-0.14120407,0.005359334,0.10649903,-0.35558057,-0.020966424,0.07390997,0.19713016,-0.15077686,0.19240518,0.10045047,0.043971416,0.44411308,1.7800345,-0.111608125,0.28286827,0.28969872,-0.097214974,-0.20490159,-0.5583484,-0.09045185,-0.047403403,-0.11541384,0.13452946,0.2733552,-0.071793586,0.325164,-0.22443794,0.2100559,-0.20223366,-0.1051978,-0.097838,0.21727218,0.29167092,0.045870803,0.49416712,-0.118466355,-0.22490123,-0.31597948,-0.62986267,0.6650997,-0.06204637,0.07484824,-0.054029886,0.10218038,-0.4462608,0.2943967,-0.47488925,0.05643262,-0.26660284,0.26168984,0.14849252,-0.27369246,-0.16138265,0.08618045,0.08882966,0.21299225,-0.047235485,0.42626688,0.21850602,-0.09980538,0.33987322,0.33097178,-0.27459353,-0.24817874,0.37386224,-0.054830234,0.66752756,0.20213504,0.049236108,-0.025589751,-0.04693842,-0.13325651,-0.2571895,0.37050903,0.12916112,-0.1153837,0.16127925,-0.52261907,0.7481364,-0.15584376,0.058804996,0.3630288,0.21014771,-0.3083837,0.05768991,-0.044298276,0.17278667,0.29083103,0.28878465,0.2590988,-0.22301233,-0.17447652,0.14068373,-0.27986577,0.331232,-0.117646046,0.13253438,0.03494782,0.1498749,0.015900603,-0.065456726,0.021336501,-0.017786765,0.1742774,0.15275891,0.5552186,0.06749195,-0.16734028,-0.14667422,-0.40990525,0.057300694,-0.16526045,0.60258305,0.4395359,0.03934993,0.15185563,0.34335423,0.27435347,0.27084923,0.3166015,0.3604878,0.13393198,0.31317386,0.22319086,0.1118213,0.55163175,0.10478201,-0.21900658,-0.16162543,-0.072908,0.028712435,0.20026244,-0.32081106,0.05278981,-0.03535538,-0.3760028,0.047302593,-0.123258874,-0.052661087,0.43211663,-0.07952456,0.2573148,-0.17128341,0.31498343,-0.061567053,-0.33337432,0.20665719,0.27183104,0.18391378,0.1516724,0.24534231,-0.49194643,-0.13984397,-0.098146,0.039481718,0.031524997,-0.078087755,0.29335365,0.20926395,0.23953235,0.029756773,-0.12641793,0.22907746,-0.16432025,0.22941582,0.2186139,0.35797107,-0.048699867,-0.027209483,-0.30056006,-0.51127756,-0.026829071,0.24376354,-0.19726974,-0.5265374,0.67050123,-0.14287034,-0.17193373,-0.03973975,-0.2552246,-0.052388422,-0.1822517,0.1475926,-0.34001216,0.12630437,0.24396531,-0.11196049,-0.26518863,-0.31921992,-0.16777493,-0.4493423,-0.060310964,-0.0010667605,0.10857853,-0.020462882,-0.06270196,0.074915715,0.23802565,-0.35672843,-0.22748402,-0.24436082,0.028994154,0.053927075,-0.166039,0.25062189,0.25154874,0.17250323,-0.0636477,-1.1954927,-0.013360825,-0.27769333,0.18352525,-0.31767964,0.37687886,-0.36279616,-0.56901556,-0.27043045,0.062946856,0.09020805,-0.0643097,-0.15155624,0.17174773,0.20205405,-0.38160956,0.09352064,-0.17793451,0.37755987,0.26690507,0.32623497,-0.12589797,0.01636982,0.014093233,0.074523486,-0.5713296,0.37308764,-0.2893502,0.17216933,-0.15536991,0.00047355224,0.1294406,-0.07105904,0.12189062,0.103780866,0.21339844,-0.19906923,0.21249533,-0.541496,0.4270901,-0.08588569,0.020811774,0.076843165,-0.36212963,0.03903168,0.119903654,0.30583194,-0.44564426,0.020221876,-0.21895304,-0.3100842,-0.3969682,-0.049412977,0.620091,0.056975674,-0.17126417,-0.19455667,-0.016235167,0.08219344,-0.10517337,0.14607303,-0.05261292,0.4121867,-0.078401566,-0.15282515,0.29663083,-0.22993086,-0.389298,-0.19577008,-0.27437177,-0.12733714,-0.058534753,-0.1542455,0.23417245,-0.20895042,-0.36633343,-0.10920008,0.16876718,0.39225578,0.30293187,-0.30470544,-0.40812635,-0.25050324,-0.3206708,0.20321813,0.34585372,0.19615409,0.25777948,0.15665232,-0.2172128,0.31915495,0.3916772,0.116865814,-0.15419875,0.52951366,-0.32708147,-0.21498302,0.4443344,0.05311371,0.0034194733,-0.11281705,0.09514684,-0.060955368,-0.11083581,0.0912849,-0.10414654,-0.01392808,0.049202845,-0.5298667,0.11390261,-0.23836933,0.14972773,0.09271908
CCOc1nccc2c1nc(-c1nonc1N)n2CC,0.051741153,-0.15799232,0.10858942,-0.13412777,0.17034233,-0.3567465,-0.261434,0.15208086,0.0809126,0.015017809,0.009659314,0.16762519,-0.32623073,0.07455626,0.4167104,0.037084468,0.27262753,-0.070748374,-0.3962441,-0.240858,-0.1489804,-0.36863595,0.114431314,-0.08095465,0.089161344,0.68006337,-0.22569746,0.080270685,0.030359572,0.10602971,0.35938922,-0.086830586,0.13038042,0.28149664,0.11308859,0.06557199,6.5077904e-05,-0.1354416,0.08004247,0.18626651,-0.28336716,0.19030185,0.062811986,-0.1549215,0.0044699265,-0.08069642,0.256175,0.024088193,-0.110508054,-0.018801814,-0.3189641,0.3142583,-0.066617794,-0.121580444,-0.5861048,0.11626723,0.10377183,0.0675389,0.077804215,0.3814555,-0.28080076,-0.1773764,-0.2569437,-0.14072146,-0.1917203,-0.23908861,0.29247177,-0.08548882,-0.1697908,0.20649251,-0.012779517,0.13239431,-0.20298856,-0.281169,-0.01569212,1.9081229,0.5090074,0.46201044,0.01613244,0.062167823,-0.1208998,0.011819952,0.40390158,-0.28779706,0.10440615,0.5430179,0.13994412,0.32548818,0.055985566,0.004053252,-0.038431704,-0.27921557,-0.05336837,0.9106615,-0.30125612,-0.5157236,0.39762324,0.9755471,0.1759605,-0.37156045,0.04563703,0.5409462,0.06345181,0.18695265,0.0995335,-0.3970937,-0.3764663,-0.053412374,-0.14959043,-0.46211404,-0.19385432,-0.27575418,0.031540565,0.29739782,0.3534354,0.27201888,-0.09267695,0.0074531296,0.08348048,0.100595914,-0.1508247,0.37135512,0.126792,0.40983382,0.23427494,0.15443541,0.056004435,-0.1744315,-0.035485495,0.18006046,-0.17374673,-0.06512785,-0.2797295,-0.18217818,0.17320669,0.032506723,-0.06404938,0.40886623,-0.1518354,0.4289679,-0.6041895,0.10448015,-0.19669981,-0.06991244,0.05845616,-0.5616608,0.53354615,-0.31346273,-0.04160402,0.08041375,0.10994854,-0.0077941515,0.071636565,0.034084145,0.01270103,-0.28152972,0.11671517,0.5279181,-0.15058845,0.007904006,-0.10950685,0.53984165,-0.14793909,0.19763911,0.10508105,0.08479641,0.58453447,0.038919985,-0.9191923,0.25975737,-0.2429952,-0.0243584,-0.2703622,-0.32000217,-0.15037622,0.17315018,0.0672157,0.17119886,-0.02233388,-0.08578959,-0.044274073,-0.29706082,0.110722646,0.46604502,-0.17307149,0.45639405,0.135118,0.061530154,-0.42315635,-0.1679917,-0.39148155,-0.4931553,-0.5018033,-0.38042027,0.11395949,-0.074728034,0.0010550456,-0.20442203,0.23063038,0.11754478,-0.27129486,0.19155215,0.5323364,-0.08014438,-0.19651517,0.033509348,0.20834526,0.30569062,0.10196124,0.27427584,-0.14953078,-0.13269012,-0.06382442,0.0054932283,-0.09973785,-0.015428161,0.25989005,-0.0838838,-0.1532973,-0.13644657,-0.45499015,0.1439543,-0.010993077,0.26646706,0.58002144,0.18586908,0.27393386,-0.5074481,-0.1515023,0.42166346,0.018720305,-0.16173917,-0.41290304,-0.00094091275,0.11789195,0.1735494,0.64879334,-0.41254014,0.036905248,-0.08067442,-0.14537309,-0.07446546,-0.11196918,0.2841403,0.42876068,-0.04575297,0.15838423,0.2670201,-0.02244645,-0.17245084,0.24378972,0.0009289481,0.24947982,-0.51623464,-0.3473574,0.14992681,0.23761617,-0.18299823,0.1120265,0.39269838,-0.28862116,0.13542122,0.0678998,-0.13379566,0.25579664,0.008693564,0.49914256,-0.0019372525,-0.14897697,-0.064101666,0.36055112,-1.313946,0.18048419,0.23311108,-0.34530926,0.22137718,-0.08870908,-0.035992768,0.034863006,-0.19120382,-0.017623832,-0.23916708,-0.24389312,-0.3302472,-0.07786337,0.020746835,-0.8466652,0.10228718,0.17510557,-0.21552524,-0.12280376,-0.32158926,-0.081290014,0.16690816,0.49033374,0.07116063,0.24547002,0.042777378,-0.12806615,0.062885724,-0.15919086,-0.06148726,0.28349438,0.35765797,0.28176728,0.04958147,0.22698687,-0.08505321,-0.17578235,-0.18627714,0.110893205,-0.21373403,-0.20812938,0.35689852,-0.41749534,0.11187902,-0.036297616,0.13522509,-0.22757068,-0.3556649,-0.27482772,-0.24459998,0.5157909,-0.049828783,-0.18272226,0.2938095,-0.29792193,0.0734065,-0.23593812,-0.33141923,0.41588697,0.31049037,-0.07840235,0.252556,-0.3039933,0.010811575,-0.14275849,-0.28974512,0.36936662,-0.20048021,0.24234647,-0.23371318,0.33598536,-0.1071682,0.09955918,-0.1746007,-0.30388892,-0.15941958,0.1928288,0.14500302,-0.012110133,0.24011052,0.29569834,-0.29242197,0.33292365,0.1880633,0.017289337,0.115402475,-0.025746383,0.16475052,-0.20312998,0.17824551,-0.14289157,0.14941204,-0.32261238,0.34860456,-0.03739382,-0.0037733656,0.22663456,0.22815765,0.023339482,-0.16643895,0.0910718,-0.13483658,-0.010687631,0.15178427,0.17334816,-0.17122257,0.25326535,0.31336576,-0.046537567,0.071460366,-0.050459895,0.11435701
COc1cc(N2CCN(C(C)C)CC2)ccc1Nc1nc(Nc2cccc(F)c2C(=O)O)c2cc[nH]c2n1,-0.30608866,-0.056145485,-0.15324426,0.04528999,0.13087812,0.036567904,-0.23899612,0.123058386,0.10248991,0.2808967,0.50865614,0.31681016,-0.31531635,0.25417474,-0.038820025,-0.07595993,-0.09421887,0.26753202,-0.1598955,0.6425069,0.08308092,0.13296992,-0.10004913,-0.3030724,0.4483498,0.25386888,-0.16143133,0.095588066,-0.10156688,0.039581627,0.12373523,0.40005714,-0.12500739,0.2754165,-0.24155307,-0.33597788,-0.048357483,-0.034531444,-0.4615483,0.044394795,-0.026156753,-0.09280001,0.4395545,-0.005390575,0.04378408,0.32274184,0.13817765,0.07460967,0.16488244,-0.12992965,0.32521778,-0.18895544,-0.38061315,0.15528885,0.03881216,-0.19562523,-0.33987567,-0.7237863,0.24741995,-0.3224092,-0.08744529,-0.31302595,-0.19030508,-0.22952886,-0.062415622,0.01089838,-0.007993804,-0.12520908,-0.15877724,0.2903731,-0.2450005,0.12438045,-0.07346581,0.28882146,0.44239366,1.7389104,0.16646567,0.5680739,-0.13886833,0.06859035,-0.0905148,-0.53835905,0.21040837,-0.13972445,-0.078561924,-0.114939116,0.04641758,-0.1812479,0.434132,-0.06366049,0.22660795,-0.23209578,-0.17852984,-0.11705367,0.25505233,-0.058997143,0.008844593,0.34926444,0.19980021,-0.15339461,0.042707283,-0.23284775,0.89167476,0.01863165,0.2301226,0.14944875,0.022725483,-0.06499907,0.15932572,-0.2900463,0.16497959,-0.42735544,0.25526473,0.24449456,-0.16161992,-0.37204564,0.16439833,0.2607244,0.44234934,-0.21811467,0.3775446,0.22442129,-0.30050582,0.3539985,0.63102525,-0.027268613,-0.29633474,0.24588072,0.022667281,0.5329905,0.35541153,-0.08303662,-0.38410866,0.047438554,0.25424036,-0.23714095,0.43394774,0.24150786,-0.124214105,0.2932719,-0.4196367,0.55726224,-0.40414688,0.21413979,0.48454413,0.1686389,-0.052634705,-0.13953485,-0.21267441,0.13683307,-0.049862687,0.047529202,0.2581254,-0.06760971,-0.19337672,0.12762026,-0.24332263,0.33834228,-0.27507475,-0.08111189,-0.020394644,0.05957606,0.026877983,-0.23967114,-0.058613017,0.12143834,0.157437,0.0041682487,0.7145251,0.1506101,0.037412725,0.23948374,-0.2996004,0.04741475,-0.083382726,0.56183726,0.2737782,0.004880018,0.19454595,0.27131554,0.22189793,-0.06545946,0.03484577,0.1253758,0.2638153,0.002391235,0.3328162,0.13962445,0.32800722,-0.009012182,-0.29194072,-0.25315195,-0.20135151,0.12874152,0.07931091,-0.08273275,0.13634616,0.19995062,-0.35533243,0.06854489,-0.01760186,0.0016101866,0.17029205,-0.0783953,-0.12910648,-0.003922841,0.25229543,-0.09170412,-0.05372028,-0.028873827,0.0415103,-0.009642822,-0.10567623,0.32573253,-0.13196386,0.06643302,-0.2957146,-0.059023645,-0.029749563,-0.2637387,0.31973892,0.03124431,0.0032288684,0.11415783,-0.30165923,0.2952163,-0.07187313,0.14479272,0.0637347,0.44512376,-0.06905117,0.006283708,-0.04382551,-0.52832586,-0.10046672,0.013475842,-0.23018323,-0.009080939,0.38802302,0.030910682,0.08334729,-0.14053558,0.097184025,-0.20696302,-0.19508287,0.14540647,-0.18721776,-0.026201045,0.51437414,0.050457936,-0.03330484,-0.32471913,0.066270486,-0.2355747,-0.062495686,0.4855799,0.0012608313,-0.0019310627,0.03993772,0.051303007,0.11206997,-0.16573535,0.21302772,0.11658279,-0.071451716,-0.28884363,-0.17229584,0.11777667,0.20358299,0.13353294,-0.4740992,-1.4260079,0.021392483,-0.113352336,-0.11880594,-0.16480406,0.5119276,0.00084602955,-0.16034108,-0.19497521,-0.057803802,0.028650574,-0.20040089,-0.6344852,0.03229718,0.41095793,-0.49644572,0.015283999,-0.2657418,0.5071085,0.2438398,0.2060245,-0.11695815,-0.07351123,0.023475522,0.0078054406,-0.529064,0.30650175,-0.1236197,0.13739474,-0.04224775,0.11282837,0.4077345,-0.21457346,-0.093441345,0.14589019,0.4360363,0.030398844,0.29937848,-0.594582,0.3641273,-0.04241869,0.027719919,0.050347924,-0.12707676,-0.07063985,-0.013990661,0.045202084,-0.29374123,0.11888207,-0.30949178,-0.41512436,-0.41927308,0.23242947,0.72805065,-0.19094041,-0.35869217,-0.24851005,0.121747635,0.040170472,0.03069646,0.0070967963,-0.012587508,0.32297096,-0.036484793,0.029464364,0.20311344,0.14125276,-0.140064,-0.16859041,-0.14361793,-0.055044442,-0.040262453,0.039158393,0.09513431,-0.106744766,-0.32285386,-0.19550197,0.041376326,0.19253677,0.19334738,-0.16742341,-0.5171441,0.032924224,-0.09239239,0.03465288,0.39313892,-0.17838538,0.23177662,0.059125654,-0.15419836,0.46717474,0.1144001,-0.06076216,-0.08833878,0.31245646,-0.40450388,-0.24004093,0.39775687,0.016657045,0.2670243,-0.19216351,0.21874589,-0.251979,-0.50582516,0.511946,-0.16963464,-0.061849654,-0.010042097,-0.69207656,-0.14022703,0.09879548,0.15478928,-0.37206465
NC(=O)c1cccc(Nc2nccc(Nc3cccc4[nH]ncc34)n2)c1,0.22747013,-0.26417246,0.42814848,0.13996105,0.21128021,-0.05672943,0.19539095,0.59638166,0.3019467,0.1739399,-0.30095792,-0.16202343,0.13156864,-0.103698835,-0.10839424,-0.27804458,-0.3161238,0.06663557,-0.097365916,0.07063364,0.15179165,0.039352056,0.06649534,-0.03132875,0.7038331,-0.019484686,-0.1214358,-0.077019595,-0.3270667,0.124942504,-0.19134635,0.15277177,-0.108386606,0.11897607,-0.19693634,-0.23367538,0.088868,0.036237806,-0.23257382,0.1942972,-0.00808316,-0.13247228,0.46313792,0.031613953,-0.0995477,-0.09992128,0.50388634,0.37829718,0.022387393,-0.5983611,0.044668697,0.11606583,0.094921485,-0.29615495,0.42314538,0.5557875,0.055778146,-0.029255766,0.029085027,-0.13400511,-0.20521267,-0.24741203,0.16537832,0.12943901,-0.26124823,0.30095017,-0.3697627,-0.8228567,0.34317973,-0.4658199,0.17748207,0.06393474,0.07179767,0.2954511,-0.11962168,1.4066856,0.009173986,0.105844654,-0.04792844,-0.13641125,-0.08475037,0.10902076,-0.41410083,-0.24044012,-0.0021667317,-0.026203463,-0.10726737,-0.7973589,0.42251235,0.042895816,0.47132835,0.1610389,-0.09294094,0.66347146,-0.48064303,0.22028497,0.12271213,0.13723499,0.073904276,-0.21092017,0.016603382,-0.1314444,0.47413817,0.012704705,-0.11840011,-0.059305705,-0.13353631,-0.5341085,0.021541258,-0.2728868,0.10397027,0.03536912,0.027874708,0.479755,-0.16412546,-0.21349575,0.40870953,0.3704899,-0.014528394,0.1328631,-0.3315803,-0.5206729,0.040531017,0.25339845,-0.044564705,0.11237623,0.39057106,-0.4968134,0.2698442,0.1318471,0.144174,-0.27495635,0.1397327,0.020264935,0.31900728,-0.002468336,0.39350197,0.28511685,0.41215768,-0.120360896,-0.5424461,-0.21890356,-0.29438138,0.11180909,-0.37909392,-1.1227472,-0.14093608,0.3542824,-0.06994096,0.35524365,0.15300201,-0.22037521,-0.01604842,0.1346381,-0.22600973,-0.10895499,-0.209275,0.016472943,0.053524643,-0.0783784,0.15056904,0.24466148,-0.044272352,0.3493221,-0.15691352,-0.13133188,-0.02078252,-0.49808028,-0.57733107,0.39763445,-0.023566961,0.024093833,0.076214105,-0.094616786,0.22306894,0.1389073,0.35490108,0.042148765,-0.13091533,0.102104194,-0.054885432,0.45629707,-0.08198225,-0.12309673,0.058511272,0.11462471,-0.03839689,0.20277631,-0.008873012,-0.06363982,0.21699001,0.36698484,0.25174752,0.060509935,-0.22518994,0.06214683,0.09419762,0.06344376,0.5326642,0.3010223,0.36530584,-0.05849615,0.14058743,-0.121382356,0.015952718,-0.05230808,-0.83145666,0.23159713,-0.6477503,0.17966029,-0.54694176,-0.28059426,0.0490711,-0.34685898,-0.21329843,0.067783035,-0.5744118,-0.0553246,0.07531362,0.210113,-0.07330564,0.20948952,0.42527404,0.43626416,-0.18880351,0.33963042,-0.10875348,0.019569658,-0.10939054,0.125645,0.22608599,0.22663005,0.12348137,-0.041237287,-0.012920106,-0.1977874,-0.30407724,0.11395025,0.5911579,-0.0491949,-0.04711597,-0.5822417,-0.029730225,0.2507536,-0.20728736,-0.5625023,-0.36796126,0.011173308,0.029846564,-0.47294858,-0.012915193,-0.17101046,0.21588448,-0.05022713,-0.04860353,0.010816659,0.35317934,0.29160237,-0.17666596,-0.25794062,0.5516013,0.02204101,0.3116116,-0.046569124,0.3381352,0.09060026,0.08134959,0.10269409,-0.021619054,0.37005776,0.10319962,-0.966316,0.21791714,-0.075920545,0.24505414,-0.61128896,0.00980606,0.0062338877,-0.14498174,-0.081206396,-0.062090285,0.20661733,0.0049544186,-0.16982442,-0.14149778,0.00335782,-0.53433263,0.06214221,0.1560942,-0.07222407,-0.03609248,0.2402482,0.1501946,0.17587651,0.11636472,0.15947245,-0.50564206,0.3874542,-0.07949355,-0.038693734,-0.33822194,-0.11231015,0.33535758,0.21788496,-0.15676957,0.26839158,-0.20876804,-0.035898633,0.23906885,0.020616338,-0.0013340218,-0.37805733,0.17248936,0.32931143,-0.16681175,0.2468379,-0.042369384,0.17713523,-0.4975895,-0.08316319,-0.013180683,0.16479594,-0.33613655,-0.33681947,0.15489945,-0.23359933,-0.21144342,-0.12792939,-0.018134668,0.36690485,-0.2000734,0.08606942,0.33295056,0.3349561,0.25458676,-0.14851576,0.08500716,-0.16618009,0.14525475,-0.24433386,0.14176272,0.058003165,-0.021249272,0.13849916,0.26721466,0.18928345,0.3560732,0.32342997,0.17337391,-0.2268568,0.05543085,-0.35991198,-0.4352251,-0.12066076,-0.21286745,0.044503663,-0.11937001,0.055515215,0.13344976,0.0032803582,0.2772254,-0.008817271,-0.06453276,-0.4469723,-0.18719298,0.30649155,-0.2991328,0.0125927795,-0.024383167,0.7176211,0.3632176,0.12712677,-0.023830839,0.08845803,-0.56269115,0.46065655,0.15120493,-0.5641911,0.19560833,0.20298553,0.2788433,0.069417454,0.26455334,-0.112612806
COC(=O)c1sc(-n2cnc3cc(OC)c(OC)cc32)cc1OCc1ccccc1C(F)(F)F,-0.21242169,0.5760755,0.089936875,0.018345151,0.1282349,-0.43422472,0.15546803,0.36411452,-0.3519563,-0.3229836,0.518451,0.15667307,0.39237994,0.3071382,0.07659761,0.17681359,0.016070092,0.30240825,-0.16820078,0.15119879,-0.10969971,-0.34855932,-0.14598194,-0.17881696,0.030527227,0.31724438,-0.20577961,0.06530178,-0.056996312,0.428255,-0.09168112,-0.074779876,0.04999215,0.1351514,-0.04631209,-0.1860529,0.014701924,0.20025818,-0.22326148,0.50524026,-0.3793437,0.080326885,0.31547615,-0.5768813,0.066508904,-0.09314503,0.18240014,-0.21903642,-0.034371376,0.35609183,0.012929079,0.23563352,-0.080366746,0.43327966,-0.20119199,0.062958196,-0.6148569,-0.57841957,0.005921866,-0.036992855,-0.07689622,-0.16335955,0.36371508,-0.5375079,0.07753785,0.15911978,-0.10188956,0.05344281,0.24545449,0.089456685,-0.34595767,-0.072415516,0.60383236,-0.23499678,0.062334076,1.822283,0.14086224,0.77815557,0.6561521,0.0120397955,-0.23576376,0.05852189,-0.23942101,-0.072184175,-0.19777411,0.18436271,0.11331429,-0.15038224,0.30339772,-0.02900493,-0.20558816,-0.14699163,-0.017646667,0.18342285,0.19575937,-0.19460891,0.28261602,0.3346409,-0.046510022,0.17574593,0.0008416151,-0.16332133,0.124059886,-0.30751184,0.20139459,0.05576541,-0.014831276,-0.12493937,0.114032954,-0.061544534,-0.27292454,-0.61611265,0.6523444,0.05235947,0.07971785,0.25907883,-0.17552082,-0.17466743,0.20026122,0.0048477706,0.44390187,0.3316329,-0.32764804,0.18431206,0.24172078,-0.27378395,-0.0015815363,0.23674597,-0.03643518,0.0027061459,0.09623668,-0.15055032,0.136698,-0.05905494,-0.0394971,-0.4622337,-0.0521437,0.15341187,0.42024595,0.18984666,-0.16280901,-0.03512519,0.05083123,-0.11823323,0.004843149,0.53236324,0.36016354,-0.2420878,0.09690783,0.010512973,0.026760258,0.22015096,-0.0712144,-0.24569155,0.009480179,0.39651784,-0.102192126,0.32953298,0.46490243,0.36550602,0.3133639,-0.08284564,-0.107603155,0.1560131,0.10815992,-0.099393874,0.24301921,-0.25709656,0.376775,-0.14978647,-0.23911117,0.095021315,-0.48352566,-0.26346835,0.08192008,0.14479497,0.108203,-0.26419666,-0.02532048,0.13610879,-0.087190785,0.10380389,-0.16190194,0.31039348,0.31637478,-0.015648797,0.03876026,-0.008442909,0.17256036,0.2228749,-0.17337798,0.026262073,0.030181583,0.10159193,0.31196603,-0.30570528,-0.23010026,-0.04741737,0.05294881,0.06918749,0.042470243,0.06909292,0.06098919,-0.5107987,0.10127684,-0.05924752,0.35176817,0.06940018,-0.0038481543,0.020724602,0.20871028,-0.05609591,0.26897052,0.14207591,-0.080849275,-0.112890564,-0.18004909,0.16200031,0.22253244,-0.36770445,-0.03760241,0.16220818,0.29765484,-0.5178594,-0.34649423,0.13062738,0.09206561,-0.080569275,0.48963848,0.30368924,-0.1339256,-0.13788082,0.10817944,0.005613441,0.15554607,-0.025896372,0.31734574,-0.02989864,0.54576993,0.3939116,-0.23032217,0.23509645,0.06608531,-0.13430513,0.22230288,-0.13895722,-0.22381179,0.37777096,0.21772087,-0.060989905,-0.0003957154,-0.14570831,-0.26453853,0.07465956,0.011719469,0.070086256,0.14754333,-0.15388086,0.21557043,-0.3887552,0.34357214,-0.33386478,-0.030727895,-0.63310343,-0.024448602,0.07528611,-0.2568485,0.06869976,0.10851877,-0.20312046,-0.20347042,-1.0622867,0.32382137,-0.41528586,-0.08113928,-0.1604938,0.27407852,0.03196945,0.06681657,-0.1917575,-0.052471828,0.031679206,0.18933918,-0.1745408,0.13889322,-0.10988379,-0.0022610128,0.009299858,-0.8587472,-0.26749012,0.0160671,0.4916799,0.036220703,0.12599976,-0.043828543,-0.09852493,-0.62512445,0.45330116,-0.033662014,-0.009327456,0.06859489,-0.19210315,0.57166415,0.27338433,0.03231785,-0.051681675,-0.0971526,-0.08942064,0.08150021,-0.13048545,0.11170262,0.11197128,0.018069819,0.19696812,-0.1001666,-0.07881893,-0.104879916,-0.073943,-0.46734223,0.028516479,0.046186447,0.0672639,-0.20822501,-0.132922,0.6517746,0.37052703,-0.22497426,0.11155778,-0.23689008,-0.093642764,-0.15159488,0.29019457,-0.034608744,-0.013704698,-0.10549089,-0.034190845,-0.55580443,-0.2599569,-0.0697125,-0.5344129,0.24373984,0.018773403,0.27317992,-0.08007572,0.45473352,0.046545792,0.09244497,-0.05152193,-0.1088391,0.40346652,-0.20710033,0.13717116,-0.33027273,0.08789562,-0.21231657,0.15993817,0.17747745,-0.044723496,0.07993333,0.30458045,-0.53434265,0.17960642,0.20240466,-0.1813258,-0.27645007,-0.028708862,-0.20714214,-0.3380525,0.38627186,0.38713238,-0.012891322,-0.02153831,-0.11602812,-0.036528956,-0.2280202,-0.25743195,-0.28963715,0.475095,-0.09745701,-0.78846216,0.52766114,-0.15629725,0.23634893,-0.0022042505
[O-][S+]1CCN(Cc2ccc(-c3ccc4ncnc(Nc5ccc(OCc6ccccc6)c(Cl)c5)c4c3)o2)CC1,0.2880886,0.44152954,0.3335616,-0.04279087,0.3668204,-0.4870233,-0.19617893,0.038156904,0.21310066,0.045794044,-0.3343492,0.62766045,0.40413275,-0.69627094,-0.34661293,-0.08702523,0.039418276,0.1730978,-0.41153228,-0.04890256,0.24280874,0.25790647,0.034580037,0.34342355,-0.1832736,0.031207737,-0.31240764,-0.010954203,0.06050465,0.3296318,-0.23547202,0.17488776,-0.267004,0.30101287,-0.12663837,-0.24231301,0.13254297,-0.0367929,0.07138451,0.41784844,0.038863257,-0.07163994,0.37265202,-0.18776914,-0.14434099,-0.2511039,0.018807834,0.036083482,-0.070953265,-0.45489287,0.031964585,0.5692833,0.030196976,0.22464077,0.1720604,0.4412836,-0.13877948,-0.11244922,-0.1539698,-0.14511107,0.16078699,0.06665374,0.24128026,0.29491872,-0.05661395,0.20886245,-0.45004424,-0.33689874,0.15352811,-0.32283399,-0.12775464,0.20537716,0.24227066,-0.25799242,-0.0015895034,1.057155,0.17253157,-0.09089666,-0.12695959,-0.01364629,0.16548549,-0.21867941,-0.4527134,0.079844244,0.015575317,0.105490215,-0.3987491,-0.21015978,-0.20352226,0.27130273,0.5508003,-0.1200798,0.35497525,0.07453305,0.11815992,-0.2488789,0.13783747,0.18914597,0.08671412,0.3132157,0.036340278,0.19583908,0.42870116,-0.24397834,0.045681253,0.005912837,0.19868053,-0.16854607,0.11918467,0.47510242,-0.19432628,-0.087861605,0.30532557,-0.059331942,0.22209032,0.31594536,0.30493686,0.047096144,-0.045673776,-0.2196415,-0.23606873,-0.5843694,-0.044080168,0.067954324,-0.32544354,-0.0069992663,-0.33718902,-0.18272354,0.24252069,0.17682086,0.74326926,-0.33409807,-0.07615706,-0.17386581,-0.29316905,-0.14302972,-0.038491234,0.4717611,0.11114142,-0.1190355,-0.09741945,-0.17961359,-0.20284474,0.026336065,-0.15970042,-0.7400462,-0.25172132,0.19101536,-0.21311685,0.026859537,0.47022462,0.021174265,-0.04338946,-0.0963009,-0.19590724,0.22309846,-0.4380262,-0.12955159,0.14418928,-0.28085923,0.35832182,-0.031237382,0.2171513,0.3079576,0.06327308,0.23162585,-0.00053107535,0.18613978,0.57865494,0.035288136,-0.48207974,-0.26509884,-0.21050978,-0.34744745,0.113806784,-0.15069692,0.21936136,-0.19986685,-0.05460524,-0.17722005,0.09549908,0.46079877,0.12162013,-0.15465249,0.43095383,-0.3929978,-0.35449934,0.25640246,0.34515807,0.14351748,-0.031964015,-0.45118532,-0.06311152,0.24312,-0.37761816,-0.03578562,-0.005625638,0.17807429,-0.049035296,-0.27411258,0.12696378,-0.19298464,0.5061492,0.33578017,0.26947206,0.10490288,-0.21552403,-0.25585344,0.10194936,0.020853639,-0.6471088,-0.25045693,0.13025245,-0.09622217,-0.08767061,-0.07767471,0.071832106,0.050602727,-0.31005388,-0.19319145,-0.18481238,0.006903421,0.4097752,0.18321253,-0.14185546,0.011000319,0.029178651,-0.092735484,-0.12107659,0.29681382,-0.0015737374,-0.26012582,0.021925649,0.38068822,0.2291976,-0.14503841,0.2073829,0.13674597,0.35677606,0.081622325,0.074561596,0.10336936,-0.1633752,0.0719273,-0.17207347,0.04462335,-0.100030415,0.34129056,0.07045533,0.027277973,0.025305906,0.09971194,-0.019177984,0.06453896,-0.6018225,0.09760179,-0.21975084,0.05060326,0.31456462,0.30721995,0.27167696,-0.2081259,0.27471045,-0.39289093,-0.046622265,0.16856742,0.100324355,-0.4249227,0.16250962,-0.25874773,0.09932377,-0.91930056,-0.14884025,0.19302723,-0.3684531,-0.09643567,0.041951984,0.09673769,-0.27041575,-0.5067029,0.1823991,0.21858346,-0.1536689,0.21934575,0.096996754,-0.11001115,-0.5579769,-0.5036356,-0.15189938,0.09976246,0.5843309,-0.023253972,0.43407938,-0.14915974,0.016544025,0.42298204,-0.13630892,0.24047111,-0.14882308,-0.11695567,1.4334,0.002644604,-0.3221342,0.1398067,0.3449899,0.101054356,0.094940186,0.558514,-0.1902139,-0.020774156,0.066722035,-0.22132929,0.25318113,-0.1991243,-0.32379588,0.061987787,-0.56451,0.3130418,0.29940867,-0.35207075,0.3956488,0.11425659,0.21245562,0.41803047,-0.4635629,0.2386468,-0.48157823,-0.3813943,0.108099796,0.24175343,0.21458244,0.28671116,0.2608765,0.5348252,-0.27205342,-0.06889509,0.054636486,-0.0044011003,0.3353293,-0.32189336,-0.014592117,0.14585264,0.08936067,0.2569079,0.09899335,0.18151096,0.60205954,0.35885876,-0.22502366,0.034383394,0.2131321,-0.4549527,-0.11541088,0.12822941,0.02448873,-0.14590369,-0.1638438,0.014451659,0.3203745,-0.16766225,0.043264143,-0.20641711,-0.007703022,-0.0069380593,-0.25414267,0.050756864,-0.27279508,-0.10246057,-0.09644868,0.50868624,0.08775063,0.0753921,-0.15998037,-0.251275,-0.25710502,-0.063393034,0.12982954,-0.10585569,0.22975819,0.0021789395,0.48743942,-0.12728374,-0.25609663,0.12948917
COc1cccc(-n2ncc3c(N/N=C/c4cccc(F)c4)ncnc32)c1,-0.5037461,-0.065788716,0.03678357,0.27921423,-0.1549172,-0.34245852,-0.19217284,0.18491554,-0.12980403,0.3281962,0.20144363,0.34714392,-0.3183659,0.078598775,-0.106938586,0.13813947,-0.12836842,0.25904396,-0.31276453,0.56224173,0.12518571,0.022281954,-0.28855187,-0.50753814,0.55226815,0.27198076,-0.2368493,0.029303305,-0.03460575,0.037101977,0.13243656,0.36101475,0.13984565,0.28974974,0.09506117,-0.37706175,-0.132985,0.18944517,-0.4801157,-0.14574608,-0.16233137,-0.13869283,0.20464906,0.06715192,-0.13145436,0.48083624,0.25076348,-0.09206786,0.23539461,-0.28781477,0.26385537,0.106055215,-0.10209708,0.27769405,0.14656505,-0.21772863,-0.28606027,-0.15859252,0.005121004,-0.5046411,-0.058930095,-0.16129352,-0.07675054,0.10588977,-0.15626377,0.122155465,-0.13444105,-0.23711596,-0.21775632,0.35399693,-0.17742345,-0.0068825292,0.09578013,0.11043529,0.3435078,1.5461836,-0.06607727,0.33575004,-0.0114741875,-0.14116898,-0.04335693,-0.53426176,0.108897634,-0.07931915,-0.014790108,-0.11148426,0.046730854,0.18090867,0.2875107,0.004254709,-0.121078,-0.2590865,0.034245234,-0.017280698,0.32289985,0.117763534,-0.12606499,0.24590671,0.099700205,-0.17365515,-0.059865657,-0.4852646,0.61639726,0.05927261,0.31467673,-0.34621677,0.15596223,-0.42096025,0.12731233,-0.2725642,0.018340468,-0.3504624,0.38946512,0.31105706,-0.32448006,-0.27444628,0.05750588,0.2548234,0.427901,0.054056413,0.22668678,0.1610404,-0.17800108,0.2702022,0.5215539,-0.18635985,-0.20863938,0.23905657,-0.13897987,0.24619293,0.13056622,-0.089404434,-0.10161721,-0.042414837,0.1536939,-0.22782217,0.47253188,0.07800925,-0.17903008,0.18078372,-0.37444437,0.6745698,-0.40270448,0.2095187,0.18482955,0.1121699,-0.2089869,-0.18862903,0.018820928,0.13461998,0.14282732,0.08167602,0.1747703,-0.017607382,-0.08632261,0.32773113,-0.03318189,0.25324437,-0.20586972,0.0143897105,0.08574552,0.023968613,-0.15602055,-0.037810158,0.09454619,0.05606159,0.18589634,0.18649617,0.51843345,0.103587896,0.056626208,0.13305295,-0.40610552,0.029272065,0.046087038,0.77005774,0.3930458,0.1797529,0.1395826,0.24527615,0.46581358,0.020107402,0.1762711,0.119605385,0.3344024,0.3558124,0.27565846,-0.12968051,0.47898838,-0.003986276,-0.16263455,0.101260595,-0.131926,0.15050173,0.16194376,-0.09203591,0.17388615,-0.032038797,-0.259741,-0.12390497,0.05809725,0.101623625,0.47471678,0.0018278238,0.0004622841,0.17301331,0.32062677,0.043282226,-0.17594148,0.14398018,0.041767456,0.24622497,0.08457659,0.36182076,-0.40451857,-0.0565799,-0.008226856,-0.16361362,0.11262711,-0.21759285,0.1708818,0.19140247,0.1829367,0.15272194,-0.16072887,0.23030911,-0.031191975,0.24257375,0.21803689,0.2951049,-0.09626267,0.008705115,0.09512598,-0.42555124,-0.08379439,0.09940952,-0.015842976,-0.27231687,0.39808154,-0.032307856,-0.041675597,0.02068275,0.012619382,-0.27918714,-0.37433422,0.23526423,-0.30253515,0.21107219,0.19979142,-0.16006729,-0.18897,-0.18995018,0.06714022,-0.34098646,-0.113795966,0.10915178,0.034223948,0.17300181,-0.05684097,-0.08531331,0.22490637,-0.35644984,0.10220304,-0.22207148,-0.0718593,-0.13382785,-0.2005976,0.2842507,0.3299636,0.15700318,-0.26837447,-1.4055562,-0.04275325,-0.018773438,-0.032234833,-0.28622463,0.6715789,-0.2777269,-0.35959977,-0.3115855,0.0097219255,-0.036017083,-0.14170608,-0.6132722,0.21774518,0.3033952,-0.36933106,0.22903179,0.010274046,0.38390943,0.091228515,0.19844933,-0.11776707,0.012819031,-0.20247334,-0.060272075,-0.52042735,0.36798128,-0.3157521,-0.045367192,-0.05279024,0.09667236,0.15549518,-0.30175686,0.33577076,0.21672328,0.37057266,-0.29453287,0.39755246,-0.6642464,0.29000908,-0.025829291,0.09891308,-0.0069378978,-0.07369082,-0.03006294,0.1258385,0.260358,-0.33212665,0.059472453,-0.6016089,-0.4214749,-0.30055958,0.14437614,0.7976097,-0.17848326,-0.4435315,-0.06875842,0.33106178,-0.14280125,-0.19454607,0.16845565,-0.20763195,0.21855135,0.12395693,-0.2685749,0.3258775,-0.10430809,-0.46961662,-0.11315065,-0.06664701,-0.24909742,0.03377869,0.039087124,0.024680123,-0.37742716,-0.45265096,-0.015583539,0.19951181,0.26280135,0.33878496,-0.28942832,-0.4362092,-0.16535719,-0.04955842,0.05932866,0.36693156,-0.008630956,0.46291047,0.04388123,-0.29684407,0.30339253,0.31629106,0.105653055,-0.011751539,0.25939205,-0.4103291,-0.19987816,0.495856,0.33168295,-0.012659815,-0.14343618,0.23980568,-0.2804886,-0.019376384,0.28546926,0.17781454,-0.049009543,-0.0040907324,-0.596272,0.036984153,-0.16193588,0.2624126,-0.15119714
Cc1cc(O)cc(C)c1/C=C/c1cncc(C(N)=O)c1,-0.14680201,-0.17270939,-0.004456748,0.32211277,0.25369978,0.40220442,0.23389535,0.37673274,0.36990777,0.042079937,0.35177848,0.1709361,-0.13424042,-0.32787785,-0.10625821,-0.027623203,0.22487032,0.046785712,-0.12187598,0.045642402,0.3288676,-0.35585195,-0.25472975,-0.16641323,0.17866993,-0.2820865,-0.19016196,-0.011121514,-0.11518262,-0.04967475,0.18898028,0.09057691,-0.4639924,0.3556452,0.10459023,-0.28863472,-0.1312107,-0.1766347,-0.24373901,-0.058824994,-0.08726975,-0.2509983,-0.1718643,0.059283473,-0.33796984,0.09979971,-0.33358994,0.34656784,-0.11856126,-0.30413738,0.62402356,-0.3370723,-0.007828072,-0.059520222,-0.060184423,0.035987366,0.07850922,-0.5038535,0.52029896,-0.22192453,0.1454037,0.018844679,0.27042463,-0.055815063,-0.17962494,0.380957,-0.30664417,-0.2767511,-0.20209134,0.082988605,-0.13770525,0.34589908,0.368436,0.18892796,0.5142965,1.8404517,0.14949155,0.01570585,-0.27648357,-0.15335903,-0.010477533,-0.31882712,0.3285782,0.11912884,-0.12165152,-0.26653332,0.0429148,-0.43249062,-0.069531135,0.088302225,0.19343758,0.11030651,0.11718393,0.5417543,-0.10481945,0.15197569,-0.049490646,-0.16984293,0.0718924,-0.4725728,-0.11309028,-0.2744571,0.42493707,-0.1611699,0.080463834,-0.17265321,0.32321864,-0.05716274,0.18541488,-0.1716778,-0.31074718,0.49206308,0.019817075,-0.10826015,-0.42164996,-0.1336192,0.020455716,0.011748185,0.029733676,0.27208197,-0.0031381869,-0.101838395,0.013037612,-0.010925797,-0.23420545,0.105516,0.008883986,0.0115304245,0.17137529,-0.035264667,0.5986113,-0.19036464,-0.8467888,-0.014874004,-0.16641653,-0.049309824,1.0982519,-0.2540753,-0.52405846,0.104098745,-0.12634946,0.22086988,-0.39469162,1.005403,0.14435409,0.58779174,-0.24243222,-0.06847813,-0.2564453,-0.0064058267,-0.25495285,0.14543751,0.30126837,0.22612913,0.14194372,-0.2473777,0.007754365,0.54373205,-0.024875581,-0.20634116,-0.21204697,-0.07363796,0.25814414,-0.21059613,-0.026125869,0.4102224,-0.06516774,-0.29219416,-0.26367506,0.18226077,-0.09656281,0.3092478,0.117982514,0.06675229,-0.4342525,-0.139518,-0.15358159,0.17835832,0.053776,-0.0011136124,0.35735506,-0.03277785,-0.047010366,-0.12999475,-0.3514493,0.15482096,0.3419205,0.04758116,0.0638574,0.28682598,-0.0061054802,-0.21934628,-0.08131456,0.31800482,0.18122007,-0.002878225,0.15737191,0.14542441,0.14685568,-0.16892624,-0.080547065,-0.012020591,0.29065326,0.08905892,0.1374884,-0.24927092,-0.9050728,-0.30487725,0.10381398,-0.17809547,0.04597366,-0.02913431,-0.56052685,-0.024293486,0.15696639,0.009159668,-0.11162836,0.20711833,0.012984705,0.1409679,0.052589584,0.1870863,0.06471784,0.43268022,-0.14601648,0.29861948,0.15204449,0.097127795,-0.1252778,-0.33701855,0.23592812,-0.0062909233,0.034076333,-0.39630598,-0.26742324,0.11384208,0.06463849,-0.25947192,0.52046955,-0.14514107,0.025653927,0.26758677,0.023836356,0.32091495,-0.042151473,0.08731514,0.0012874021,-0.2844747,0.2101296,0.04353447,-0.14842558,0.05859342,0.013318758,-0.32027626,-0.123073116,0.2768066,0.1660503,0.043260887,0.06694167,0.2048468,0.30023947,0.22337992,0.07382821,0.37241647,-0.365551,0.079145186,-0.06774482,0.1589305,0.29501587,-0.046471994,-0.18231496,-1.4615525,0.16385251,0.07771216,0.32642472,-0.13592878,0.15923244,0.12273696,-0.079388894,0.12014544,-0.054473743,0.31712526,-0.25963107,0.117988355,0.36196434,0.17757235,-0.5809748,0.050801333,0.4695222,-0.25113693,-0.0037601027,0.32372347,0.08519596,-0.29907352,0.057894778,0.14856523,-0.37099096,0.05135139,0.08950197,0.12745932,-0.89588565,0.25133204,0.38128364,-0.27103594,-0.04997489,0.30688474,0.13705997,0.06033642,-0.033822104,-0.6974443,0.17878205,-0.18414797,0.39523166,0.22649743,-0.19311187,-0.068595126,-0.017895568,-0.11605517,0.13096915,0.20963393,-0.3132156,-0.32348552,-0.13493896,-0.07322831,-0.31058335,-0.17462659,0.17519589,-0.22604637,0.1770345,0.3493943,-0.097962536,-0.20857954,-0.2163931,-0.18769439,-0.08434468,-0.25643173,0.2681347,0.402126,0.12548481,-0.17904551,0.09529699,-0.14949487,0.16390464,0.065141186,0.0928975,-0.2728001,-0.05058484,-0.00070834614,-0.058477838,0.6112392,0.029336054,-0.37179855,0.009417051,0.3790602,0.022171536,0.11277787,0.33389154,0.09623846,-0.09148307,0.17028874,-0.25753158,0.26054794,0.18507834,0.082992695,-0.027451118,-0.43409565,-0.31418777,-0.108178295,0.039578322,-0.04017124,0.53362626,0.14107157,0.051087245,0.14558266,-0.05163415,0.59650797,0.34619045,-0.038518157,0.0051170276,0.7318531,-0.22628218,0.13343176,-0.47354504,-0.45254764
CCn1c(-c2nonc2N)nc2c(C#CC(C)(C)O)nc(OC[C@H](N)c3ccccc3)cc21,0.39530256,0.37246972,-0.22740357,-0.16725305,-0.0042902026,0.102443434,0.25131953,-0.2382923,0.06485897,0.36123693,0.13735206,0.25591826,-0.058023326,-0.14676662,0.09318484,-0.09849756,-0.360284,0.047031093,-0.34484905,-0.077598706,-0.15205304,0.103279665,-0.57547045,0.01645604,-0.18523943,0.29965132,-0.34720427,-0.34284154,-0.037762612,0.3635121,0.015463229,0.28484696,0.0813105,-0.2461073,0.012984569,-0.10949771,-0.4127038,-0.07645711,0.20577802,0.14751942,-0.27297387,-0.1938151,-0.03576539,-0.05892595,-0.02369309,0.13699675,-0.18217401,-0.365113,0.25850677,-0.05227524,0.19138817,-0.24371971,0.20015451,0.4813068,0.113649525,-0.10177686,-0.27061483,-0.31475133,-0.10225345,-0.23031121,0.3565256,0.12927184,-0.21027383,-0.12885582,-0.031464696,-0.5455377,-0.17473404,-0.4219819,0.42955944,0.38102326,-0.42765647,-0.15473638,0.14151572,-0.270983,0.23890509,1.3178306,-0.13617346,-0.31173864,-0.50170755,-0.78824925,0.12625416,-0.169245,0.5059353,0.041557778,-0.0683341,0.42031682,0.0184764,-0.117919855,0.29898557,0.1746851,-0.4125029,0.07869745,0.44189802,-0.046026092,-0.19243231,-0.62688833,-0.06726684,0.1096371,0.3854975,-0.194348,-0.26054415,-0.42902067,-0.05288869,-0.313045,-0.108601466,0.105704874,-0.10044386,-1.1247267,0.56198597,-0.14226755,-0.4058705,-0.3023816,-0.001368066,0.41477832,-0.06608011,0.06310363,0.018548692,-0.15752491,-0.04716709,0.44349816,0.21052589,-0.0383898,0.57433444,-0.05964164,0.17463435,-0.12993434,0.012472319,-0.03183672,-0.21580695,0.10134105,0.0039570145,0.017446209,-0.3752701,0.017634004,-0.10587526,-0.024841307,-0.15686658,0.49313417,-0.4581321,-0.019017348,0.16159621,-0.389516,0.06461972,-0.12374417,0.20606223,0.08917307,-0.14464341,-0.17250326,0.20849633,-0.03776246,-0.056722075,0.17585562,0.08437814,-0.12647383,0.13546719,0.17192201,-0.14601283,0.20353964,0.14718834,0.17164978,0.119018145,0.124232724,0.13933118,-0.030430723,0.15512462,-0.049078092,0.13776158,0.13521601,-0.12863745,0.1951726,-0.3886415,0.18332176,-0.3368539,0.30154276,-0.09090799,0.33547997,-0.43879095,-0.07650817,0.37283072,0.046013694,0.22987059,-0.23389788,-0.056704644,0.3479643,-0.080017015,-0.24267282,0.54971576,0.18570396,0.29860035,-0.19950558,-0.1124135,-0.5102156,-0.49737003,0.28829187,-0.5084943,-0.35079205,0.19733335,0.32739177,0.516066,0.32888192,-0.29764736,0.054114167,0.1052296,0.44860446,0.26713374,0.109017335,0.327625,0.37274832,-0.09673136,-0.11300753,-0.16964273,-0.067887045,-0.06963783,0.004347391,0.13766158,0.44360414,-0.1507686,0.14153203,0.17568956,-0.23613633,-0.2365854,-0.0498586,0.06702779,-0.14271827,0.25987178,0.5985178,-0.08227425,-0.21394964,-0.5885995,-0.039725687,-0.04587602,0.0037564333,-0.005266381,-0.08030562,-0.19466174,0.008725789,0.5065523,0.19872999,0.1494554,-0.27056822,-0.3060354,-0.09651728,-0.09252302,0.5330005,0.33167368,-0.3091965,0.11170404,-0.16205163,-0.18285178,0.18129636,0.19187325,0.13182409,-0.24825503,0.17640464,-0.13029091,0.16935411,-0.09017418,-0.005353493,-0.03505573,0.25822023,0.2655672,-0.16519015,0.3726615,-0.014863818,-0.21303348,-0.18048778,0.21793313,0.21855281,-0.02467551,-0.375667,0.2724812,-1.0446291,-0.26370138,0.102412075,-0.1263079,0.19104064,0.5051698,0.22512712,-0.0975885,-0.029104056,0.31783044,0.1763568,0.081712306,0.32748443,0.11485585,0.35171777,-0.22157995,0.2791645,0.13314588,-0.27956536,0.07697374,-0.13416141,0.09759423,0.12779741,0.5292996,-0.0025256658,0.075531214,-0.070642516,0.08916847,-0.18985131,-0.28762832,0.07060153,-0.1859986,-0.08766168,0.4337108,0.05768175,-0.13102846,-0.00069665,-0.026376285,0.18861122,-0.040108502,-0.29294017,-0.019327411,0.20712714,0.087599196,0.012611593,-0.114936136,0.19322836,0.11815505,0.08666936,-0.36190203,-0.060358,-0.004795021,0.28633702,0.5126386,0.22177808,0.015342635,-0.60261196,0.62390184,0.21589704,0.33874565,0.13965061,-0.13913389,0.58951735,-0.2557911,-0.49514502,-0.009724356,0.4230522,0.096581325,0.28804606,0.23247519,-0.037318315,-0.0072661773,0.48803806,0.25028923,-0.49589565,-0.39683113,0.044771448,-0.051957972,0.7980438,-0.30268228,-0.28159827,-0.34221753,-0.06417204,0.112751454,0.37718236,0.22803809,0.20626193,0.27236614,0.08933746,-0.13141026,-0.13747391,0.3846234,0.55320823,-0.18612169,-0.24274945,-0.31068957,-0.067581914,0.20162864,0.034334097,-0.06003832,-0.5167617,0.12782478,0.44781184,0.14604071,0.25800586,0.061735876,0.038050316,-0.04987618,0.34610146,-0.013922498,-0.16655189,0.104017496,0.15970807
CCn1c(-c2nonc2N)nc2c(N3CCCC3)nccc21,0.46918958,0.36539683,-0.23203252,-0.08974078,-0.024690049,0.116810106,0.28370562,-0.20989549,0.16167593,0.41557375,0.13220176,0.26353717,-0.060195483,-0.17267308,0.15487517,-0.14548981,-0.4323419,0.016479546,-0.2940953,-0.09744504,-0.16605023,0.07633058,-0.49922556,0.032204967,-0.3952605,0.30672586,-0.3467378,-0.33980003,-0.015888799,0.42704418,-0.0032930644,0.24939166,-0.08816711,-0.28713888,0.008637035,-0.000899379,-0.33671692,-0.06298034,0.23759912,0.09739686,-0.27940437,-0.15736932,-0.12278338,-0.028344411,-0.1363265,-0.034596562,-0.26306206,-0.27109182,0.2912784,-0.010347471,0.17098622,-0.16542119,0.19504382,0.460134,0.1383007,-0.007087494,-0.29547098,-0.29315203,-0.042450447,-0.21875094,0.45272428,0.22644337,-0.3116451,-0.09928326,0.027624456,-0.50387484,-0.17092723,-0.43492764,0.52585554,0.3295632,-0.43252534,-0.23887938,0.10665479,-0.40355566,0.25560853,1.3996443,-0.13717972,-0.24333337,-0.5055553,-0.6963957,0.14062932,-0.1670203,0.50013214,0.07928392,-0.13729271,0.34990782,0.04489413,-0.15714456,0.33564132,0.25945657,-0.44509932,0.08472469,0.3748589,0.07945837,-0.3781823,-0.5756019,-0.08007462,0.076704934,0.39194107,-0.00044511343,-0.25332466,-0.30200505,-0.049690496,-0.34779602,-0.065959096,0.10939589,-0.07371817,-1.0757021,0.54863435,-0.030390354,-0.42592758,-0.31744844,-0.031060176,0.42476645,0.10401463,0.059799433,-0.05503048,-0.17509292,-0.119889736,0.5936774,0.2187634,0.041432716,0.5993698,-0.106143974,0.12737992,-0.117568254,-0.010348591,-0.032808356,-0.16181436,-0.033433747,0.007716941,-0.04583655,-0.3001875,0.12291814,-0.1536399,-0.012752285,-0.2442262,0.60417634,-0.4443594,-0.018147182,0.1647219,-0.38056058,0.08756389,0.0013683272,0.09882168,0.09532569,-0.14037664,-0.19037496,0.23777033,-0.10515075,-0.06927868,0.1548388,-0.020100582,-0.09575531,0.13108976,0.10677704,-0.1483529,0.19229081,0.12979,0.2228707,0.17880528,0.091235735,0.24782027,0.062055435,0.1526639,-0.088628076,0.055488642,0.21510695,-0.17521612,0.11295303,-0.43541119,0.114589766,-0.23815484,0.3788306,-0.1105671,0.29927847,-0.45697778,-0.115403675,0.24470417,-0.011629153,0.15446639,-0.24311472,-0.10287652,0.25468108,-0.11138253,-0.22237968,0.5588519,0.13746132,0.29093558,-0.18346068,-0.14728059,-0.58307767,-0.54048586,0.25328946,-0.5380971,-0.30450952,0.1645125,0.27767524,0.48109877,0.174913,-0.33402407,0.10136632,0.0987673,0.50288874,0.36445072,0.11320362,0.41956574,0.44513685,-0.043656304,-0.04340068,-0.27907777,-0.026529193,0.103484504,-0.06353032,0.1364116,0.46027434,-0.056097064,0.058882788,0.19786851,-0.1318009,-0.30817166,-0.16429831,0.102927566,-0.1561352,0.2564796,0.5050466,-0.16320719,-0.30660304,-0.56992406,-0.10828096,0.014884132,0.006265962,-0.13354008,-0.00047328495,-0.23989764,0.006551116,0.46606883,0.15824677,0.05978991,-0.28547692,-0.2684138,-0.06515308,-0.0869463,0.48867506,0.2940613,-0.27512214,0.21527962,-0.074164644,-0.19889615,0.100672044,0.22241299,0.0942777,-0.22290933,0.18710677,-0.16096309,0.06606498,-0.10101257,-0.048504233,-0.12940198,0.31754,0.33764282,-0.18046191,0.3574661,-0.0622768,-0.2741312,-0.13050084,0.16084047,0.109174736,-0.064206116,-0.47987282,0.3484201,-1.0936219,-0.30060297,0.06862502,-0.14509836,0.2480345,0.4642443,0.23504923,-0.070375994,-0.051121514,0.30586585,0.12480057,0.15311669,0.29486635,0.11402375,0.33729988,-0.14681886,0.18767938,0.1509296,-0.17886725,0.06338961,-0.037518833,0.13685992,0.10548899,0.43372974,-0.031881165,0.13299939,-0.07441858,0.12556869,-0.19176626,-0.31322134,0.05407924,-0.33191764,-0.108599946,0.4517685,0.0050037927,-0.07002962,-0.0369171,0.014796571,0.2742174,0.03031689,-0.2501932,-0.0046799495,0.24986467,0.16595638,-0.00166883,-0.08164675,0.12697715,0.11941504,0.06725803,-0.3074047,0.0151929045,0.06487825,0.22320539,0.57001835,0.2766417,-0.040557552,-0.51980364,0.63677895,0.23222882,0.24301784,0.10869584,-0.089530356,0.62429285,-0.25626358,-0.41741124,0.027102057,0.43847162,0.16320187,0.3021645,0.2906098,0.02473728,-0.0938183,0.6031595,0.2208648,-0.45839405,-0.37275705,0.091733366,-0.0011150572,0.74477524,-0.40141046,-0.21296807,-0.30974352,-0.10666069,0.066834465,0.3161732,0.23322034,0.17900282,0.25066075,0.0725634,-0.07991182,-0.20905541,0.41754425,0.50528723,-0.13540308,-0.21364698,-0.2902217,-0.11530175,0.10612262,-0.0035005996,-0.087409735,-0.4431559,0.16496481,0.43739,0.23437148,0.25764006,0.09731688,0.0026324652,-0.07561303,0.36475393,-0.066597484,-0.11592463,0.21178395,0.1358016
CNC(=O)c1cccc(C#Cc2cncnc2Nc2ccc(OCc3cccc(F)c3)c(Cl)c2)c1,-0.0403195,0.0452171,0.049473386,0.23142685,0.278858,-0.13426991,0.49653867,0.401042,-0.14457628,-0.41698903,0.20607717,-0.29981324,0.2700989,0.33438802,-0.017338673,0.17266372,-0.010421133,0.30144772,-0.27975947,0.15625267,-0.0563344,-0.043067586,-0.066079065,-0.01579435,-0.23476194,0.12808885,-0.3605595,0.09970641,-0.070064835,0.37709066,-0.29570648,-0.07959358,0.036358953,-0.012164816,0.0024673247,-0.28311288,-0.02799871,-0.050429873,-0.44146487,0.28785798,-0.07735428,0.10497115,0.18836816,-0.2658113,0.120346084,-0.35221526,0.13187596,0.22133769,-0.045456715,0.111614645,0.525464,0.10555608,-0.28978294,0.27083758,-0.08081281,0.084863186,-0.4738377,-0.49349076,-0.24982636,-0.0008129201,0.142303,-0.36032552,0.33526742,0.054737806,-0.38415772,-0.116551824,-0.14011514,0.018303275,0.19168264,-0.17639306,0.08976282,0.16779682,0.3564343,-0.041502185,-0.10482027,1.9493173,0.1600307,0.39811522,0.34915006,-0.03619397,0.0660174,-0.2011669,-0.2921538,-0.11472023,0.24479406,0.09873627,0.058115378,0.08393584,0.29622626,-0.0075838445,-0.12151212,0.1078055,-0.24782683,-0.30617768,0.25699964,-0.19520709,0.20446792,0.19448814,0.20351239,0.24386245,-0.0053745024,-0.08831737,0.0797367,-0.1444416,-0.0477115,-0.19773068,-0.08105378,-0.06354897,0.24419692,-0.3414306,-0.08285017,-0.2570034,0.3233709,0.020238664,0.13725933,0.18671381,-0.030495785,-0.12775841,0.26206633,0.058930155,-0.016664524,0.1372573,-0.28862888,0.27654588,0.46701142,0.05505342,-0.4336948,0.16493109,0.16329142,-0.0489085,0.1131476,-0.015578114,-0.19370823,0.3995906,-0.027286345,-0.1561639,0.2371688,0.21719666,0.17758341,0.23766229,0.04272881,-0.020706272,0.0435625,0.027939674,-0.0107252095,0.36566183,0.10929958,-0.0056592827,0.048313152,-0.014474974,0.09923656,0.12919517,-0.012019919,-0.13678169,-0.11293902,0.5694055,-0.16580269,0.74509734,0.41851917,-0.027876575,0.1851707,-0.23444673,-0.34784698,0.45664573,0.18672702,-0.037932493,-0.014739018,-0.33551383,0.21655303,0.023122301,-0.17167924,0.28031984,-0.352539,-0.07852693,0.116388984,0.42325857,0.2579119,-0.27478755,-0.25743064,0.19707708,0.073716074,0.007298919,-0.013429813,0.25359824,0.5234828,-0.386728,-0.10944971,-0.02455252,-0.13426456,0.37085113,-0.29319882,-0.28976896,-0.2793994,-0.013361669,0.49842572,-0.4066133,-0.083325945,0.21720079,0.11298305,0.11408291,-0.10297998,-0.042554963,0.00494821,-0.33049777,-0.022168318,0.16028783,-0.032799266,-0.026302865,-0.31863528,0.097363114,-0.19049594,-0.13722125,-0.038645454,-0.11234562,-0.15464562,-0.070774205,-0.5362752,0.23516133,-0.062991425,-0.31674612,-0.14367191,-0.09032413,-0.054219875,-0.02999703,-0.6075011,0.18136807,-0.057653043,-0.3515267,0.7074716,0.011250216,-0.2179736,-0.19721404,0.048049904,0.36238262,-0.013800233,-0.06643457,-0.1371189,0.30551666,0.21306339,0.4510898,-0.31232533,-0.03081278,-0.2253648,-0.00120528,0.37526417,-0.10306012,-0.23816384,-0.061885532,0.5828394,-0.1296805,0.10482244,0.0872614,-0.44659132,0.025311572,-0.12082034,0.114349455,0.3332032,-0.09902765,0.30148444,-0.30870992,0.36803457,0.14653215,0.06267179,-0.67321414,-0.26194024,0.29764822,-0.3684682,-0.40400046,0.37041542,0.068243094,-0.3020159,-1.1848348,0.28371263,-0.3775103,-0.03574127,-0.18139604,0.115095735,-0.19770807,0.13770278,-0.22104059,0.12561126,0.076158136,0.29422596,-0.06348425,0.15256828,-0.053953763,-0.17089006,-0.20310041,-0.6774495,-0.12856263,-0.36068207,0.38866216,0.38594627,0.21667612,0.22262006,-0.1916187,-0.7113384,0.216524,-0.21693799,0.2875881,-0.009728345,-0.5817838,0.5043085,0.11838877,-0.38804638,0.3167804,-0.12333171,-0.33000892,-0.14180794,0.14874537,-0.104459286,0.11799626,0.48477757,0.5120653,-0.255233,0.11768093,-0.42872924,0.19617862,-0.26704153,-0.35279667,-0.21939348,0.035613537,-0.0096442895,-0.11610914,0.76103926,0.40402734,0.13614066,0.21538794,-0.23394616,0.17170857,-0.22177683,0.16938281,-0.054204155,0.162626,-0.07020926,-0.23481442,-0.46027434,0.06474794,0.12458615,-0.3739138,0.1813912,0.23357905,0.5345876,0.15441774,0.06584382,0.39402974,0.21888082,0.21814696,-0.19853404,0.44780883,0.011143701,0.054439392,0.0313924,0.2302682,-0.27567896,-0.17151964,0.2377079,0.2566355,0.18668151,0.15890713,-0.065936476,0.0769201,0.2984174,-0.42791006,0.19458233,0.09736166,-0.3313955,-0.030691203,0.05411618,0.20476103,0.29707778,-0.0080404105,0.15666065,-0.033804286,-0.34930015,0.03499241,-0.17608573,0.21215047,-0.049760107,-0.6009007,0.31423393,0.27609104,0.35052264,-0.106270425
CCCN1CCC(c2ccc(Nc3nc(Nc4cc(F)ccc4C(N)=O)c4cc[nH]c4n3)c(OC)c2)CC1,-0.402774,0.0476958,0.16373381,-0.13466905,0.23129779,0.53585505,0.13919857,0.22697689,-0.2931156,0.057163313,0.3340123,-0.16128334,-0.28967994,0.42271033,0.06426882,0.10549386,0.003783492,0.2961365,-0.27868143,0.055518698,0.10449532,-0.49537256,-0.22796863,0.03613851,-0.11024202,0.10723747,-0.31710255,-0.10697517,-0.11877061,0.2258927,-0.057874586,-0.3869659,0.23082823,-0.19801837,-0.22848755,-0.028182888,0.16230655,-0.08230447,0.019541051,0.15356743,0.17995939,-0.034974374,0.22818421,-0.14411098,0.31114674,-0.28483537,0.0793905,-0.039695222,-0.011938239,0.706261,0.5278301,0.33782002,0.22668342,-0.12891202,-0.08571847,-0.15954702,-0.1006508,0.15322916,0.24264084,-0.2103629,-0.1533767,0.13511217,0.25684085,-0.19952822,-0.084757425,-0.10764516,-0.06722544,0.13061085,0.25918236,0.43862957,-0.087590724,0.30165935,-0.048625227,-0.39899495,0.098398514,2.0598886,0.11388939,-0.056877956,0.23487303,-0.027000515,0.2688993,0.008634842,-0.23571986,-0.10188428,0.27509362,0.10202951,0.39581275,-0.2301385,0.26968408,-0.18399993,-0.2839028,-0.21536937,-0.031975843,0.06414273,-0.15111701,0.11580305,0.32583675,0.23487858,-0.11653309,-0.081471354,-0.17718817,0.52226764,0.119854525,0.012354598,-0.049575716,0.118398465,0.14288898,-0.099171534,0.38588497,-0.33316937,-0.30788913,-0.23475944,0.21290332,0.17050882,0.1037505,-0.0068976064,0.0799367,0.24045606,0.13096617,-0.17470318,-0.32709563,0.43614733,-0.09638421,-0.5741711,0.03341886,-0.13370277,0.02634357,0.1420407,-0.15098761,0.35696176,0.16925548,-0.055451747,0.16341121,0.11985371,-0.0446472,0.11830738,-0.24423334,-0.3701587,0.12629099,0.042449538,-0.31250134,0.3001316,0.011223819,-0.29613256,0.035294857,-0.47551903,0.15264185,-0.3164761,0.2735403,-0.006630982,0.060574003,0.11946148,-0.019751163,0.17646815,-0.2572673,0.21259256,-0.027839355,0.22073816,0.21364306,0.0007759128,0.13795678,0.16730694,-0.05456644,-0.22957149,0.02021462,0.12086881,0.17868993,-0.5902348,-0.44684997,-0.16600145,0.050248176,-0.12786593,-0.21699795,0.17054117,-0.14536473,0.5443635,0.082362756,-0.26931617,0.01808031,-0.3680595,0.29538634,0.3652433,0.011575948,-0.07991581,-0.42670763,0.022399984,0.14481385,-0.09460507,0.42938706,0.051330864,-0.91313726,0.08655487,0.23695263,0.065653175,0.26577413,-0.30709627,-0.2961687,-0.08674901,0.15640217,0.2746054,0.38699117,0.1553116,0.09824009,-0.06927701,-0.08188798,-0.15424009,-0.10983444,0.52468747,-0.05610109,0.5404717,-0.19036204,-0.45092413,-0.12218533,0.14618196,-0.28255594,-0.23308662,-0.18928196,0.19447081,0.14525072,-0.45461994,-0.3218325,-0.16237693,0.45531297,0.37361532,-0.1324463,0.15926392,-0.007494004,-0.2526144,0.06373782,0.069879375,-0.08242627,-0.22681463,0.18017814,0.19291148,0.07804328,0.04966858,0.22667399,-0.37395105,-0.2620028,0.17480402,-0.33232778,-0.039534926,0.2796719,0.1933216,-0.15506062,0.009019071,-0.39204448,0.38592073,0.46503046,-0.16345336,0.23301616,0.13382427,0.120865874,-0.46653166,-0.024888339,0.13237835,-0.056260135,0.25862363,-0.18126455,-0.40633366,0.13219678,-0.4431836,0.19969784,-0.32914263,0.30146992,-0.034336288,-0.33586055,-0.024029763,0.12902635,0.15475532,0.06794121,-1.1224926,0.8405635,0.04857406,0.16917464,-0.05350859,0.079943255,-0.15219566,0.029871453,0.07485707,0.21689796,-0.3425055,-0.080735564,0.4868317,0.0041900505,-0.39475203,-0.17978323,0.113399215,-0.43261984,-0.03578979,-0.24492091,0.22497547,0.23518823,-0.093334354,0.13758928,-0.18572368,0.29036382,0.41375235,-0.02601015,0.12941755,0.021228245,-0.5014238,0.6622434,0.12690546,-0.17392398,0.02812276,-0.06492677,-0.022695586,-0.23251636,0.062350485,-0.13983732,0.16500582,0.17824565,0.1493338,-0.19743071,0.06984121,-0.12661271,-0.35257098,-0.12781848,-0.2190158,0.014161779,-0.070704184,-0.30304003,-0.28580517,0.55940795,-0.003860429,0.22655533,0.10461267,-0.4380843,0.18665503,0.45560846,-0.12607713,-0.2663924,-0.24489738,-0.013563912,-0.047595356,-0.033294883,-0.015881183,-0.0720595,-0.26485312,0.262918,-0.14551148,-0.32641855,-0.55713326,0.6126155,0.026568236,0.14364812,-0.0016899415,-0.20098525,0.14332044,0.08155296,0.43636164,-0.49344364,0.3886967,-0.3217145,0.006849472,0.020837408,0.120109946,0.07418325,0.28649735,0.3648542,0.30629525,0.27655357,-0.15308431,-0.20112646,0.25121087,-0.00012296405,0.3491856,0.112661116,-0.09501618,0.08863962,0.2684434,0.15172212,-0.11731284,-0.043862667,-0.3236426,-0.024974795,0.4338253,-0.13914523,-0.34538022,0.02504132,-0.03610813,-0.03040817,0.7299204
